0.000000000000000000e+00 0.000000000000000000e+00 0.000000000000000000e+00 0.000000000000000000e+00 0.000000000000000000e+00 0.000000000000000000e+00 -0.000000000000000000e+00 -0.000000000000000000e+00 -0.000000000000000000e+00 -0.000000000000000000e+00 -0.000000000000000000e+00 -0.000000000000000000e+00 -0.000000000000000000e+00 -0.000000000000000000e+00 -0.000000000000000000e+00 -0.000000000000000000e+00 -0.000000000000000000e+00 -0.000000000000000000e+00 -0.000000000000000000e+00 -0.000000000000000000e+00 0.000000000000000000e+00 0.000000000000000000e+00 0.000000000000000000e+00 0.000000000000000000e+00 0.000000000000000000e+00 0.000000000000000000e+00 -0.000000000000000000e+00 -0.000000000000000000e+00 -0.000000000000000000e+00 -0.000000000000000000e+00 -0.000000000000000000e+00 -0.000000000000000000e+00 -0.000000000000000000e+00 -0.000000000000000000e+00 -0.000000000000000000e+00 -0.000000000000000000e+00 -0.000000000000000000e+00 -0.000000000000000000e+00 -0.000000000000000000e+00 -0.000000000000000000e+00 0.000000000000000000e+00 0.000000000000000000e+00 0.000000000000000000e+00 0.000000000000000000e+00 0.000000000000000000e+00 0.000000000000000000e+00 -0.000000000000000000e+00 -0.000000000000000000e+00 -0.000000000000000000e+00 -0.000000000000000000e+00 -0.000000000000000000e+00 -0.000000000000000000e+00 -0.000000000000000000e+00 -0.000000000000000000e+00 -0.000000000000000000e+00 -0.000000000000000000e+00 -0.000000000000000000e+00 -0.000000000000000000e+00 -0.000000000000000000e+00 -0.000000000000000000e+00 0.000000000000000000e+00 0.000000000000000000e+00 0.000000000000000000e+00 0.000000000000000000e+00 0.000000000000000000e+00 0.000000000000000000e+00 -0.000000000000000000e+00 -0.000000000000000000e+00 -0.000000000000000000e+00 -0.000000000000000000e+00 -0.000000000000000000e+00 -0.000000000000000000e+00 -0.000000000000000000e+00 -0.000000000000000000e+00 -0.000000000000000000e+00 -0.000000000000000000e+00 -0.000000000000000000e+00 -0.000000000000000000e+00 -0.000000000000000000e+00 -0.000000000000000000e+00 0.000000000000000000e+00 0.000000000000000000e+00 0.000000000000000000e+00 0.000000000000000000e+00 0.000000000000000000e+00 0.000000000000000000e+00 -0.000000000000000000e+00 -0.000000000000000000e+00 -0.000000000000000000e+00 -0.000000000000000000e+00 -0.000000000000000000e+00 -0.000000000000000000e+00 -0.000000000000000000e+00 -0.000000000000000000e+00 -0.000000000000000000e+00 -0.000000000000000000e+00 -0.000000000000000000e+00 -0.000000000000000000e+00 -0.000000000000000000e+00 -0.000000000000000000e+00
0.000000000000000000e+00 0.000000000000000000e+00 0.000000000000000000e+00 0.000000000000000000e+00 0.000000000000000000e+00 0.000000000000000000e+00 -0.000000000000000000e+00 -0.000000000000000000e+00 -0.000000000000000000e+00 -0.000000000000000000e+00 -0.000000000000000000e+00 -0.000000000000000000e+00 -0.000000000000000000e+00 -0.000000000000000000e+00 -0.000000000000000000e+00 -0.000000000000000000e+00 -0.000000000000000000e+00 -0.000000000000000000e+00 -0.000000000000000000e+00 -0.000000000000000000e+00 0.000000000000000000e+00 0.000000000000000000e+00 0.000000000000000000e+00 0.000000000000000000e+00 0.000000000000000000e+00 0.000000000000000000e+00 -0.000000000000000000e+00 -0.000000000000000000e+00 -0.000000000000000000e+00 -0.000000000000000000e+00 -0.000000000000000000e+00 -0.000000000000000000e+00 -0.000000000000000000e+00 -0.000000000000000000e+00 -0.000000000000000000e+00 -0.000000000000000000e+00 -0.000000000000000000e+00 -0.000000000000000000e+00 -0.000000000000000000e+00 -0.000000000000000000e+00 0.000000000000000000e+00 0.000000000000000000e+00 0.000000000000000000e+00 0.000000000000000000e+00 0.000000000000000000e+00 0.000000000000000000e+00 -0.000000000000000000e+00 -0.000000000000000000e+00 -0.000000000000000000e+00 -0.000000000000000000e+00 -0.000000000000000000e+00 -0.000000000000000000e+00 -0.000000000000000000e+00 -0.000000000000000000e+00 -0.000000000000000000e+00 -0.000000000000000000e+00 -0.000000000000000000e+00 -0.000000000000000000e+00 -0.000000000000000000e+00 -0.000000000000000000e+00 0.000000000000000000e+00 0.000000000000000000e+00 0.000000000000000000e+00 0.000000000000000000e+00 0.000000000000000000e+00 0.000000000000000000e+00 -0.000000000000000000e+00 -0.000000000000000000e+00 -0.000000000000000000e+00 -0.000000000000000000e+00 -0.000000000000000000e+00 -0.000000000000000000e+00 -0.000000000000000000e+00 -0.000000000000000000e+00 -0.000000000000000000e+00 -0.000000000000000000e+00 -0.000000000000000000e+00 -0.000000000000000000e+00 -0.000000000000000000e+00 -0.000000000000000000e+00 0.000000000000000000e+00 0.000000000000000000e+00 0.000000000000000000e+00 0.000000000000000000e+00 0.000000000000000000e+00 0.000000000000000000e+00 -0.000000000000000000e+00 -0.000000000000000000e+00 -0.000000000000000000e+00 -0.000000000000000000e+00 -0.000000000000000000e+00 -0.000000000000000000e+00 -0.000000000000000000e+00 -0.000000000000000000e+00 -0.000000000000000000e+00 -0.000000000000000000e+00 -0.000000000000000000e+00 -0.000000000000000000e+00 -0.000000000000000000e+00 -0.000000000000000000e+00
0.000000000000000000e+00 0.000000000000000000e+00 0.000000000000000000e+00 0.000000000000000000e+00 0.000000000000000000e+00 0.000000000000000000e+00 -0.000000000000000000e+00 -0.000000000000000000e+00 -0.000000000000000000e+00 -0.000000000000000000e+00 -0.000000000000000000e+00 -0.000000000000000000e+00 -0.000000000000000000e+00 -0.000000000000000000e+00 -0.000000000000000000e+00 -0.000000000000000000e+00 -0.000000000000000000e+00 -0.000000000000000000e+00 -0.000000000000000000e+00 -0.000000000000000000e+00 0.000000000000000000e+00 0.000000000000000000e+00 0.000000000000000000e+00 0.000000000000000000e+00 0.000000000000000000e+00 0.000000000000000000e+00 -0.000000000000000000e+00 -0.000000000000000000e+00 -0.000000000000000000e+00 -0.000000000000000000e+00 -0.000000000000000000e+00 -0.000000000000000000e+00 -0.000000000000000000e+00 -0.000000000000000000e+00 -0.000000000000000000e+00 -0.000000000000000000e+00 -0.000000000000000000e+00 -0.000000000000000000e+00 -0.000000000000000000e+00 -0.000000000000000000e+00 0.000000000000000000e+00 0.000000000000000000e+00 0.000000000000000000e+00 0.000000000000000000e+00 0.000000000000000000e+00 0.000000000000000000e+00 -0.000000000000000000e+00 -0.000000000000000000e+00 -0.000000000000000000e+00 -0.000000000000000000e+00 -0.000000000000000000e+00 -0.000000000000000000e+00 -0.000000000000000000e+00 -0.000000000000000000e+00 -0.000000000000000000e+00 -0.000000000000000000e+00 -0.000000000000000000e+00 -0.000000000000000000e+00 -0.000000000000000000e+00 -0.000000000000000000e+00 0.000000000000000000e+00 0.000000000000000000e+00 0.000000000000000000e+00 0.000000000000000000e+00 0.000000000000000000e+00 0.000000000000000000e+00 -0.000000000000000000e+00 -0.000000000000000000e+00 -0.000000000000000000e+00 -0.000000000000000000e+00 -0.000000000000000000e+00 -0.000000000000000000e+00 -0.000000000000000000e+00 -0.000000000000000000e+00 -0.000000000000000000e+00 -0.000000000000000000e+00 -0.000000000000000000e+00 -0.000000000000000000e+00 -0.000000000000000000e+00 -0.000000000000000000e+00 0.000000000000000000e+00 0.000000000000000000e+00 0.000000000000000000e+00 0.000000000000000000e+00 0.000000000000000000e+00 0.000000000000000000e+00 -0.000000000000000000e+00 -0.000000000000000000e+00 -0.000000000000000000e+00 -0.000000000000000000e+00 -0.000000000000000000e+00 -0.000000000000000000e+00 -0.000000000000000000e+00 -0.000000000000000000e+00 -0.000000000000000000e+00 -0.000000000000000000e+00 -0.000000000000000000e+00 -0.000000000000000000e+00 -0.000000000000000000e+00 -0.000000000000000000e+00
0.000000000000000000e+00 0.000000000000000000e+00 0.000000000000000000e+00 0.000000000000000000e+00 0.000000000000000000e+00 0.000000000000000000e+00 -0.000000000000000000e+00 -0.000000000000000000e+00 -0.000000000000000000e+00 -0.000000000000000000e+00 -0.000000000000000000e+00 -0.000000000000000000e+00 -0.000000000000000000e+00 -0.000000000000000000e+00 -0.000000000000000000e+00 -0.000000000000000000e+00 -0.000000000000000000e+00 -0.000000000000000000e+00 -0.000000000000000000e+00 -0.000000000000000000e+00 0.000000000000000000e+00 0.000000000000000000e+00 0.000000000000000000e+00 0.000000000000000000e+00 0.000000000000000000e+00 0.000000000000000000e+00 -0.000000000000000000e+00 -0.000000000000000000e+00 -0.000000000000000000e+00 -0.000000000000000000e+00 -0.000000000000000000e+00 -0.000000000000000000e+00 -0.000000000000000000e+00 -0.000000000000000000e+00 -0.000000000000000000e+00 -0.000000000000000000e+00 -0.000000000000000000e+00 -0.000000000000000000e+00 -0.000000000000000000e+00 -0.000000000000000000e+00 0.000000000000000000e+00 0.000000000000000000e+00 0.000000000000000000e+00 0.000000000000000000e+00 0.000000000000000000e+00 0.000000000000000000e+00 -0.000000000000000000e+00 -0.000000000000000000e+00 -0.000000000000000000e+00 -0.000000000000000000e+00 -0.000000000000000000e+00 -0.000000000000000000e+00 -0.000000000000000000e+00 -0.000000000000000000e+00 -0.000000000000000000e+00 -0.000000000000000000e+00 -0.000000000000000000e+00 -0.000000000000000000e+00 -0.000000000000000000e+00 -0.000000000000000000e+00 0.000000000000000000e+00 0.000000000000000000e+00 0.000000000000000000e+00 0.000000000000000000e+00 0.000000000000000000e+00 0.000000000000000000e+00 -0.000000000000000000e+00 -0.000000000000000000e+00 -0.000000000000000000e+00 -0.000000000000000000e+00 -0.000000000000000000e+00 -0.000000000000000000e+00 -0.000000000000000000e+00 -0.000000000000000000e+00 -0.000000000000000000e+00 -0.000000000000000000e+00 -0.000000000000000000e+00 -0.000000000000000000e+00 -0.000000000000000000e+00 -0.000000000000000000e+00 0.000000000000000000e+00 0.000000000000000000e+00 0.000000000000000000e+00 0.000000000000000000e+00 0.000000000000000000e+00 0.000000000000000000e+00 -0.000000000000000000e+00 -0.000000000000000000e+00 -0.000000000000000000e+00 -0.000000000000000000e+00 -0.000000000000000000e+00 -0.000000000000000000e+00 -0.000000000000000000e+00 -0.000000000000000000e+00 -0.000000000000000000e+00 -0.000000000000000000e+00 -0.000000000000000000e+00 -0.000000000000000000e+00 -0.000000000000000000e+00 -0.000000000000000000e+00
0.000000000000000000e+00 0.000000000000000000e+00 0.000000000000000000e+00 0.000000000000000000e+00 0.000000000000000000e+00 0.000000000000000000e+00 -0.000000000000000000e+00 -0.000000000000000000e+00 -0.000000000000000000e+00 -0.000000000000000000e+00 -0.000000000000000000e+00 -0.000000000000000000e+00 -0.000000000000000000e+00 -0.000000000000000000e+00 -0.000000000000000000e+00 -0.000000000000000000e+00 -0.000000000000000000e+00 -0.000000000000000000e+00 -0.000000000000000000e+00 -0.000000000000000000e+00 0.000000000000000000e+00 0.000000000000000000e+00 0.000000000000000000e+00 0.000000000000000000e+00 0.000000000000000000e+00 0.000000000000000000e+00 -0.000000000000000000e+00 -0.000000000000000000e+00 -0.000000000000000000e+00 -0.000000000000000000e+00 -0.000000000000000000e+00 -0.000000000000000000e+00 -0.000000000000000000e+00 -0.000000000000000000e+00 -0.000000000000000000e+00 -0.000000000000000000e+00 -0.000000000000000000e+00 -0.000000000000000000e+00 -0.000000000000000000e+00 -0.000000000000000000e+00 0.000000000000000000e+00 0.000000000000000000e+00 0.000000000000000000e+00 0.000000000000000000e+00 0.000000000000000000e+00 0.000000000000000000e+00 -0.000000000000000000e+00 -0.000000000000000000e+00 -0.000000000000000000e+00 -0.000000000000000000e+00 -0.000000000000000000e+00 -0.000000000000000000e+00 -0.000000000000000000e+00 -0.000000000000000000e+00 -0.000000000000000000e+00 -0.000000000000000000e+00 -0.000000000000000000e+00 -0.000000000000000000e+00 -0.000000000000000000e+00 -0.000000000000000000e+00 0.000000000000000000e+00 0.000000000000000000e+00 0.000000000000000000e+00 0.000000000000000000e+00 0.000000000000000000e+00 0.000000000000000000e+00 -0.000000000000000000e+00 -0.000000000000000000e+00 -0.000000000000000000e+00 -0.000000000000000000e+00 -0.000000000000000000e+00 -0.000000000000000000e+00 -0.000000000000000000e+00 -0.000000000000000000e+00 -0.000000000000000000e+00 -0.000000000000000000e+00 -0.000000000000000000e+00 -0.000000000000000000e+00 -0.000000000000000000e+00 -0.000000000000000000e+00 0.000000000000000000e+00 0.000000000000000000e+00 0.000000000000000000e+00 0.000000000000000000e+00 0.000000000000000000e+00 0.000000000000000000e+00 -0.000000000000000000e+00 -0.000000000000000000e+00 -0.000000000000000000e+00 -0.000000000000000000e+00 -0.000000000000000000e+00 -0.000000000000000000e+00 -0.000000000000000000e+00 -0.000000000000000000e+00 -0.000000000000000000e+00 -0.000000000000000000e+00 -0.000000000000000000e+00 -0.000000000000000000e+00 -0.000000000000000000e+00 -0.000000000000000000e+00
0.000000000000000000e+00 0.000000000000000000e+00 0.000000000000000000e+00 0.000000000000000000e+00 0.000000000000000000e+00 0.000000000000000000e+00 -0.000000000000000000e+00 -0.000000000000000000e+00 -0.000000000000000000e+00 -0.000000000000000000e+00 -0.000000000000000000e+00 -0.000000000000000000e+00 -0.000000000000000000e+00 -0.000000000000000000e+00 -0.000000000000000000e+00 -0.000000000000000000e+00 -0.000000000000000000e+00 -0.000000000000000000e+00 -0.000000000000000000e+00 -0.000000000000000000e+00 0.000000000000000000e+00 0.000000000000000000e+00 0.000000000000000000e+00 0.000000000000000000e+00 0.000000000000000000e+00 0.000000000000000000e+00 -0.000000000000000000e+00 -0.000000000000000000e+00 -0.000000000000000000e+00 -0.000000000000000000e+00 -0.000000000000000000e+00 -0.000000000000000000e+00 -0.000000000000000000e+00 -0.000000000000000000e+00 -0.000000000000000000e+00 -0.000000000000000000e+00 -0.000000000000000000e+00 -0.000000000000000000e+00 -0.000000000000000000e+00 -0.000000000000000000e+00 0.000000000000000000e+00 0.000000000000000000e+00 0.000000000000000000e+00 0.000000000000000000e+00 0.000000000000000000e+00 0.000000000000000000e+00 -0.000000000000000000e+00 -0.000000000000000000e+00 -0.000000000000000000e+00 -0.000000000000000000e+00 -0.000000000000000000e+00 -0.000000000000000000e+00 -0.000000000000000000e+00 -0.000000000000000000e+00 -0.000000000000000000e+00 -0.000000000000000000e+00 -0.000000000000000000e+00 -0.000000000000000000e+00 -0.000000000000000000e+00 -0.000000000000000000e+00 0.000000000000000000e+00 0.000000000000000000e+00 0.000000000000000000e+00 0.000000000000000000e+00 0.000000000000000000e+00 0.000000000000000000e+00 -0.000000000000000000e+00 -0.000000000000000000e+00 -0.000000000000000000e+00 -0.000000000000000000e+00 -0.000000000000000000e+00 -0.000000000000000000e+00 -0.000000000000000000e+00 -0.000000000000000000e+00 -0.000000000000000000e+00 -0.000000000000000000e+00 -0.000000000000000000e+00 -0.000000000000000000e+00 -0.000000000000000000e+00 -0.000000000000000000e+00 0.000000000000000000e+00 0.000000000000000000e+00 0.000000000000000000e+00 0.000000000000000000e+00 0.000000000000000000e+00 0.000000000000000000e+00 -0.000000000000000000e+00 -0.000000000000000000e+00 -0.000000000000000000e+00 -0.000000000000000000e+00 -0.000000000000000000e+00 -0.000000000000000000e+00 -0.000000000000000000e+00 -0.000000000000000000e+00 -0.000000000000000000e+00 -0.000000000000000000e+00 -0.000000000000000000e+00 -0.000000000000000000e+00 -0.000000000000000000e+00 -0.000000000000000000e+00
-0.000000000000000000e+00 -0.000000000000000000e+00 -0.000000000000000000e+00 -0.000000000000000000e+00 -0.000000000000000000e+00 -0.000000000000000000e+00 2.512983959844527485e-07 2.803900075194641939e-07 3.005316584545440160e-07 4.272492526185877948e-07 5.189792250052548338e-07 5.725810970920386711e-07 5.291832735965498916e-07 5.363583275380792540e-07 5.929220097141742148e-07 5.934799814855906761e-07 5.750025972985706414e-07 4.948694287754622365e-07 4.246456267755868260e-07 3.399357885644693530e-07 -0.000000000000000000e+00 -0.000000000000000000e+00 -0.000000000000000000e+00 -0.000000000000000000e+00 -0.000000000000000000e+00 -0.000000000000000000e+00 3.707328060442146429e-07 5.452941315897871199e-07 2.961736237734103767e-07 5.210171464141514785e-07 4.932734749630060760e-07 5.752508035847289397e-07 5.250008286277626816e-07 5.399847015794304651e-07 5.279350357528191568e-07 4.527030064929701272e-07 3.783823591300672675e-07 2.428347681177321757e-07 2.164129344071180407e-07 1.544497971768185924e-07 -0.000000000000000000e+00 -0.000000000000000000e+00 -0.000000000000000000e+00 -0.000000000000000000e+00 -0.000000000000000000e+00 -0.000000000000000000e+00 3.299958318522909388e-07 2.140256169382007149e-07 2.682615774618777466e-07 2.252769296794170583e-07 2.737758886737236733e-07 2.765095067196362675e-07 2.596073364307696212e-07 2.479503792107583063e-07 2.102581049960410867e-07 1.831913109766034997e-07 1.676707177611270763e-07 1.054496179464454405e-07 5.600177264339679778e-08 3.502690541907307716e-08 -0.000000000000000000e+00 -0.000000000000000000e+00 -0.000000000000000000e+00 -0.000000000000000000e+00 -0.000000000000000000e+00 -0.000000000000000000e+00 1.689673429238693739e-07 2.115582347006690911e-07 2.997011959785728865e-07 1.915695976823731914e-07 2.145609471929585566e-07 1.729398594401658626e-07 1.875842650636963243e-07 1.744270600297923028e-07 1.434381277749036460e-07 1.338992749852921117e-07 1.306162703169348835e-07 8.258789787137218259e-08 3.233972692242619423e-08 4.390522005326080875e-08 -0.000000000000000000e+00 -0.000000000000000000e+00 -0.000000000000000000e+00 -0.000000000000000000e+00 -0.000000000000000000e+00 -0.000000000000000000e+00 1.911314818709627038e-07 1.219111882698552532e-07 1.620051060458561018e-07 1.105555427959856137e-07 1.370237796545893006e-07 2.187664701525830321e-07 1.831908979918816024e-07 1.400015297894981258e-07 9.487250915420517791e-08 9.398205955129103939e-08 6.421682215242466552e-08 3.209711710902087649e-08 1.485846905595053176e-08 7.930077600121007052e-09
-0.000000000000000000e+00 -0.000000000000000000e+00 -0.000000000000000000e+00 -0.000000000000000000e+00 -0.000000000000000000e+00 -0.000000000000000000e+00 2.803900075194641939e-07 3.128494155674162485e-07 3.353227689488315869e-07 4.767098519873673284e-07 5.790589638728607772e-07 6.388660679277569635e-07 5.904442862901961560e-07 5.984499618566348394e-07 6.615617505672363634e-07 6.621843160578366308e-07 6.415678936137430538e-07 5.521580920241502887e-07 4.738048168523953747e-07 3.792885264481490953e-07 -0.000000000000000000e+00 -0.000000000000000000e+00 -0.000000000000000000e+00 -0.000000000000000000e+00 -0.000000000000000000e+00 -0.000000000000000000e+00 4.136507671178312078e-07 6.084202211391725414e-07 3.304602254684954366e-07 5.813328056812261840e-07 5.503773822837546228e-07 6.418448335526935947e-07 5.857776597020958955e-07 6.024961438497175519e-07 5.890515459305983492e-07 5.051102650193637122e-07 4.221858723215885041e-07 2.709465859970341451e-07 2.414660231634557368e-07 1.723297103514625461e-07 -0.000000000000000000e+00 -0.000000000000000000e+00 -0.000000000000000000e+00 -0.000000000000000000e+00 -0.000000000000000000e+00 -0.000000000000000000e+00 3.681978685617243219e-07 2.388023373868760532e-07 2.993169352595978721e-07 2.513561607081704079e-07 3.054696118658178220e-07 3.085196877783445462e-07 2.896608341998131355e-07 2.766544068815295558e-07 2.345986786342862678e-07 2.043984915264170364e-07 1.870811535810398578e-07 1.176570150919614613e-07 6.248482960295862516e-08 3.908180247376141778e-08 -0.000000000000000000e+00 -0.000000000000000000e+00 -0.000000000000000000e+00 -0.000000000000000000e+00 -0.000000000000000000e+00 -0.000000000000000000e+00 1.885278828277865600e-07 2.360493181269453444e-07 3.343961678100937832e-07 2.137466923504936401e-07 2.393996402608913398e-07 1.929602785520492811e-07 2.092999968650696008e-07 1.946196452299571774e-07 1.600432727309223655e-07 1.494001526468144457e-07 1.457370902542312867e-07 9.214870319587493449e-08 3.608354219466445711e-08 4.898791706429815026e-08 -0.000000000000000000e+00 -0.000000000000000000e+00 -0.000000000000000000e+00 -0.000000000000000000e+00 -0.000000000000000000e+00 -0.000000000000000000e+00 2.132578579702559655e-07 1.360242625575944025e-07 1.807596611368721067e-07 1.233540284029615016e-07 1.528863662546921275e-07 2.440920164682800123e-07 2.043980307324321469e-07 1.562088362587180412e-07 1.058554450812482905e-07 1.048619123932312751e-07 7.165089604196446474e-08 3.581284660530932680e-08 1.657856284360623752e-08 8.848104697275613991e-09
-0.000000000000000000e+00 -0.000000000000000000e+00 -0.000000000000000000e+00 -0.000000000000000000e+00 -0.000000000000000000e+00 -0.000000000000000000e+00 3.005316584545440160e-07 3.353227689488315869e-07 3.594104824251506798e-07 5.109540232436364686e-07 6.206553232593362644e-07 6.847586353851569689e-07 6.328585036022874752e-07 6.414392621546900552e-07 7.090846490107575537e-07 7.097519361264500492e-07 6.876545451269051922e-07 5.918220431360959742e-07 5.078403066219012496e-07 4.065344942020787922e-07 -0.000000000000000000e+00 -0.000000000000000000e+00 -0.000000000000000000e+00 -0.000000000000000000e+00 -0.000000000000000000e+00 -0.000000000000000000e+00 4.433651261779949547e-07 6.521257291365594147e-07 3.541986409997699004e-07 6.230925051538581722e-07 5.899134171610062728e-07 6.879513788831485646e-07 6.278566526436277690e-07 6.457760992465241088e-07 6.313657165598054968e-07 5.413945632072706443e-07 4.525133456336797782e-07 2.904098743127742056e-07 2.588115926231755634e-07 1.847089135276014888e-07 -0.000000000000000000e+00 -0.000000000000000000e+00 -0.000000000000000000e+00 -0.000000000000000000e+00 -0.000000000000000000e+00 -0.000000000000000000e+00 3.946471454429479090e-07 2.559565625487471644e-07 3.208181908938173121e-07 2.694121823694072702e-07 3.274128413978065097e-07 3.306820177158686296e-07 3.104684495054751024e-07 2.965277131464558988e-07 2.514509364471997785e-07 2.190813366976957474e-07 2.005200179874320798e-07 1.261088374268968486e-07 6.697339051044164048e-08 4.188922072059604415e-08 -0.000000000000000000e+00 -0.000000000000000000e+00 -0.000000000000000000e+00 -0.000000000000000000e+00 -0.000000000000000000e+00 -0.000000000000000000e+00 2.020706721769516261e-07 2.530057817728422402e-07 3.584173194397279084e-07 2.291010600183667056e-07 2.565967723226814875e-07 2.068214664357200405e-07 2.243349387835218512e-07 2.086000327409449413e-07 1.715398869019186403e-07 1.601322245593660656e-07 1.562060282387319861e-07 9.876815097973630496e-08 3.867558218145216637e-08 5.250693521431991994e-08 -0.000000000000000000e+00 -0.000000000000000000e+00 -0.000000000000000000e+00 -0.000000000000000000e+00 -0.000000000000000000e+00 -0.000000000000000000e+00 2.285771105085318185e-07 1.457954852890126464e-07 1.937444248592720907e-07 1.322150923314108911e-07 1.638688682670757822e-07 2.616262226093550267e-07 2.190808428028465313e-07 1.674300059456575223e-07 1.134595085900236960e-07 1.123946060669270858e-07 7.679789592983587077e-08 3.838544133397713121e-08 1.776947413447319779e-08 9.483703083345752748e-09
-0.000000000000000000e+00 -0.000000000000000000e+00 -0.000000000000000000e+00 -0.000000000000000000e+00 -0.000000000000000000e+00 -0.000000000000000000e+00 4.272492526185877948e-07 4.767098519873673284e-07 5.109540232436364686e-07 7.263951015208044111e-07 8.823513780875353814e-07 9.734835148380317343e-07 8.996999652810019312e-07 9.118987555757323605e-07 1.008066464248998501e-06 1.009015109469697409e-06 9.776004697012078341e-07 8.413606969508256596e-07 7.219685026515086440e-07 5.779476268979660720e-07 -0.000000000000000000e+00 -0.000000000000000000e+00 -0.000000000000000000e+00 -0.000000000000000000e+00 -0.000000000000000000e+00 -0.000000000000000000e+00 6.303077012611816654e-07 9.270911151914083167e-07 5.035446362751839084e-07 8.858161849178199157e-07 8.386473088652610807e-07 9.780224618505843967e-07 8.925891101558332322e-07 9.180641972325052313e-07 8.975777524282896822e-07 7.696707351616977975e-07 6.433132193664343262e-07 4.128596713945121366e-07 3.679381403141032432e-07 2.625904560686920268e-07 -0.000000000000000000e+00 -0.000000000000000000e+00 -0.000000000000000000e+00 -0.000000000000000000e+00 -0.000000000000000000e+00 -0.000000000000000000e+00 5.610480400155965187e-07 3.638793018151048927e-07 4.560894948329141461e-07 3.830084130091138100e-07 4.654647450597927381e-07 4.701123523892605298e-07 4.413758393874140694e-07 4.215570648164661368e-07 3.574739021498444203e-07 3.114558308036929433e-07 2.850682296193237356e-07 1.792819658877638854e-07 9.521236860058450655e-08 5.955159046366057891e-08 -0.000000000000000000e+00 -0.000000000000000000e+00 -0.000000000000000000e+00 -0.000000000000000000e+00 -0.000000000000000000e+00 -0.000000000000000000e+00 2.872727089974665616e-07 3.596843398346273743e-07 5.095420983055704005e-07 3.257003177978949215e-07 3.647894526752144813e-07 2.940266506848129731e-07 3.189245865955695769e-07 2.965551401243202987e-07 2.438687785839611238e-07 2.276511353744421820e-07 2.220694790116783794e-07 1.404132227054368708e-07 5.498293812568006550e-08 7.464620846593408929e-08 -0.000000000000000000e+00 -0.000000000000000000e+00 -0.000000000000000000e+00 -0.000000000000000000e+00 -0.000000000000000000e+00 -0.000000000000000000e+00 3.249554477311671721e-07 2.072693853460253418e-07 2.754357432618445652e-07 1.879628910777029400e-07 2.329633152613488105e-07 3.719395442399892304e-07 3.114551286606765599e-07 2.380259879244222672e-07 1.612991140329126933e-07 1.597852009581825250e-07 1.091793250915204695e-07 5.457046091487539538e-08 2.526187950520795011e-08 1.348245664118253959e-08
-0.000000000000000000e+00 -0.000000000000000000e+00 -0.000000000000000000e+00 -0.000000000000000000e+00 -0.000000000000000000e+00 -0.000000000000000000e+00 5.189792250052548338e-07 5.790589638728607772e-07 6.206553232593362644e-07 8.823513780875353814e-07 1.071791305837536397e-06 1.182489418037786619e-06 1.092864616747781566e-06 1.107682474694539651e-06 1.224497290898179340e-06 1.225649609266031057e-06 1.187490278849543715e-06 1.021999967881099665e-06 8.769743930219884439e-07 7.020323842880920645e-07 -0.000000000000000000e+00 -0.000000000000000000e+00 -0.000000000000000000e+00 -0.000000000000000000e+00 -0.000000000000000000e+00 -0.000000000000000000e+00 7.656341124308388564e-07 1.126136618197473408e-06 6.116551485765631918e-07 1.076000003108633098e-06 1.018704018181588035e-06 1.188002872276681340e-06 1.084227068386101407e-06 1.115171630294546320e-06 1.090286766991821820e-06 9.349182454861585270e-07 7.814319018141740416e-07 5.015002155838207641e-07 4.469340782687198943e-07 3.189683552377436908e-07 -0.000000000000000000e+00 -0.000000000000000000e+00 -0.000000000000000000e+00 -0.000000000000000000e+00 -0.000000000000000000e+00 -0.000000000000000000e+00 6.815044735910764065e-07 4.420038113443863591e-07 5.540114373768856098e-07 4.652399229154664172e-07 5.653995441252416107e-07 5.710449879386429965e-07 5.361387753340643798e-07 5.120649303727334443e-07 4.342231789997970007e-07 3.783250753586832503e-07 3.462720835079589107e-07 2.177736184290338534e-07 1.156543656060130954e-07 7.233725530762064109e-08 -0.000000000000000000e+00 -0.000000000000000000e+00 -0.000000000000000000e+00 -0.000000000000000000e+00 -0.000000000000000000e+00 -0.000000000000000000e+00 3.489498623272233729e-07 4.369081953679711530e-07 6.189402594982363687e-07 3.956278389692444445e-07 4.431093706522670315e-07 3.571538683053422426e-07 3.873973652898301224e-07 3.602252218108354895e-07 2.962271529716796606e-07 2.765275985483475015e-07 2.697475663408276368e-07 1.705597963098403783e-07 6.678771804067020590e-08 9.067267217390507096e-08 -0.000000000000000000e+00 -0.000000000000000000e+00 -0.000000000000000000e+00 -0.000000000000000000e+00 -0.000000000000000000e+00 -0.000000000000000000e+00 3.947230460700393694e-07 2.517699078814395487e-07 3.345715122979701929e-07 2.283183292735605622e-07 2.829802979595186866e-07 4.517945794765316154e-07 3.783242224662878570e-07 2.891299212041091325e-07 1.959298668909908852e-07 1.940909182458304095e-07 1.326200132014671040e-07 6.628668239956906661e-08 3.068557889203098240e-08 1.637712612935639228e-08
-0.000000000000000000e+00 -0.000000000000000000e+00 -0.000000000000000000e+00 -0.000000000000000000e+00 -0.000000000000000000e+00 -0.000000000000000000e+00 5.725810970920386711e-07 6.388660679277569635e-07 6.847586353851569689e-07 9.734835148380317343e-07 1.182489418037786619e-06 1.304620793391000477e-06 1.205739249435618799e-06 1.222087544224534079e-06 1.350967376780081442e-06 1.352238710358524876e-06 1.310138159466630023e-06 1.127555467815620453e-06 9.675511771652718904e-07 7.745405854844099935e-07 -0.000000000000000000e+00 -0.000000000000000000e+00 -0.000000000000000000e+00 -0.000000000000000000e+00 -0.000000000000000000e+00 -0.000000000000000000e+00 8.447113081690315440e-07 1.242447692037188509e-06 6.748288932190229964e-07 1.187132803330884865e-06 1.123919101649157041e-06 1.310703695219760965e-06 1.196209586823273802e-06 1.230350204314061501e-06 1.202895150923985825e-06 1.031479660262717334e-06 8.621407449189273717e-07 5.532967983987615020e-07 4.930948919204454889e-07 3.519124504026556133e-07 -0.000000000000000000e+00 -0.000000000000000000e+00 -0.000000000000000000e+00 -0.000000000000000000e+00 -0.000000000000000000e+00 -0.000000000000000000e+00 7.518924850179883390e-07 4.876554108998652905e-07 6.112315509577141724e-07 5.132914240859178768e-07 6.237958586247675551e-07 6.300243823430649005e-07 5.915129419125636597e-07 5.649526714912516214e-07 4.790711693940716163e-07 4.173997267503524783e-07 3.820361970468578829e-07 2.402659901396566540e-07 1.275995268240346318e-07 7.980848367147054665e-08 -0.000000000000000000e+00 -0.000000000000000000e+00 -0.000000000000000000e+00 -0.000000000000000000e+00 -0.000000000000000000e+00 -0.000000000000000000e+00 3.849905456223500200e-07 4.820335030362007959e-07 6.828664342283507199e-07 4.364895763888597071e-07 4.888751559896619350e-07 3.940418881755194340e-07 4.274090324636216535e-07 3.974304611183284486e-07 3.268224623736298808e-07 3.050882735266261347e-07 2.976079774133052761e-07 1.881757700221896326e-07 7.368577204147907999e-08 1.000376423720538062e-07 -0.000000000000000000e+00 -0.000000000000000000e+00 -0.000000000000000000e+00 -0.000000000000000000e+00 -0.000000000000000000e+00 -0.000000000000000000e+00 4.354913335191905477e-07 2.777735275782118621e-07 3.691271525664145476e-07 2.518997932149460082e-07 3.122074288415930388e-07 4.984574015930780966e-07 4.173987857684404181e-07 3.189922052920466149e-07 2.161661444856578524e-07 2.141372632087026000e-07 1.463174420025923058e-07 7.313298780033532236e-08 3.385488586123173488e-08 1.806860929022087300e-08
-0.000000000000000000e+00 -0.000000000000000000e+00 -0.000000000000000000e+00 -0.000000000000000000e+00 -0.000000000000000000e+00 -0.000000000000000000e+00 5.291832735965498916e-07 5.904442862901961560e-07 6.328585036022874752e-07 8.996999652810019312e-07 1.092864616747781566e-06 1.205739249435618799e-06 1.114352266186713309e-06 1.129461469403614202e-06 1.248573071303662197e-06 1.249748046286753353e-06 1.210838436007373210e-06 1.042094293106652133e-06 8.942172591880228707e-07 7.158355814427873141e-07 -0.000000000000000000e+00 -0.000000000000000000e+00 -0.000000000000000000e+00 -0.000000000000000000e+00 -0.000000000000000000e+00 -0.000000000000000000e+00 7.806878319440202362e-07 1.148278453975981388e-06 6.236813695820915498e-07 1.097156064443926502e-06 1.038733539212159424e-06 1.211361107927032464e-06 1.105544888361837898e-06 1.137097875035930825e-06 1.111723731349533532e-06 9.533003901774658747e-07 7.967962337810639384e-07 5.113605959647704033e-07 4.557215919725941018e-07 3.252398367135165268e-07 -0.000000000000000000e+00 -0.000000000000000000e+00 -0.000000000000000000e+00 -0.000000000000000000e+00 -0.000000000000000000e+00 -0.000000000000000000e+00 6.949040557489901551e-07 4.506943872888281764e-07 5.649042811647458444e-07 4.743873618712198778e-07 5.765162982143704282e-07 5.822727414285488310e-07 5.466802110054649441e-07 5.221330317141091398e-07 4.427607739640957862e-07 3.857636148343747961e-07 3.530804045267596443e-07 2.220554325697241981e-07 1.179283347931751013e-07 7.375953356570005290e-08 -0.000000000000000000e+00 -0.000000000000000000e+00 -0.000000000000000000e+00 -0.000000000000000000e+00 -0.000000000000000000e+00 -0.000000000000000000e+00 3.558108332092016915e-07 4.454985824984476586e-07 6.311097186571552398e-07 4.034065813512161988e-07 4.518216838462067682e-07 3.641761444411930033e-07 3.950142820161539869e-07 3.673078861836350284e-07 3.020515022275740663e-07 2.819646197554929236e-07 2.750512801345686560e-07 1.739133032816259522e-07 6.810088259014097435e-08 9.245545712595344834e-08 -0.000000000000000000e+00 -0.000000000000000000e+00 -0.000000000000000000e+00 -0.000000000000000000e+00 -0.000000000000000000e+00 -0.000000000000000000e+00 4.024839986248587318e-07 2.567201491436443964e-07 3.411497794120671292e-07 2.328074710617836579e-07 2.885441906389007200e-07 4.606776592225765397e-07 3.857627451726078309e-07 2.948147263427621741e-07 1.997821942788962627e-07 1.979070886539801376e-07 1.352275569983739410e-07 6.758999570301411250e-08 3.128891159395779774e-08 1.669912936717006281e-08
-0.000000000000000000e+00 -0.000000000000000000e+00 -0.000000000000000000e+00 -0.000000000000000000e+00 -0.000000000000000000e+00 -0.000000000000000000e+00 5.363583275380792540e-07 5.984499618566348394e-07 6.414392621546900552e-07 9.118987555757323605e-07 1.107682474694539651e-06 1.222087544224534079e-06 1.129461469403614202e-06 1.144775534250698469e-06 1.265502138384068160e-06 1.266693044537519538e-06 1.227255869298081260e-06 1.056223769865021046e-06 9.063417109427322225e-07 7.255414039175048487e-07 -0.000000000000000000e+00 -0.000000000000000000e+00 -0.000000000000000000e+00 -0.000000000000000000e+00 -0.000000000000000000e+00 -0.000000000000000000e+00 7.912729686729723723e-07 1.163847653265252542e-06 6.321376978380185099e-07 1.112032108977909605e-06 1.052817448410705187e-06 1.227785627985982115e-06 1.120534674707250174e-06 1.152515479856905233e-06 1.126797294968236674e-06 9.662259342437339536e-07 8.075997800060438462e-07 5.182939970049874469e-07 4.619005986945939883e-07 3.296496763452446270e-07 -0.000000000000000000e+00 -0.000000000000000000e+00 -0.000000000000000000e+00 -0.000000000000000000e+00 -0.000000000000000000e+00 -0.000000000000000000e+00 7.043260732861276270e-07 4.568052314921302029e-07 5.725636666581884840e-07 4.808194527562406082e-07 5.843331279296131071e-07 5.901676212119510916e-07 5.540925012240733815e-07 5.292124933186706851e-07 4.487640484341949349e-07 3.909940801253586654e-07 3.578677269433558109e-07 2.250662225666735614e-07 1.195272934254557949e-07 7.475961927974592865e-08 -0.000000000000000000e+00 -0.000000000000000000e+00 -0.000000000000000000e+00 -0.000000000000000000e+00 -0.000000000000000000e+00 -0.000000000000000000e+00 3.606351767752889418e-07 4.515389781794687888e-07 6.396667659039675648e-07 4.088762628887503642e-07 4.579478127608949361e-07 3.691139110165134901e-07 4.003701746200105682e-07 3.722881152044902161e-07 3.061469374571748943e-07 2.857877023382029931e-07 2.787806266013219307e-07 1.762713470718508324e-07 6.902424417473737300e-08 9.370903584842309058e-08 -0.000000000000000000e+00 -0.000000000000000000e+00 -0.000000000000000000e+00 -0.000000000000000000e+00 -0.000000000000000000e+00 -0.000000000000000000e+00 4.079411711108838107e-07 2.602009487264887885e-07 3.457753376856428257e-07 2.359640450621418962e-07 2.924564838568595487e-07 4.669238639299072186e-07 3.909931986720812991e-07 2.988120400709342468e-07 2.024909874173600949e-07 2.005904577386688079e-07 1.370610711403653022e-07 6.850643030946124022e-08 3.171314954640212632e-08 1.692554837919154092e-08
-0.000000000000000000e+00 -0.000000000000000000e+00 -0.000000000000000000e+00 -0.000000000000000000e+00 -0.000000000000000000e+00 -0.000000000000000000e+00 5.929220097141742148e-07 6.615617505672363634e-07 7.090846490107575537e-07 1.008066464248998501e-06 1.224497290898179340e-06 1.350967376780081442e-06 1.248573071303662197e-06 1.265502138384068160e-06 1.398960420046792922e-06 1.400276917682108197e-06 1.356680746988258435e-06 1.167611815054345453e-06 1.001923380600062697e-06 8.020560980496172879e-07 -0.000000000000000000e+00 -0.000000000000000000e+00 -0.000000000000000000e+00 -0.000000000000000000e+00 -0.000000000000000000e+00 -0.000000000000000000e+00 8.747196318766411147e-07 1.286585579350712707e-06 6.988021532892103591e-07 1.229305632203618169e-06 1.163846267175754460e-06 1.357266373368547002e-06 1.238704867940495271e-06 1.274058329028063831e-06 1.245627936345650530e-06 1.068122919614923062e-06 8.927682484279366791e-07 5.729526373489032360e-07 5.106120613867699107e-07 3.644141212413131077e-07 -0.000000000000000000e+00 -0.000000000000000000e+00 -0.000000000000000000e+00 -0.000000000000000000e+00 -0.000000000000000000e+00 -0.000000000000000000e+00 7.786034250344605631e-07 5.049793430960260723e-07 6.329455188708476563e-07 5.315260742691825656e-07 6.459561728907777315e-07 6.524059645785595290e-07 6.125264073018547317e-07 5.850225847049573416e-07 4.960901468732788363e-07 4.322278295526485119e-07 3.956080123619100949e-07 2.488014264932533206e-07 1.321324931390863005e-07 8.264367575362475551e-08 -0.000000000000000000e+00 -0.000000000000000000e+00 -0.000000000000000000e+00 -0.000000000000000000e+00 -0.000000000000000000e+00 -0.000000000000000000e+00 3.986673140113590889e-07 4.991577172584269541e-07 7.071252275098122997e-07 4.519958450709563072e-07 5.062424195644149506e-07 4.080402050210215533e-07 4.425927153120559341e-07 4.115491568350393428e-07 3.384328127394656691e-07 3.159265180047629382e-07 3.081804847750728988e-07 1.948607041128607861e-07 7.630345512288440450e-08 1.035914742270500831e-07 -0.000000000000000000e+00 -0.000000000000000000e+00 -0.000000000000000000e+00 -0.000000000000000000e+00 -0.000000000000000000e+00 -0.000000000000000000e+00 4.509621396771298771e-07 2.876414171783160577e-07 3.822403747718696195e-07 2.608485197959348220e-07 3.232985809286966912e-07 5.161650739265776692e-07 4.322268551424047407e-07 3.303243861969724142e-07 2.238454351209543924e-07 2.217444779459563503e-07 1.515153612457955442e-07 7.573103325135937521e-08 3.505757885726857922e-08 1.871049566167545264e-08
-0.000000000000000000e+00 -0.000000000000000000e+00 -0.000000000000000000e+00 -0.000000000000000000e+00 -0.000000000000000000e+00 -0.000000000000000000e+00 5.934799814855906761e-07 6.621843160578366308e-07 7.097519361264500492e-07 1.009015109469697409e-06 1.225649609266031057e-06 1.352238710358524876e-06 1.249748046286753353e-06 1.266693044537519538e-06 1.400276917682108197e-06 1.401594654213105377e-06 1.357957457157962862e-06 1.168710601103941899e-06 1.002866244845845103e-06 8.028108763416558495e-07 -0.000000000000000000e+00 -0.000000000000000000e+00 -0.000000000000000000e+00 -0.000000000000000000e+00 -0.000000000000000000e+00 -0.000000000000000000e+00 8.755427904953037067e-07 1.287796326165686412e-06 6.994597640187029991e-07 1.230462475481444051e-06 1.164941509640552754e-06 1.358543634644439701e-06 1.239870556408966886e-06 1.275257287021001816e-06 1.246800139797000877e-06 1.069128081217602095e-06 8.936083917737365982e-07 5.734918168577789949e-07 5.110925750322928428e-07 3.647570546953371806e-07 -0.000000000000000000e+00 -0.000000000000000000e+00 -0.000000000000000000e+00 -0.000000000000000000e+00 -0.000000000000000000e+00 -0.000000000000000000e+00 7.793361330891115625e-07 5.054545560481170560e-07 6.335411549352682084e-07 5.320262691352104386e-07 6.465640526863329254e-07 6.530199139779316809e-07 6.131028278747498658e-07 5.855731226889728582e-07 4.965569946095713853e-07 4.326345793844303143e-07 3.959803009594450778e-07 2.490355621306507624e-07 1.322568369820379603e-07 8.272144793512775884e-08 -0.000000000000000000e+00 -0.000000000000000000e+00 -0.000000000000000000e+00 -0.000000000000000000e+00 -0.000000000000000000e+00 -0.000000000000000000e+00 3.990424815776836750e-07 4.996274517448378921e-07 7.077906707035926381e-07 4.524211976775641787e-07 5.067188211399723387e-07 4.084241929861747450e-07 4.430092190635319910e-07 4.119364469141761837e-07 3.387512963729551997e-07 3.162238219941586517e-07 3.084704993270521982e-07 1.950440786047365533e-07 7.637526081287832639e-08 1.036889594231317153e-07 -0.000000000000000000e+00 -0.000000000000000000e+00 -0.000000000000000000e+00 -0.000000000000000000e+00 -0.000000000000000000e+00 -0.000000000000000000e+00 4.513865195108936854e-07 2.879121033536413846e-07 3.826000836973675540e-07 2.610939924015681486e-07 3.236028224291668506e-07 5.166508132580977634e-07 4.326336040572136618e-07 3.306352393612818287e-07 2.240560858168496912e-07 2.219531515271934064e-07 1.516579454189684687e-07 7.580230026132384782e-08 3.509056994050731905e-08 1.872810325295622903e-08
-0.000000000000000000e+00 -0.000000000000000000e+00 -0.000000000000000000e+00 -0.000000000000000000e+00 -0.000000000000000000e+00 -0.000000000000000000e+00 5.750025972985706414e-07 6.415678936137430538e-07 6.876545451269051922e-07 9.776004697012078341e-07 1.187490278849543715e-06 1.310138159466630023e-06 1.210838436007373210e-06 1.227255869298081260e-06 1.356680746988258435e-06 1.357957457157962862e-06 1.315678859010932260e-06 1.132324007699417863e-06 9.716430436052136281e-07 7.778161916775646960e-07 -0.000000000000000000e+00 -0.000000000000000000e+00 -0.000000000000000000e+00 -0.000000000000000000e+00 -0.000000000000000000e+00 -0.000000000000000000e+00 8.482836730577426125e-07 1.247702122122556142e-06 6.776828091317255772e-07 1.192153301463020292e-06 1.128672262992747874e-06 1.316246786468836427e-06 1.201268471540668881e-06 1.235553472967155630e-06 1.207982309531198084e-06 1.035841886370154247e-06 8.657868205621567927e-07 5.556367434622653807e-07 4.951802373652905062e-07 3.534007218032643159e-07 -0.000000000000000000e+00 -0.000000000000000000e+00 -0.000000000000000000e+00 -0.000000000000000000e+00 -0.000000000000000000e+00 -0.000000000000000000e+00 7.550723102287885880e-07 4.897177522593822062e-07 6.138165076291795754e-07 5.154621825963676404e-07 6.264339509546841250e-07 6.326888156953219074e-07 5.940145067009964703e-07 5.673419103565315631e-07 4.810972071754844410e-07 4.191649501041544127e-07 3.836518646522852591e-07 2.412820979848171340e-07 1.281391574233104798e-07 8.014600137974796394e-08 -0.000000000000000000e+00 -0.000000000000000000e+00 -0.000000000000000000e+00 -0.000000000000000000e+00 -0.000000000000000000e+00 -0.000000000000000000e+00 3.866187074503810485e-07 4.840720688098276110e-07 6.857543416704854799e-07 4.383355325420451140e-07 4.909426557677887502e-07 3.957083289966454462e-07 4.292165861283175820e-07 3.991112325384255463e-07 3.282046258159026693e-07 3.063785210061660851e-07 2.988665900053589065e-07 1.889715833459044088e-07 7.399739621685460043e-08 1.004607111266724530e-07 -0.000000000000000000e+00 -0.000000000000000000e+00 -0.000000000000000000e+00 -0.000000000000000000e+00 -0.000000000000000000e+00 -0.000000000000000000e+00 4.373330680078338614e-07 2.789482583854561867e-07 3.706882265884451337e-07 2.529651015256695849e-07 3.135277839096529089e-07 5.005654256040611914e-07 4.191640051427398470e-07 3.203412538284369353e-07 2.170803317792581538e-07 2.150428701693926203e-07 1.469362324548582618e-07 7.344227419830097914e-08 3.399806141054944544e-08 1.814502316652629899e-08
-0.000000000000000000e+00 -0.000000000000000000e+00 -0.000000000000000000e+00 -0.000000000000000000e+00 -0.000000000000000000e+00 -0.000000000000000000e+00 4.948694287754622365e-07 5.521580920241502887e-07 5.918220431360959742e-07 8.413606969508256596e-07 1.021999967881099665e-06 1.127555467815620453e-06 1.042094293106652133e-06 1.056223769865021046e-06 1.167611815054345453e-06 1.168710601103941899e-06 1.132324007699417863e-06 9.745217456608974018e-07 8.362335061121278164e-07 6.694186361525478249e-07 -0.000000000000000000e+00 -0.000000000000000000e+00 -0.000000000000000000e+00 -0.000000000000000000e+00 -0.000000000000000000e+00 -0.000000000000000000e+00 7.300656704819367477e-07 1.073820604215653937e-06 5.832399822566875785e-07 1.026013145122279940e-06 9.713789132188984941e-07 1.132812787990149423e-06 1.033858012311940539e-06 1.063365007847617260e-06 1.039636200422522259e-06 8.914855080967992511e-07 7.451295547982444047e-07 4.782024274945181071e-07 4.261712248903406337e-07 3.041503014929984941e-07 -0.000000000000000000e+00 -0.000000000000000000e+00 -0.000000000000000000e+00 -0.000000000000000000e+00 -0.000000000000000000e+00 -0.000000000000000000e+00 6.498443739256098994e-07 4.214699993710902407e-07 5.282741781176234618e-07 4.436266497842679414e-07 5.391332368426348578e-07 5.445164148592376033e-07 5.112318118153148034e-07 4.882763459114103150e-07 4.140508255422345536e-07 3.607495346895429481e-07 3.301856026409105516e-07 2.076566863601337298e-07 1.102815047023446141e-07 6.897674220563364597e-08 -0.000000000000000000e+00 -0.000000000000000000e+00 -0.000000000000000000e+00 -0.000000000000000000e+00 -0.000000000000000000e+00 -0.000000000000000000e+00 3.327389820650349913e-07 4.166111062863387580e-07 5.901866546988028746e-07 3.772484778680653584e-07 4.225241986083772147e-07 3.405618612024822214e-07 3.694003606178189443e-07 3.434905313333830967e-07 2.824655687853252513e-07 2.636811805576330582e-07 2.572161227981811006e-07 1.626362384179352852e-07 6.368501528296908316e-08 8.646036550652065518e-08 -0.000000000000000000e+00 -0.000000000000000000e+00 -0.000000000000000000e+00 -0.000000000000000000e+00 -0.000000000000000000e+00 -0.000000000000000000e+00 3.763857181975117008e-07 2.400736378125293940e-07 3.190285953619099715e-07 2.177115301396328255e-07 2.698341121545264063e-07 4.308059257422829956e-07 3.607487214192766670e-07 2.756980473480863599e-07 1.868277122411118969e-07 1.850741941391710030e-07 1.264589929905956666e-07 6.320725584759792156e-08 2.926004388285484651e-08 1.561630728578053302e-08
-0.000000000000000000e+00 -0.000000000000000000e+00 -0.000000000000000000e+00 -0.000000000000000000e+00 -0.000000000000000000e+00 -0.000000000000000000e+00 4.246456267755868260e-07 4.738048168523953747e-07 5.078403066219012496e-07 7.219685026515086440e-07 8.769743930219884439e-07 9.675511771652718904e-07 8.942172591880228707e-07 9.063417109427322225e-07 1.001923380600062697e-06 1.002866244845845103e-06 9.716430436052136281e-07 8.362335061121278164e-07 7.175688791534794014e-07 5.744256561324935894e-07 -0.000000000000000000e+00 -0.000000000000000000e+00 -0.000000000000000000e+00 -0.000000000000000000e+00 -0.000000000000000000e+00 -0.000000000000000000e+00 6.264666520141952156e-07 9.214414894248682580e-07 5.004760719182534168e-07 8.804180855716767570e-07 8.335366532160302672e-07 9.720624641651517064e-07 8.871497370963380849e-07 9.124695808468743694e-07 8.921079789459443029e-07 7.649804177313300355e-07 6.393929154388768829e-07 4.103437346119725689e-07 3.656959520718157206e-07 2.609902489452024870e-07 -0.000000000000000000e+00 -0.000000000000000000e+00 -0.000000000000000000e+00 -0.000000000000000000e+00 -0.000000000000000000e+00 -0.000000000000000000e+00 5.576290541023462571e-07 3.616618478391590882e-07 4.533101186533416902e-07 3.806743876220933017e-07 4.626282367878276348e-07 4.672475219365614303e-07 4.386861271530167656e-07 4.189881267515571933e-07 3.552954822131649279e-07 3.095578416438201385e-07 2.833310445801307068e-07 1.781894346388301256e-07 9.463215135750574197e-08 5.918868740655116897e-08 -0.000000000000000000e+00 -0.000000000000000000e+00 -0.000000000000000000e+00 -0.000000000000000000e+00 -0.000000000000000000e+00 -0.000000000000000000e+00 2.855220900214226175e-07 3.574924496516100023e-07 5.064369858516239145e-07 3.237155237712351470e-07 3.625664523061833959e-07 2.922348736797928681e-07 3.169810833816039413e-07 2.947479546887222299e-07 2.423826600001818389e-07 2.262638459277862235e-07 2.207162037725693522e-07 1.395575547479289623e-07 5.464787610333419557e-08 7.419131990556147951e-08 -0.000000000000000000e+00 -0.000000000000000000e+00 -0.000000000000000000e+00 -0.000000000000000000e+00 -0.000000000000000000e+00 -0.000000000000000000e+00 3.229751928884697199e-07 2.060063008003126496e-07 2.737572578932980854e-07 1.868174589026068500e-07 2.315436537771726978e-07 3.696729717334675127e-07 3.095571437796121816e-07 2.365754748815847030e-07 1.603161689740850223e-07 1.588114815754239476e-07 1.085139942323382451e-07 5.423791249862507288e-08 2.510793545049183068e-08 1.340029553189334226e-08
-0.000000000000000000e+00 -0.000000000000000000e+00 -0.000000000000000000e+00 -0.000000000000000000e+00 -0.000000000000000000e+00 -0.000000000000000000e+00 3.399357885644693530e-07 3.792885264481490953e-07 4.065344942020787922e-07 5.779476268979660720e-07 7.020323842880920645e-07 7.745405854844099935e-07 7.158355814427873141e-07 7.255414039175048487e-07 8.020560980496172879e-07 8.028108763416558495e-07 7.778161916775646960e-07 6.694186361525478249e-07 5.744256561324935894e-07 4.598371585073579992e-07 -0.000000000000000000e+00 -0.000000000000000000e+00 -0.000000000000000000e+00 -0.000000000000000000e+00 -0.000000000000000000e+00 -0.000000000000000000e+00 5.014968292004357579e-07 7.376290242338829241e-07 4.006393035458912202e-07 7.047891166518296743e-07 6.672597611799303260e-07 7.781519447144328782e-07 7.101779140986624248e-07 7.304468642748909763e-07 7.141470680161004328e-07 6.123793703291871517e-07 5.118445150669463369e-07 3.284868893316709338e-07 2.927456071696766574e-07 2.089269746081961395e-07 -0.000000000000000000e+00 -0.000000000000000000e+00 -0.000000000000000000e+00 -0.000000000000000000e+00 -0.000000000000000000e+00 -0.000000000000000000e+00 4.463912031123219540e-07 2.895162405707734496e-07 3.628821844198867379e-07 3.047360904790373843e-07 3.703414908068033537e-07 3.740393043261895253e-07 3.511754393855143113e-07 3.354068670103369528e-07 2.844198604766349918e-07 2.478061290882387908e-07 2.268111479104928500e-07 1.426435647948372385e-07 7.575458916068447653e-08 4.738151498325657527e-08 -0.000000000000000000e+00 -0.000000000000000000e+00 -0.000000000000000000e+00 -0.000000000000000000e+00 -0.000000000000000000e+00 -0.000000000000000000e+00 2.285651157201266355e-07 2.861785689421126395e-07 4.054111129105407635e-07 2.591395858219667606e-07 2.902403912824428972e-07 2.339388091305540186e-07 2.537485558429873641e-07 2.359505716935728633e-07 1.940312944870115257e-07 1.811279194681053498e-07 1.766869409396634313e-07 1.117181113663919766e-07 4.374652106420402943e-08 5.939136834691590642e-08 -0.000000000000000000e+00 -0.000000000000000000e+00 -0.000000000000000000e+00 -0.000000000000000000e+00 -0.000000000000000000e+00 -0.000000000000000000e+00 2.585469388086384317e-07 1.649114223630327185e-07 2.191471746543727022e-07 1.495504397204803653e-07 1.853544922421576583e-07 2.959292766332843926e-07 2.478055704364951004e-07 1.893825475597921307e-07 1.283357225026611040e-07 1.271311955626552618e-07 8.686723204886396827e-08 4.341833847509384565e-08 2.009931410667579361e-08 1.072715634261886399e-08
0.000000000000000000e+00 0.000000000000000000e+00 0.000000000000000000e+00 0.000000000000000000e+00 0.000000000000000000e+00 0.000000000000000000e+00 -0.000000000000000000e+00 -0.000000000000000000e+00 -0.000000000000000000e+00 -0.000000000000000000e+00 -0.000000000000000000e+00 -0.000000000000000000e+00 -0.000000000000000000e+00 -0.000000000000000000e+00 -0.000000000000000000e+00 -0.000000000000000000e+00 -0.000000000000000000e+00 -0.000000000000000000e+00 -0.000000000000000000e+00 -0.000000000000000000e+00 0.000000000000000000e+00 0.000000000000000000e+00 0.000000000000000000e+00 0.000000000000000000e+00 0.000000000000000000e+00 0.000000000000000000e+00 -0.000000000000000000e+00 -0.000000000000000000e+00 -0.000000000000000000e+00 -0.000000000000000000e+00 -0.000000000000000000e+00 -0.000000000000000000e+00 -0.000000000000000000e+00 -0.000000000000000000e+00 -0.000000000000000000e+00 -0.000000000000000000e+00 -0.000000000000000000e+00 -0.000000000000000000e+00 -0.000000000000000000e+00 -0.000000000000000000e+00 0.000000000000000000e+00 0.000000000000000000e+00 0.000000000000000000e+00 0.000000000000000000e+00 0.000000000000000000e+00 0.000000000000000000e+00 -0.000000000000000000e+00 -0.000000000000000000e+00 -0.000000000000000000e+00 -0.000000000000000000e+00 -0.000000000000000000e+00 -0.000000000000000000e+00 -0.000000000000000000e+00 -0.000000000000000000e+00 -0.000000000000000000e+00 -0.000000000000000000e+00 -0.000000000000000000e+00 -0.000000000000000000e+00 -0.000000000000000000e+00 -0.000000000000000000e+00 0.000000000000000000e+00 0.000000000000000000e+00 0.000000000000000000e+00 0.000000000000000000e+00 0.000000000000000000e+00 0.000000000000000000e+00 -0.000000000000000000e+00 -0.000000000000000000e+00 -0.000000000000000000e+00 -0.000000000000000000e+00 -0.000000000000000000e+00 -0.000000000000000000e+00 -0.000000000000000000e+00 -0.000000000000000000e+00 -0.000000000000000000e+00 -0.000000000000000000e+00 -0.000000000000000000e+00 -0.000000000000000000e+00 -0.000000000000000000e+00 -0.000000000000000000e+00 0.000000000000000000e+00 0.000000000000000000e+00 0.000000000000000000e+00 0.000000000000000000e+00 0.000000000000000000e+00 0.000000000000000000e+00 -0.000000000000000000e+00 -0.000000000000000000e+00 -0.000000000000000000e+00 -0.000000000000000000e+00 -0.000000000000000000e+00 -0.000000000000000000e+00 -0.000000000000000000e+00 -0.000000000000000000e+00 -0.000000000000000000e+00 -0.000000000000000000e+00 -0.000000000000000000e+00 -0.000000000000000000e+00 -0.000000000000000000e+00 -0.000000000000000000e+00
0.000000000000000000e+00 0.000000000000000000e+00 0.000000000000000000e+00 0.000000000000000000e+00 0.000000000000000000e+00 0.000000000000000000e+00 -0.000000000000000000e+00 -0.000000000000000000e+00 -0.000000000000000000e+00 -0.000000000000000000e+00 -0.000000000000000000e+00 -0.000000000000000000e+00 -0.000000000000000000e+00 -0.000000000000000000e+00 -0.000000000000000000e+00 -0.000000000000000000e+00 -0.000000000000000000e+00 -0.000000000000000000e+00 -0.000000000000000000e+00 -0.000000000000000000e+00 0.000000000000000000e+00 0.000000000000000000e+00 0.000000000000000000e+00 0.000000000000000000e+00 0.000000000000000000e+00 0.000000000000000000e+00 -0.000000000000000000e+00 -0.000000000000000000e+00 -0.000000000000000000e+00 -0.000000000000000000e+00 -0.000000000000000000e+00 -0.000000000000000000e+00 -0.000000000000000000e+00 -0.000000000000000000e+00 -0.000000000000000000e+00 -0.000000000000000000e+00 -0.000000000000000000e+00 -0.000000000000000000e+00 -0.000000000000000000e+00 -0.000000000000000000e+00 0.000000000000000000e+00 0.000000000000000000e+00 0.000000000000000000e+00 0.000000000000000000e+00 0.000000000000000000e+00 0.000000000000000000e+00 -0.000000000000000000e+00 -0.000000000000000000e+00 -0.000000000000000000e+00 -0.000000000000000000e+00 -0.000000000000000000e+00 -0.000000000000000000e+00 -0.000000000000000000e+00 -0.000000000000000000e+00 -0.000000000000000000e+00 -0.000000000000000000e+00 -0.000000000000000000e+00 -0.000000000000000000e+00 -0.000000000000000000e+00 -0.000000000000000000e+00 0.000000000000000000e+00 0.000000000000000000e+00 0.000000000000000000e+00 0.000000000000000000e+00 0.000000000000000000e+00 0.000000000000000000e+00 -0.000000000000000000e+00 -0.000000000000000000e+00 -0.000000000000000000e+00 -0.000000000000000000e+00 -0.000000000000000000e+00 -0.000000000000000000e+00 -0.000000000000000000e+00 -0.000000000000000000e+00 -0.000000000000000000e+00 -0.000000000000000000e+00 -0.000000000000000000e+00 -0.000000000000000000e+00 -0.000000000000000000e+00 -0.000000000000000000e+00 0.000000000000000000e+00 0.000000000000000000e+00 0.000000000000000000e+00 0.000000000000000000e+00 0.000000000000000000e+00 0.000000000000000000e+00 -0.000000000000000000e+00 -0.000000000000000000e+00 -0.000000000000000000e+00 -0.000000000000000000e+00 -0.000000000000000000e+00 -0.000000000000000000e+00 -0.000000000000000000e+00 -0.000000000000000000e+00 -0.000000000000000000e+00 -0.000000000000000000e+00 -0.000000000000000000e+00 -0.000000000000000000e+00 -0.000000000000000000e+00 -0.000000000000000000e+00
0.000000000000000000e+00 0.000000000000000000e+00 0.000000000000000000e+00 0.000000000000000000e+00 0.000000000000000000e+00 0.000000000000000000e+00 -0.000000000000000000e+00 -0.000000000000000000e+00 -0.000000000000000000e+00 -0.000000000000000000e+00 -0.000000000000000000e+00 -0.000000000000000000e+00 -0.000000000000000000e+00 -0.000000000000000000e+00 -0.000000000000000000e+00 -0.000000000000000000e+00 -0.000000000000000000e+00 -0.000000000000000000e+00 -0.000000000000000000e+00 -0.000000000000000000e+00 0.000000000000000000e+00 0.000000000000000000e+00 0.000000000000000000e+00 0.000000000000000000e+00 0.000000000000000000e+00 0.000000000000000000e+00 -0.000000000000000000e+00 -0.000000000000000000e+00 -0.000000000000000000e+00 -0.000000000000000000e+00 -0.000000000000000000e+00 -0.000000000000000000e+00 -0.000000000000000000e+00 -0.000000000000000000e+00 -0.000000000000000000e+00 -0.000000000000000000e+00 -0.000000000000000000e+00 -0.000000000000000000e+00 -0.000000000000000000e+00 -0.000000000000000000e+00 0.000000000000000000e+00 0.000000000000000000e+00 0.000000000000000000e+00 0.000000000000000000e+00 0.000000000000000000e+00 0.000000000000000000e+00 -0.000000000000000000e+00 -0.000000000000000000e+00 -0.000000000000000000e+00 -0.000000000000000000e+00 -0.000000000000000000e+00 -0.000000000000000000e+00 -0.000000000000000000e+00 -0.000000000000000000e+00 -0.000000000000000000e+00 -0.000000000000000000e+00 -0.000000000000000000e+00 -0.000000000000000000e+00 -0.000000000000000000e+00 -0.000000000000000000e+00 0.000000000000000000e+00 0.000000000000000000e+00 0.000000000000000000e+00 0.000000000000000000e+00 0.000000000000000000e+00 0.000000000000000000e+00 -0.000000000000000000e+00 -0.000000000000000000e+00 -0.000000000000000000e+00 -0.000000000000000000e+00 -0.000000000000000000e+00 -0.000000000000000000e+00 -0.000000000000000000e+00 -0.000000000000000000e+00 -0.000000000000000000e+00 -0.000000000000000000e+00 -0.000000000000000000e+00 -0.000000000000000000e+00 -0.000000000000000000e+00 -0.000000000000000000e+00 0.000000000000000000e+00 0.000000000000000000e+00 0.000000000000000000e+00 0.000000000000000000e+00 0.000000000000000000e+00 0.000000000000000000e+00 -0.000000000000000000e+00 -0.000000000000000000e+00 -0.000000000000000000e+00 -0.000000000000000000e+00 -0.000000000000000000e+00 -0.000000000000000000e+00 -0.000000000000000000e+00 -0.000000000000000000e+00 -0.000000000000000000e+00 -0.000000000000000000e+00 -0.000000000000000000e+00 -0.000000000000000000e+00 -0.000000000000000000e+00 -0.000000000000000000e+00
0.000000000000000000e+00 0.000000000000000000e+00 0.000000000000000000e+00 0.000000000000000000e+00 0.000000000000000000e+00 0.000000000000000000e+00 -0.000000000000000000e+00 -0.000000000000000000e+00 -0.000000000000000000e+00 -0.000000000000000000e+00 -0.000000000000000000e+00 -0.000000000000000000e+00 -0.000000000000000000e+00 -0.000000000000000000e+00 -0.000000000000000000e+00 -0.000000000000000000e+00 -0.000000000000000000e+00 -0.000000000000000000e+00 -0.000000000000000000e+00 -0.000000000000000000e+00 0.000000000000000000e+00 0.000000000000000000e+00 0.000000000000000000e+00 0.000000000000000000e+00 0.000000000000000000e+00 0.000000000000000000e+00 -0.000000000000000000e+00 -0.000000000000000000e+00 -0.000000000000000000e+00 -0.000000000000000000e+00 -0.000000000000000000e+00 -0.000000000000000000e+00 -0.000000000000000000e+00 -0.000000000000000000e+00 -0.000000000000000000e+00 -0.000000000000000000e+00 -0.000000000000000000e+00 -0.000000000000000000e+00 -0.000000000000000000e+00 -0.000000000000000000e+00 0.000000000000000000e+00 0.000000000000000000e+00 0.000000000000000000e+00 0.000000000000000000e+00 0.000000000000000000e+00 0.000000000000000000e+00 -0.000000000000000000e+00 -0.000000000000000000e+00 -0.000000000000000000e+00 -0.000000000000000000e+00 -0.000000000000000000e+00 -0.000000000000000000e+00 -0.000000000000000000e+00 -0.000000000000000000e+00 -0.000000000000000000e+00 -0.000000000000000000e+00 -0.000000000000000000e+00 -0.000000000000000000e+00 -0.000000000000000000e+00 -0.000000000000000000e+00 0.000000000000000000e+00 0.000000000000000000e+00 0.000000000000000000e+00 0.000000000000000000e+00 0.000000000000000000e+00 0.000000000000000000e+00 -0.000000000000000000e+00 -0.000000000000000000e+00 -0.000000000000000000e+00 -0.000000000000000000e+00 -0.000000000000000000e+00 -0.000000000000000000e+00 -0.000000000000000000e+00 -0.000000000000000000e+00 -0.000000000000000000e+00 -0.000000000000000000e+00 -0.000000000000000000e+00 -0.000000000000000000e+00 -0.000000000000000000e+00 -0.000000000000000000e+00 0.000000000000000000e+00 0.000000000000000000e+00 0.000000000000000000e+00 0.000000000000000000e+00 0.000000000000000000e+00 0.000000000000000000e+00 -0.000000000000000000e+00 -0.000000000000000000e+00 -0.000000000000000000e+00 -0.000000000000000000e+00 -0.000000000000000000e+00 -0.000000000000000000e+00 -0.000000000000000000e+00 -0.000000000000000000e+00 -0.000000000000000000e+00 -0.000000000000000000e+00 -0.000000000000000000e+00 -0.000000000000000000e+00 -0.000000000000000000e+00 -0.000000000000000000e+00
0.000000000000000000e+00 0.000000000000000000e+00 0.000000000000000000e+00 0.000000000000000000e+00 0.000000000000000000e+00 0.000000000000000000e+00 -0.000000000000000000e+00 -0.000000000000000000e+00 -0.000000000000000000e+00 -0.000000000000000000e+00 -0.000000000000000000e+00 -0.000000000000000000e+00 -0.000000000000000000e+00 -0.000000000000000000e+00 -0.000000000000000000e+00 -0.000000000000000000e+00 -0.000000000000000000e+00 -0.000000000000000000e+00 -0.000000000000000000e+00 -0.000000000000000000e+00 0.000000000000000000e+00 0.000000000000000000e+00 0.000000000000000000e+00 0.000000000000000000e+00 0.000000000000000000e+00 0.000000000000000000e+00 -0.000000000000000000e+00 -0.000000000000000000e+00 -0.000000000000000000e+00 -0.000000000000000000e+00 -0.000000000000000000e+00 -0.000000000000000000e+00 -0.000000000000000000e+00 -0.000000000000000000e+00 -0.000000000000000000e+00 -0.000000000000000000e+00 -0.000000000000000000e+00 -0.000000000000000000e+00 -0.000000000000000000e+00 -0.000000000000000000e+00 0.000000000000000000e+00 0.000000000000000000e+00 0.000000000000000000e+00 0.000000000000000000e+00 0.000000000000000000e+00 0.000000000000000000e+00 -0.000000000000000000e+00 -0.000000000000000000e+00 -0.000000000000000000e+00 -0.000000000000000000e+00 -0.000000000000000000e+00 -0.000000000000000000e+00 -0.000000000000000000e+00 -0.000000000000000000e+00 -0.000000000000000000e+00 -0.000000000000000000e+00 -0.000000000000000000e+00 -0.000000000000000000e+00 -0.000000000000000000e+00 -0.000000000000000000e+00 0.000000000000000000e+00 0.000000000000000000e+00 0.000000000000000000e+00 0.000000000000000000e+00 0.000000000000000000e+00 0.000000000000000000e+00 -0.000000000000000000e+00 -0.000000000000000000e+00 -0.000000000000000000e+00 -0.000000000000000000e+00 -0.000000000000000000e+00 -0.000000000000000000e+00 -0.000000000000000000e+00 -0.000000000000000000e+00 -0.000000000000000000e+00 -0.000000000000000000e+00 -0.000000000000000000e+00 -0.000000000000000000e+00 -0.000000000000000000e+00 -0.000000000000000000e+00 0.000000000000000000e+00 0.000000000000000000e+00 0.000000000000000000e+00 0.000000000000000000e+00 0.000000000000000000e+00 0.000000000000000000e+00 -0.000000000000000000e+00 -0.000000000000000000e+00 -0.000000000000000000e+00 -0.000000000000000000e+00 -0.000000000000000000e+00 -0.000000000000000000e+00 -0.000000000000000000e+00 -0.000000000000000000e+00 -0.000000000000000000e+00 -0.000000000000000000e+00 -0.000000000000000000e+00 -0.000000000000000000e+00 -0.000000000000000000e+00 -0.000000000000000000e+00
0.000000000000000000e+00 0.000000000000000000e+00 0.000000000000000000e+00 0.000000000000000000e+00 0.000000000000000000e+00 0.000000000000000000e+00 -0.000000000000000000e+00 -0.000000000000000000e+00 -0.000000000000000000e+00 -0.000000000000000000e+00 -0.000000000000000000e+00 -0.000000000000000000e+00 -0.000000000000000000e+00 -0.000000000000000000e+00 -0.000000000000000000e+00 -0.000000000000000000e+00 -0.000000000000000000e+00 -0.000000000000000000e+00 -0.000000000000000000e+00 -0.000000000000000000e+00 0.000000000000000000e+00 0.000000000000000000e+00 0.000000000000000000e+00 0.000000000000000000e+00 0.000000000000000000e+00 0.000000000000000000e+00 -0.000000000000000000e+00 -0.000000000000000000e+00 -0.000000000000000000e+00 -0.000000000000000000e+00 -0.000000000000000000e+00 -0.000000000000000000e+00 -0.000000000000000000e+00 -0.000000000000000000e+00 -0.000000000000000000e+00 -0.000000000000000000e+00 -0.000000000000000000e+00 -0.000000000000000000e+00 -0.000000000000000000e+00 -0.000000000000000000e+00 0.000000000000000000e+00 0.000000000000000000e+00 0.000000000000000000e+00 0.000000000000000000e+00 0.000000000000000000e+00 0.000000000000000000e+00 -0.000000000000000000e+00 -0.000000000000000000e+00 -0.000000000000000000e+00 -0.000000000000000000e+00 -0.000000000000000000e+00 -0.000000000000000000e+00 -0.000000000000000000e+00 -0.000000000000000000e+00 -0.000000000000000000e+00 -0.000000000000000000e+00 -0.000000000000000000e+00 -0.000000000000000000e+00 -0.000000000000000000e+00 -0.000000000000000000e+00 0.000000000000000000e+00 0.000000000000000000e+00 0.000000000000000000e+00 0.000000000000000000e+00 0.000000000000000000e+00 0.000000000000000000e+00 -0.000000000000000000e+00 -0.000000000000000000e+00 -0.000000000000000000e+00 -0.000000000000000000e+00 -0.000000000000000000e+00 -0.000000000000000000e+00 -0.000000000000000000e+00 -0.000000000000000000e+00 -0.000000000000000000e+00 -0.000000000000000000e+00 -0.000000000000000000e+00 -0.000000000000000000e+00 -0.000000000000000000e+00 -0.000000000000000000e+00 0.000000000000000000e+00 0.000000000000000000e+00 0.000000000000000000e+00 0.000000000000000000e+00 0.000000000000000000e+00 0.000000000000000000e+00 -0.000000000000000000e+00 -0.000000000000000000e+00 -0.000000000000000000e+00 -0.000000000000000000e+00 -0.000000000000000000e+00 -0.000000000000000000e+00 -0.000000000000000000e+00 -0.000000000000000000e+00 -0.000000000000000000e+00 -0.000000000000000000e+00 -0.000000000000000000e+00 -0.000000000000000000e+00 -0.000000000000000000e+00 -0.000000000000000000e+00
-0.000000000000000000e+00 -0.000000000000000000e+00 -0.000000000000000000e+00 -0.000000000000000000e+00 -0.000000000000000000e+00 -0.000000000000000000e+00 3.707328060442146429e-07 4.136507671178312078e-07 4.433651261779949547e-07 6.303077012611816654e-07 7.656341124308388564e-07 8.447113081690315440e-07 7.806878319440202362e-07 7.912729686729723723e-07 8.747196318766411147e-07 8.755427904953037067e-07 8.482836730577426125e-07 7.300656704819367477e-07 6.264666520141952156e-07 5.014968292004357579e-07 -0.000000000000000000e+00 -0.000000000000000000e+00 -0.000000000000000000e+00 -0.000000000000000000e+00 -0.000000000000000000e+00 -0.000000000000000000e+00 5.469307232900942427e-07 8.044556859655883995e-07 4.369358514512488398e-07 7.686405952993748157e-07 7.277112088352915195e-07 8.486498441691212277e-07 7.745175993274143938e-07 7.966228469276637039e-07 7.788463449874321939e-07 6.678588426492563467e-07 5.582158740344618465e-07 3.582466757764454341e-07 3.192673559363950953e-07 2.278550425123457366e-07 -0.000000000000000000e+00 -0.000000000000000000e+00 -0.000000000000000000e+00 -0.000000000000000000e+00 -0.000000000000000000e+00 -0.000000000000000000e+00 4.868327163260666347e-07 3.157454197907109313e-07 3.957580667265474509e-07 3.323441359420477445e-07 4.038931607089825385e-07 4.079259834607719082e-07 3.829907307112224553e-07 3.657935797179486279e-07 3.101873251254018361e-07 2.702565151489319471e-07 2.473594606265450956e-07 1.555665829239702982e-07 8.261769532671872409e-08 5.167411786369563804e-08 -0.000000000000000000e+00 -0.000000000000000000e+00 -0.000000000000000000e+00 -0.000000000000000000e+00 -0.000000000000000000e+00 -0.000000000000000000e+00 2.492723319088621106e-07 3.121053665507358778e-07 4.421399703912852927e-07 2.826167442228378181e-07 3.165351760751840986e-07 2.551328635265597704e-07 2.767373054028899968e-07 2.573268848834526257e-07 2.116098648198637136e-07 1.975374882442720736e-07 1.926941722804422394e-07 1.218393893968232807e-07 4.770980595274651946e-08 6.477202278418493525e-08 -0.000000000000000000e+00 -0.000000000000000000e+00 -0.000000000000000000e+00 -0.000000000000000000e+00 -0.000000000000000000e+00 -0.000000000000000000e+00 2.819704054211106516e-07 1.798518320756181127e-07 2.390011576579526123e-07 1.630991970479300179e-07 2.021469740271358140e-07 3.227394549429306507e-07 2.702559058852547872e-07 2.065399573523520457e-07 1.399624991532773647e-07 1.386488462004358252e-07 9.473710557740121769e-08 4.735189114574878827e-08 2.192024308413998980e-08 1.169899994516128811e-08
-0.000000000000000000e+00 -0.000000000000000000e+00 -0.000000000000000000e+00 -0.000000000000000000e+00 -0.000000000000000000e+00 -0.000000000000000000e+00 5.452941315897871199e-07 6.084202211391725414e-07 6.521257291365594147e-07 9.270911151914083167e-07 1.126136618197473408e-06 1.242447692037188509e-06 1.148278453975981388e-06 1.163847653265252542e-06 1.286585579350712707e-06 1.287796326165686412e-06 1.247702122122556142e-06 1.073820604215653937e-06 9.214414894248682580e-07 7.376290242338829241e-07 -0.000000000000000000e+00 -0.000000000000000000e+00 -0.000000000000000000e+00 -0.000000000000000000e+00 -0.000000000000000000e+00 -0.000000000000000000e+00 8.044556859655883995e-07 1.183237516425119366e-06 6.426691994695974777e-07 1.130558717990666109e-06 1.070357532973947339e-06 1.248240706663598042e-06 1.139202937643127550e-06 1.171716547437663969e-06 1.145569894025377047e-06 9.823233921833005174e-07 8.210545042376240718e-07 5.269288468071175952e-07 4.695959266673071817e-07 3.351416856276415603e-07 -0.000000000000000000e+00 -0.000000000000000000e+00 -0.000000000000000000e+00 -0.000000000000000000e+00 -0.000000000000000000e+00 -0.000000000000000000e+00 7.160602432547049271e-07 4.644156699412637063e-07 5.821026566760542687e-07 4.888299714589154275e-07 5.940681988029741048e-07 5.999998955517917939e-07 5.633237590665415004e-07 5.380292467821948768e-07 4.562405196594401810e-07 3.975080956742827901e-07 3.638298528584585104e-07 2.288158570185989506e-07 1.215186346949824469e-07 7.600512489523703424e-08 -0.000000000000000000e+00 -0.000000000000000000e+00 -0.000000000000000000e+00 -0.000000000000000000e+00 -0.000000000000000000e+00 -0.000000000000000000e+00 3.666434087880346480e-07 4.590616801187496140e-07 6.503237028527124601e-07 4.156881980801715758e-07 4.655772867722759559e-07 3.752633999164857660e-07 4.070403972023167656e-07 3.784904867860348348e-07 3.112473878532836090e-07 2.905489650563635529e-07 2.834251504668433471e-07 1.792080521372771234e-07 7.017419764631631779e-08 9.527024136947753795e-08 -0.000000000000000000e+00 -0.000000000000000000e+00 -0.000000000000000000e+00 -0.000000000000000000e+00 -0.000000000000000000e+00 -0.000000000000000000e+00 4.147375275437244737e-07 2.645359325843152747e-07 3.515360027202556593e-07 2.398952387467854414e-07 2.973288493991114261e-07 4.747028801974373454e-07 3.975071995358716563e-07 3.037902900603042350e-07 2.058645153237948464e-07 2.039323225573293947e-07 1.393445275760082249e-07 6.964775693029918872e-08 3.224149501184852809e-08 1.720753036030176953e-08
-0.000000000000000000e+00 -0.000000000000000000e+00 -0.000000000000000000e+00 -0.000000000000000000e+00 -0.000000000000000000e+00 -0.000000000000000000e+00 2.961736237734103767e-07 3.304602254684954366e-07 3.541986409997699004e-07 5.035446362751839084e-07 6.116551485765631918e-07 6.748288932190229964e-07 6.236813695820915498e-07 6.321376978380185099e-07 6.988021532892103591e-07 6.994597640187029991e-07 6.776828091317255772e-07 5.832399822566875785e-07 5.004760719182534168e-07 4.006393035458912202e-07 -0.000000000000000000e+00 -0.000000000000000000e+00 -0.000000000000000000e+00 -0.000000000000000000e+00 -0.000000000000000000e+00 -0.000000000000000000e+00 4.369358514512488398e-07 6.426691994695974777e-07 3.490623769222172526e-07 6.140569886928672468e-07 5.813590334262804466e-07 6.779753384768766008e-07 6.187520508819624983e-07 6.364116460929499622e-07 6.222102295691974531e-07 5.335437554262615628e-07 4.459514118125024607e-07 2.861986164689016279e-07 2.550585441013279786e-07 1.820304341447395694e-07 -0.000000000000000000e+00 -0.000000000000000000e+00 -0.000000000000000000e+00 -0.000000000000000000e+00 -0.000000000000000000e+00 -0.000000000000000000e+00 3.889243342240064024e-07 2.522449150564750508e-07 3.161659795113506968e-07 2.655054138102361255e-07 3.226650004375638114e-07 3.258867701567800261e-07 3.059663205873421989e-07 2.922277400106641161e-07 2.478046254153583063e-07 2.159044199354901962e-07 1.976122604581768234e-07 1.242801226421382095e-07 6.600220378070230624e-08 4.128178163213265331e-08 -0.000000000000000000e+00 -0.000000000000000000e+00 -0.000000000000000000e+00 -0.000000000000000000e+00 -0.000000000000000000e+00 -0.000000000000000000e+00 1.991404284817758622e-07 2.493369237990652496e-07 3.532198799537526071e-07 2.257788464113914586e-07 2.528758410950040885e-07 2.038223310761881717e-07 2.210818390986630253e-07 2.055751062428663690e-07 1.690523726740976947e-07 1.578101337959986176e-07 1.539408715761452963e-07 9.733590577277672367e-08 3.811474433386381844e-08 5.174552776113923081e-08 -0.000000000000000000e+00 -0.000000000000000000e+00 -0.000000000000000000e+00 -0.000000000000000000e+00 -0.000000000000000000e+00 -0.000000000000000000e+00 2.252624947371615386e-07 1.436812927792796570e-07 1.909349207718992022e-07 1.302978302342574025e-07 1.614925921211999372e-07 2.578323589029860947e-07 2.159039332026514620e-07 1.650020894448608198e-07 1.118142227792627899e-07 1.107647624965995051e-07 7.568424322641880151e-08 3.782881084305201129e-08 1.751179750585520281e-08 9.346179112808566499e-09
-0.000000000000000000e+00 -0.000000000000000000e+00 -0.000000000000000000e+00 -0.000000000000000000e+00 -0.000000000000000000e+00 -0.000000000000000000e+00 5.210171464141514785e-07 5.813328056812261840e-07 6.230925051538581722e-07 8.858161849178199157e-07 1.076000003108633098e-06 1.187132803330884865e-06 1.097156064443926502e-06 1.112032108977909605e-06 1.229305632203618169e-06 1.230462475481444051e-06 1.192153301463020292e-06 1.026013145122279940e-06 8.804180855716767570e-07 7.047891166518296743e-07 -0.000000000000000000e+00 -0.000000000000000000e+00 -0.000000000000000000e+00 -0.000000000000000000e+00 -0.000000000000000000e+00 -0.000000000000000000e+00 7.686405952993748157e-07 1.130558717990666109e-06 6.140569886928672468e-07 1.080225227041798723e-06 1.022704252926938791e-06 1.192667907735892248e-06 1.088484598260725708e-06 1.119550672904485755e-06 1.094568092018400256e-06 9.385894712621518557e-07 7.845004192529709441e-07 5.034695006277340333e-07 4.486890936577464632e-07 3.202208763572412205e-07 -0.000000000000000000e+00 -0.000000000000000000e+00 -0.000000000000000000e+00 -0.000000000000000000e+00 -0.000000000000000000e+00 -0.000000000000000000e+00 6.841805972007950607e-07 4.437394666202666070e-07 5.561869228580097110e-07 4.670668214761424406e-07 5.676197482876366483e-07 5.732873605622320675e-07 5.382440786598032002e-07 5.140757008122268024e-07 4.359282813817157926e-07 3.798106777362891913e-07 3.476318205808194729e-07 2.186287692672681184e-07 1.161085157845649806e-07 7.262130837593127885e-08 -0.000000000000000000e+00 -0.000000000000000000e+00 -0.000000000000000000e+00 -0.000000000000000000e+00 -0.000000000000000000e+00 -0.000000000000000000e+00 3.503201144699001231e-07 4.386238412400265350e-07 6.213707067009095248e-07 3.971813856318931515e-07 4.448493672252046166e-07 3.585563358404971308e-07 3.889185926269481042e-07 3.616397499001735614e-07 2.973903742103166644e-07 2.776134638124661922e-07 2.708068078556265587e-07 1.712295484764966707e-07 6.704997925246544725e-08 9.102872453770285980e-08 -0.000000000000000000e+00 -0.000000000000000000e+00 -0.000000000000000000e+00 -0.000000000000000000e+00 -0.000000000000000000e+00 -0.000000000000000000e+00 3.962730398027612880e-07 2.527585549421813664e-07 3.358853037078518620e-07 2.292148869561255910e-07 2.840915016064504342e-07 4.535686810235238891e-07 3.798098214947661291e-07 2.902652731179906008e-07 1.966992419471414757e-07 1.948530721404522514e-07 1.331407838819287140e-07 6.654697615060591155e-08 3.080607465593718762e-08 1.644143563221727998e-08
-0.000000000000000000e+00 -0.000000000000000000e+00 -0.000000000000000000e+00 -0.000000000000000000e+00 -0.000000000000000000e+00 -0.000000000000000000e+00 4.932734749630060760e-07 5.503773822837546228e-07 5.899134171610062728e-07 8.386473088652610807e-07 1.018704018181588035e-06 1.123919101649157041e-06 1.038733539212159424e-06 1.052817448410705187e-06 1.163846267175754460e-06 1.164941509640552754e-06 1.128672262992747874e-06 9.713789132188984941e-07 8.335366532160302672e-07 6.672597611799303260e-07 -0.000000000000000000e+00 -0.000000000000000000e+00 -0.000000000000000000e+00 -0.000000000000000000e+00 -0.000000000000000000e+00 -0.000000000000000000e+00 7.277112088352915195e-07 1.070357532973947339e-06 5.813590334262804466e-07 1.022704252926938791e-06 9.682462164109194421e-07 1.129159466967135922e-06 1.030523820421424017e-06 1.059935655902183119e-06 1.036283373876462543e-06 8.886104675049463177e-07 7.427265121275814069e-07 4.766602247579817265e-07 4.247968227721781095e-07 3.031694168292830344e-07 -0.000000000000000000e+00 -0.000000000000000000e+00 -0.000000000000000000e+00 -0.000000000000000000e+00 -0.000000000000000000e+00 -0.000000000000000000e+00 6.477486259449028945e-07 4.201107587043215189e-07 5.265704939949747403e-07 4.421959539241855912e-07 5.373945322576900793e-07 5.427603495262265966e-07 5.095830893207075548e-07 4.867016547899204820e-07 4.127155117096344897e-07 3.595861175096734909e-07 3.291207541360092521e-07 2.069869935866307467e-07 1.099258468709270833e-07 6.875429222530996512e-08 -0.000000000000000000e+00 -0.000000000000000000e+00 -0.000000000000000000e+00 -0.000000000000000000e+00 -0.000000000000000000e+00 -0.000000000000000000e+00 3.316658989119827991e-07 4.152675355488322360e-07 5.882833028511082722e-07 3.760318515996238917e-07 4.211615581492713269e-07 3.394635492657190068e-07 3.682090445259974672e-07 3.423827744360119865e-07 2.815546173804141393e-07 2.628308088011371531e-07 2.563866008517138462e-07 1.621117365803719518e-07 6.347963112095145576e-08 8.618153084442011476e-08 -0.000000000000000000e+00 -0.000000000000000000e+00 -0.000000000000000000e+00 -0.000000000000000000e+00 -0.000000000000000000e+00 -0.000000000000000000e+00 3.751718743288416016e-07 2.392994003768381020e-07 3.179997282033338404e-07 2.170094104968781952e-07 2.689638971948159855e-07 4.294165767147659040e-07 3.595853068622036499e-07 2.748089211985064731e-07 1.862251929051297161e-07 1.844773298987297177e-07 1.260511627625653662e-07 6.300341245966733431e-08 2.916568024697006328e-08 1.556594469779262797e-08
-0.000000000000000000e+00 -0.000000000000000000e+00 -0.000000000000000000e+00 -0.000000000000000000e+00 -0.000000000000000000e+00 -0.000000000000000000e+00 5.752508035847289397e-07 6.418448335526935947e-07 6.879513788831485646e-07 9.780224618505843967e-07 1.188002872276681340e-06 1.310703695219760965e-06 1.211361107927032464e-06 1.227785627985982115e-06 1.357266373368547002e-06 1.358543634644439701e-06 1.316246786468836427e-06 1.132812787990149423e-06 9.720624641651517064e-07 7.781519447144328782e-07 -0.000000000000000000e+00 -0.000000000000000000e+00 -0.000000000000000000e+00 -0.000000000000000000e+00 -0.000000000000000000e+00 -0.000000000000000000e+00 8.486498441691212277e-07 1.248240706663598042e-06 6.779753384768766008e-07 1.192667907735892248e-06 1.129159466967135922e-06 1.316814959078963998e-06 1.201787012478398469e-06 1.236086813408252761e-06 1.208503748571999436e-06 1.036289019076808113e-06 8.661605471024301002e-07 5.558765902615594763e-07 4.953939874392429651e-07 3.535532711675568216e-07 -0.000000000000000000e+00 -0.000000000000000000e+00 -0.000000000000000000e+00 -0.000000000000000000e+00 -0.000000000000000000e+00 -0.000000000000000000e+00 7.553982456154866320e-07 4.899291443906963942e-07 6.140814683727606531e-07 5.156846875982551664e-07 6.267043581584435476e-07 6.329619228812292111e-07 5.942709196899552785e-07 5.675868098217046314e-07 4.813048781523377788e-07 4.193458873312936593e-07 3.838174722598863775e-07 2.413862500942835239e-07 1.281944701202007521e-07 8.018059729539489441e-08 -0.000000000000000000e+00 -0.000000000000000000e+00 -0.000000000000000000e+00 -0.000000000000000000e+00 -0.000000000000000000e+00 -0.000000000000000000e+00 3.867855957287756533e-07 4.842810239188945322e-07 6.860503551827072265e-07 4.385247449649709449e-07 4.911545766423679002e-07 3.958791409115891124e-07 4.294018622562880806e-07 3.992835133546476632e-07 3.283462990042612310e-07 3.065107727128799263e-07 2.989955991032491214e-07 1.890531550381230193e-07 7.402933801848586135e-08 1.005040761134233321e-07 -0.000000000000000000e+00 -0.000000000000000000e+00 -0.000000000000000000e+00 -0.000000000000000000e+00 -0.000000000000000000e+00 -0.000000000000000000e+00 4.375218477057594382e-07 2.790686695132831851e-07 3.708482382970467548e-07 2.530742967339561617e-07 3.136631216754600279e-07 5.007815002545968784e-07 4.193449419619759783e-07 3.204795327045491592e-07 2.171740369263341384e-07 2.151356958234337163e-07 1.469996591188960427e-07 7.347397637531969572e-08 3.401273705305774059e-08 1.815285566821164674e-08
-0.000000000000000000e+00 -0.000000000000000000e+00 -0.000000000000000000e+00 -0.000000000000000000e+00 -0.000000000000000000e+00 -0.000000000000000000e+00 5.250008286277626816e-07 5.857776597020958955e-07 6.278566526436277690e-07 8.925891101558332322e-07 1.084227068386101407e-06 1.196209586823273802e-06 1.105544888361837898e-06 1.120534674707250174e-06 1.238704867940495271e-06 1.239870556408966886e-06 1.201268471540668881e-06 1.033858012311940539e-06 8.871497370963380849e-07 7.101779140986624248e-07 -0.000000000000000000e+00 -0.000000000000000000e+00 -0.000000000000000000e+00 -0.000000000000000000e+00 -0.000000000000000000e+00 -0.000000000000000000e+00 7.745175993274143938e-07 1.139202937643127550e-06 6.187520508819624983e-07 1.088484598260725708e-06 1.030523820421424017e-06 1.201787012478398469e-06 1.096807120395984324e-06 1.128110725358768948e-06 1.102937128373096268e-06 9.457658995395767999e-07 7.904986870417711050e-07 5.073190140430797145e-07 4.521197576467294214e-07 3.226692760276760978e-07 -0.000000000000000000e+00 -0.000000000000000000e+00 -0.000000000000000000e+00 -0.000000000000000000e+00 -0.000000000000000000e+00 -0.000000000000000000e+00 6.894118224967859045e-07 4.471322859023547715e-07 5.604395121773473490e-07 4.706380010468881299e-07 5.719597526635205011e-07 5.776706993396175475e-07 5.423594775051114248e-07 5.180063089311149089e-07 4.392613765646717010e-07 3.827146993253118074e-07 3.502898035475303246e-07 2.203003985898497845e-07 1.169962781784960605e-07 7.317656882464674195e-08 -0.000000000000000000e+00 -0.000000000000000000e+00 -0.000000000000000000e+00 -0.000000000000000000e+00 -0.000000000000000000e+00 -0.000000000000000000e+00 3.529986520548698727e-07 4.419775465966344270e-07 6.261216893689075548e-07 4.002182231571240616e-07 4.482506727756031447e-07 3.612978473387194341e-07 3.918922530729694176e-07 3.644048370941887707e-07 2.996642125137092869e-07 2.797360884240747073e-07 2.728773889702867696e-07 1.725387647113272295e-07 6.756264147790154975e-08 9.172472756440614856e-08 -0.000000000000000000e+00 -0.000000000000000000e+00 -0.000000000000000000e+00 -0.000000000000000000e+00 -0.000000000000000000e+00 -0.000000000000000000e+00 3.993029321417382884e-07 2.546911396307875157e-07 3.384534731422043532e-07 2.309674574320618677e-07 2.862636571099242316e-07 4.570366541980732090e-07 3.827138365369905749e-07 2.924846331020284077e-07 1.982031987304615682e-07 1.963429131621839945e-07 1.341587745110415043e-07 6.705579242869831837e-08 3.104161702248433868e-08 1.656714637925329684e-08
-0.000000000000000000e+00 -0.000000000000000000e+00 -0.000000000000000000e+00 -0.000000000000000000e+00 -0.000000000000000000e+00 -0.000000000000000000e+00 5.399847015794304651e-07 6.024961438497175519e-07 6.457760992465241088e-07 9.180641972325052313e-07 1.115171630294546320e-06 1.230350204314061501e-06 1.137097875035930825e-06 1.152515479856905233e-06 1.274058329028063831e-06 1.275257287021001816e-06 1.235553472967155630e-06 1.063365007847617260e-06 9.124695808468743694e-07 7.304468642748909763e-07 -0.000000000000000000e+00 -0.000000000000000000e+00 -0.000000000000000000e+00 -0.000000000000000000e+00 -0.000000000000000000e+00 -0.000000000000000000e+00 7.966228469276637039e-07 1.171716547437663969e-06 6.364116460929499622e-07 1.119550672904485755e-06 1.059935655902183119e-06 1.236086813408252761e-06 1.128110725358768948e-06 1.160307756034647146e-06 1.134415687842070752e-06 9.727586875657620897e-07 8.130600455182018470e-07 5.217982362421299604e-07 4.650235563421039015e-07 3.318784718494094473e-07 -0.000000000000000000e+00 -0.000000000000000000e+00 -0.000000000000000000e+00 -0.000000000000000000e+00 -0.000000000000000000e+00 -0.000000000000000000e+00 7.090880946022417225e-07 4.598937388357938039e-07 5.764348287361981810e-07 4.840703227297811108e-07 5.882838645506923943e-07 5.941578054446309930e-07 5.578387778450952881e-07 5.327905536369256199e-07 4.517981885088037980e-07 3.936376314784192490e-07 3.602873076016473741e-07 2.265879185396755122e-07 1.203354297996976422e-07 7.526507678600255949e-08 -0.000000000000000000e+00 -0.000000000000000000e+00 -0.000000000000000000e+00 -0.000000000000000000e+00 -0.000000000000000000e+00 -0.000000000000000000e+00 3.630734684476843502e-07 4.545918798406479431e-07 6.439916189656076910e-07 4.116407175261386501e-07 4.610440452145092014e-07 3.716095282866991712e-07 4.030771187162037931e-07 3.748051935969857363e-07 3.082168285166272299e-07 2.877199425065503586e-07 2.806654912070027158e-07 1.774631358526635912e-07 6.949092421762601680e-08 9.434261231697646624e-08 -0.000000000000000000e+00 -0.000000000000000000e+00 -0.000000000000000000e+00 -0.000000000000000000e+00 -0.000000000000000000e+00 -0.000000000000000000e+00 4.106993034961965107e-07 2.619601942113642210e-07 3.481131604514013672e-07 2.375594223384364201e-07 2.944338123457289193e-07 4.700807843924176819e-07 3.936367440655452267e-07 3.008323391316950835e-07 2.038600498942091548e-07 2.019466705380955691e-07 1.379877551964228269e-07 6.896960935933296162e-08 3.192756542545156347e-08 1.703998375965755501e-08
-0.000000000000000000e+00 -0.000000000000000000e+00 -0.000000000000000000e+00 -0.000000000000000000e+00 -0.000000000000000000e+00 -0.000000000000000000e+00 5.279350357528191568e-07 5.890515459305983492e-07 6.313657165598054968e-07 8.975777524282896822e-07 1.090286766991821820e-06 1.202895150923985825e-06 1.111723731349533532e-06 1.126797294968236674e-06 1.245627936345650530e-06 1.246800139797000877e-06 1.207982309531198084e-06 1.039636200422522259e-06 8.921079789459443029e-07 7.141470680161004328e-07 -0.000000000000000000e+00 -0.000000000000000000e+00 -0.000000000000000000e+00 -0.000000000000000000e+00 -0.000000000000000000e+00 -0.000000000000000000e+00 7.788463449874321939e-07 1.145569894025377047e-06 6.222102295691974531e-07 1.094568092018400256e-06 1.036283373876462543e-06 1.208503748571999436e-06 1.102937128373096268e-06 1.134415687842070752e-06 1.109101396702006593e-06 9.510517446082749624e-07 7.949167503159348091e-07 5.101543982644202516e-07 4.546466355903953918e-07 3.244726607789571812e-07 -0.000000000000000000e+00 -0.000000000000000000e+00 -0.000000000000000000e+00 -0.000000000000000000e+00 -0.000000000000000000e+00 -0.000000000000000000e+00 6.932649156184780375e-07 4.496312890802482728e-07 5.635717845855494523e-07 4.732683766590631416e-07 5.751564112019412050e-07 5.808992761141896113e-07 5.453907013745994115e-07 5.209014239854334054e-07 4.417163895676931721e-07 3.848536753733295054e-07 3.522475582430615869e-07 2.215316480735595655e-07 1.176501653617481851e-07 7.358554953081760133e-08 -0.000000000000000000e+00 -0.000000000000000000e+00 -0.000000000000000000e+00 -0.000000000000000000e+00 -0.000000000000000000e+00 -0.000000000000000000e+00 3.549715463885836749e-07 4.444477401575256755e-07 6.296210566497186488e-07 4.024550256494830240e-07 4.507559265697873501e-07 3.633171255190983186e-07 3.940825220754521950e-07 3.664414801071181287e-07 3.013390229512097640e-07 2.812995214303325681e-07 2.744024889993214188e-07 1.735030764707728120e-07 6.794024618479364825e-08 9.223737313463662527e-08 -0.000000000000000000e+00 -0.000000000000000000e+00 -0.000000000000000000e+00 -0.000000000000000000e+00 -0.000000000000000000e+00 -0.000000000000000000e+00 4.015346191118496911e-07 2.561145974918860429e-07 3.403450750945092648e-07 2.322583246503570039e-07 2.878635724177384105e-07 4.595910124657833313e-07 3.848528077629212784e-07 2.941193171779768158e-07 1.993109479114371736e-07 1.974402652868666681e-07 1.349085821505609795e-07 6.743056437798242761e-08 3.121510728930681260e-08 1.665973945015362278e-08
-0.000000000000000000e+00 -0.000000000000000000e+00 -0.000000000000000000e+00 -0.000000000000000000e+00 -0.000000000000000000e+00 -0.000000000000000000e+00 4.527030064929701272e-07 5.051102650193637122e-07 5.413945632072706443e-07 7.696707351616977975e-07 9.349182454861585270e-07 1.031479660262717334e-06 9.533003901774658747e-07 9.662259342437339536e-07 1.068122919614923062e-06 1.069128081217602095e-06 1.035841886370154247e-06 8.914855080967992511e-07 7.649804177313300355e-07 6.123793703291871517e-07 -0.000000000000000000e+00 -0.000000000000000000e+00 -0.000000000000000000e+00 -0.000000000000000000e+00 -0.000000000000000000e+00 -0.000000000000000000e+00 6.678588426492563467e-07 9.823233921833005174e-07 5.335437554262615628e-07 9.385894712621518557e-07 8.886104675049463177e-07 1.036289019076808113e-06 9.457658995395767999e-07 9.727586875657620897e-07 9.510517446082749624e-07 8.155245531310646753e-07 6.816391760522092942e-07 4.374561531810248860e-07 3.898583819696545470e-07 2.782345158243708361e-07 -0.000000000000000000e+00 -0.000000000000000000e+00 -0.000000000000000000e+00 -0.000000000000000000e+00 -0.000000000000000000e+00 -0.000000000000000000e+00 5.944729755414879345e-07 3.855577345604330019e-07 4.832614317643803760e-07 4.058264795517716226e-07 4.931952208542836758e-07 4.981197135202242178e-07 4.676711972213001218e-07 4.466717015445130043e-07 3.787707275183372987e-07 3.300110886805174974e-07 3.020514227078176344e-07 1.899628483137803870e-07 1.008847300647711997e-07 6.309942938251111485e-08 -0.000000000000000000e+00 -0.000000000000000000e+00 -0.000000000000000000e+00 -0.000000000000000000e+00 -0.000000000000000000e+00 -0.000000000000000000e+00 3.043872359037927474e-07 3.811128539923651420e-07 5.398985215863961900e-07 3.451042036449149905e-07 3.865221084667850538e-07 3.115435496686512551e-07 3.379248022353606509e-07 3.142226761133089572e-07 2.583974777675821476e-07 2.412136540530123452e-07 2.352994655526300375e-07 1.487784652179700091e-07 5.825859552183431324e-08 7.909332266520432414e-08 -0.000000000000000000e+00 -0.000000000000000000e+00 -0.000000000000000000e+00 -0.000000000000000000e+00 -0.000000000000000000e+00 -0.000000000000000000e+00 3.443149572820774555e-07 2.196176431556229847e-07 2.918450724162556809e-07 1.991609473356977508e-07 2.468423117770340627e-07 3.940981730900347370e-07 3.300103447067069631e-07 2.522065976626529829e-07 1.709086520802849527e-07 1.693045462888789593e-07 1.156837803995596305e-07 5.782154461467262596e-08 2.676687842419702644e-08 1.428568597596396989e-08
-0.000000000000000000e+00 -0.000000000000000000e+00 -0.000000000000000000e+00 -0.000000000000000000e+00 -0.000000000000000000e+00 -0.000000000000000000e+00 3.783823591300672675e-07 4.221858723215885041e-07 4.525133456336797782e-07 6.433132193664343262e-07 7.814319018141740416e-07 8.621407449189273717e-07 7.967962337810639384e-07 8.075997800060438462e-07 8.927682484279366791e-07 8.936083917737365982e-07 8.657868205621567927e-07 7.451295547982444047e-07 6.393929154388768829e-07 5.118445150669463369e-07 -0.000000000000000000e+00 -0.000000000000000000e+00 -0.000000000000000000e+00 -0.000000000000000000e+00 -0.000000000000000000e+00 -0.000000000000000000e+00 5.582158740344618465e-07 8.210545042376240718e-07 4.459514118125024607e-07 7.845004192529709441e-07 7.427265121275814069e-07 8.661605471024301002e-07 7.904986870417711050e-07 8.130600455182018470e-07 7.949167503159348091e-07 6.816391760522092942e-07 5.697338780852902809e-07 3.656385950226081788e-07 3.258549914194119330e-07 2.325565127225906907e-07 -0.000000000000000000e+00 -0.000000000000000000e+00 -0.000000000000000000e+00 -0.000000000000000000e+00 -0.000000000000000000e+00 -0.000000000000000000e+00 4.968778287271038772e-07 3.222603850458111901e-07 4.039239810757029558e-07 3.392015924962360235e-07 4.122269313477959274e-07 4.163429657582858544e-07 3.908932089332753721e-07 3.733412187746950674e-07 3.165876068685351987e-07 2.758328804603490864e-07 2.524633772330645499e-07 1.587764818459439967e-07 8.432239595188314145e-08 5.274034103391005145e-08 -0.000000000000000000e+00 -0.000000000000000000e+00 -0.000000000000000000e+00 -0.000000000000000000e+00 -0.000000000000000000e+00 -0.000000000000000000e+00 2.544157179396729397e-07 3.185452243968327552e-07 4.512629104703515194e-07 2.884481455788472943e-07 3.230664368469596086e-07 2.603971734329759171e-07 2.824473927596121662e-07 2.626364653528387370e-07 2.159761385027937270e-07 2.016133981128752214e-07 1.966701470961640516e-07 1.243533748384777642e-07 4.869423108966773828e-08 6.610850290865114646e-08 -0.000000000000000000e+00 -0.000000000000000000e+00 -0.000000000000000000e+00 -0.000000000000000000e+00 -0.000000000000000000e+00 -0.000000000000000000e+00 2.877884704796718134e-07 1.835628231576595995e-07 2.439326123694806288e-07 1.664645209300827091e-07 2.063179941897826152e-07 3.293987323341811571e-07 2.758322586253678006e-07 2.108016205835475286e-07 1.428504296246203923e-07 1.415096712798758313e-07 9.669187328745903285e-08 4.832893121107206405e-08 2.237253665080893294e-08 1.194039245122730102e-08
-0.000000000000000000e+00 -0.000000000000000000e+00 -0.000000000000000000e+00 -0.000000000000000000e+00 -0.000000000000000000e+00 -0.000000000000000000e+00 2.428347681177321757e-07 2.709465859970341451e-07 2.904098743127742056e-07 4.128596713945121366e-07 5.015002155838207641e-07 5.532967983987615020e-07 5.113605959647704033e-07 5.182939970049874469e-07 5.729526373489032360e-07 5.734918168577789949e-07 5.556367434622653807e-07 4.782024274945181071e-07 4.103437346119725689e-07 3.284868893316709338e-07 -0.000000000000000000e+00 -0.000000000000000000e+00 -0.000000000000000000e+00 -0.000000000000000000e+00 -0.000000000000000000e+00 -0.000000000000000000e+00 3.582466757764454341e-07 5.269288468071175952e-07 2.861986164689016279e-07 5.034695006277340333e-07 4.766602247579817265e-07 5.558765902615594763e-07 5.073190140430797145e-07 5.217982362421299604e-07 5.101543982644202516e-07 4.374561531810248860e-07 3.656385950226081788e-07 2.346561917985382315e-07 2.091242347113182469e-07 1.492479907654639433e-07 -0.000000000000000000e+00 -0.000000000000000000e+00 -0.000000000000000000e+00 -0.000000000000000000e+00 -0.000000000000000000e+00 -0.000000000000000000e+00 3.188817063226577213e-07 2.068173211247157462e-07 2.592266365356442589e-07 2.176896942245519954e-07 2.645552279865043651e-07 2.671967788873811722e-07 2.508638668259874666e-07 2.395995111885766667e-07 2.031766974539155393e-07 1.770215020590066728e-07 1.620236361165474176e-07 1.018981176613350335e-07 5.411565569595824076e-08 3.384721347703540039e-08 -0.000000000000000000e+00 -0.000000000000000000e+00 -0.000000000000000000e+00 -0.000000000000000000e+00 -0.000000000000000000e+00 -0.000000000000000000e+00 1.632765914706660189e-07 2.044330393183731861e-07 2.896073814755520761e-07 1.851176114728738995e-07 2.073346216740140253e-07 1.671153152448456490e-07 1.812665032374345334e-07 1.685524275229074255e-07 1.386071899146356947e-07 1.293896018110577948e-07 1.262171674059481052e-07 7.980637102899129333e-08 3.125053806027478315e-08 4.242651008186780824e-08 -0.000000000000000000e+00 -0.000000000000000000e+00 -0.000000000000000000e+00 -0.000000000000000000e+00 -0.000000000000000000e+00 -0.000000000000000000e+00 1.846942512239721971e-07 1.178052689850795525e-07 1.565488399017396879e-07 1.068320770366322838e-07 1.324088744326725268e-07 2.113985043291877611e-07 1.770211029834423956e-07 1.352863351529863351e-07 9.167724159542254648e-08 9.081678197331831842e-08 6.205402567554174919e-08 3.101609924680535632e-08 1.435804185558539931e-08 7.662995808776054613e-09
-0.000000000000000000e+00 -0.000000000000000000e+00 -0.000000000000000000e+00 -0.000000000000000000e+00 -0.000000000000000000e+00 -0.000000000000000000e+00 2.164129344071180407e-07 2.414660231634557368e-07 2.588115926231755634e-07 3.679381403141032432e-07 4.469340782687198943e-07 4.930948919204454889e-07 4.557215919725941018e-07 4.619005986945939883e-07 5.106120613867699107e-07 5.110925750322928428e-07 4.951802373652905062e-07 4.261712248903406337e-07 3.656959520718157206e-07 2.927456071696766574e-07 -0.000000000000000000e+00 -0.000000000000000000e+00 -0.000000000000000000e+00 -0.000000000000000000e+00 -0.000000000000000000e+00 -0.000000000000000000e+00 3.192673559363950953e-07 4.695959266673071817e-07 2.550585441013279786e-07 4.486890936577464632e-07 4.247968227721781095e-07 4.953939874392429651e-07 4.521197576467294214e-07 4.650235563421039015e-07 4.546466355903953918e-07 3.898583819696545470e-07 3.258549914194119330e-07 2.091242347113182469e-07 1.863703029031555017e-07 1.330089421967000803e-07 -0.000000000000000000e+00 -0.000000000000000000e+00 -0.000000000000000000e+00 -0.000000000000000000e+00 -0.000000000000000000e+00 -0.000000000000000000e+00 2.841855238809025304e-07 1.843143949186026174e-07 2.310212722997209890e-07 1.940037906535816341e-07 2.357700820400882753e-07 2.381242168547840247e-07 2.235684205245569647e-07 2.135296922296220571e-07 1.810698922562494875e-07 1.577605340894670702e-07 1.443945231034349060e-07 9.081101040259571429e-08 4.822755792881215309e-08 3.016443998875012458e-08 -0.000000000000000000e+00 -0.000000000000000000e+00 -0.000000000000000000e+00 -0.000000000000000000e+00 -0.000000000000000000e+00 -0.000000000000000000e+00 1.455111496349967212e-07 1.821895368261488237e-07 2.580964156693559616e-07 1.649757397583959924e-07 1.847754101624731915e-07 1.489321979584633605e-07 1.615436544750119171e-07 1.502129440706389530e-07 1.235259223045360307e-07 1.153112613434486857e-07 1.124840062343654918e-07 7.112297416321271991e-08 2.785029794475936357e-08 3.781025927481152716e-08 -0.000000000000000000e+00 -0.000000000000000000e+00 -0.000000000000000000e+00 -0.000000000000000000e+00 -0.000000000000000000e+00 -0.000000000000000000e+00 1.645984435644188376e-07 1.049873712372213788e-07 1.395154165269289684e-07 9.520812633014653142e-08 1.180020195609948737e-07 1.883971187724443582e-07 1.577601784356429563e-07 1.205663958360694021e-07 8.170222503886557232e-08 8.093538842316260681e-08 5.530218713041861369e-08 2.764136743635191825e-08 1.279580347737100143e-08 6.829217340585488630e-09
