0.000000000000000000e+00 0.000000000000000000e+00 0.000000000000000000e+00 0.000000000000000000e+00 0.000000000000000000e+00 0.000000000000000000e+00 0.000000000000000000e+00 0.000000000000000000e+00 0.000000000000000000e+00 0.000000000000000000e+00 0.000000000000000000e+00 0.000000000000000000e+00 0.000000000000000000e+00 0.000000000000000000e+00 0.000000000000000000e+00 0.000000000000000000e+00 0.000000000000000000e+00 0.000000000000000000e+00 0.000000000000000000e+00 0.000000000000000000e+00 0.000000000000000000e+00 0.000000000000000000e+00 0.000000000000000000e+00 0.000000000000000000e+00 0.000000000000000000e+00 0.000000000000000000e+00 0.000000000000000000e+00 0.000000000000000000e+00 0.000000000000000000e+00 0.000000000000000000e+00 0.000000000000000000e+00 0.000000000000000000e+00 0.000000000000000000e+00 0.000000000000000000e+00 0.000000000000000000e+00 -0.000000000000000000e+00 -0.000000000000000000e+00 0.000000000000000000e+00 0.000000000000000000e+00 0.000000000000000000e+00 0.000000000000000000e+00 0.000000000000000000e+00 0.000000000000000000e+00 0.000000000000000000e+00 0.000000000000000000e+00 0.000000000000000000e+00 0.000000000000000000e+00 0.000000000000000000e+00 0.000000000000000000e+00 0.000000000000000000e+00 0.000000000000000000e+00 0.000000000000000000e+00 0.000000000000000000e+00 0.000000000000000000e+00 0.000000000000000000e+00 0.000000000000000000e+00 -0.000000000000000000e+00 0.000000000000000000e+00 0.000000000000000000e+00 0.000000000000000000e+00 0.000000000000000000e+00 0.000000000000000000e+00 0.000000000000000000e+00 0.000000000000000000e+00 0.000000000000000000e+00 0.000000000000000000e+00 -0.000000000000000000e+00 -0.000000000000000000e+00 -0.000000000000000000e+00 -0.000000000000000000e+00 -0.000000000000000000e+00 -0.000000000000000000e+00 -0.000000000000000000e+00 -0.000000000000000000e+00 -0.000000000000000000e+00 -0.000000000000000000e+00 -0.000000000000000000e+00 -0.000000000000000000e+00 -0.000000000000000000e+00 -0.000000000000000000e+00 0.000000000000000000e+00 0.000000000000000000e+00 0.000000000000000000e+00 0.000000000000000000e+00 0.000000000000000000e+00 0.000000000000000000e+00 -0.000000000000000000e+00 -0.000000000000000000e+00 -0.000000000000000000e+00 -0.000000000000000000e+00 -0.000000000000000000e+00 -0.000000000000000000e+00 -0.000000000000000000e+00 -0.000000000000000000e+00 -0.000000000000000000e+00 -0.000000000000000000e+00 -0.000000000000000000e+00 -0.000000000000000000e+00 -0.000000000000000000e+00 -0.000000000000000000e+00
0.000000000000000000e+00 0.000000000000000000e+00 0.000000000000000000e+00 0.000000000000000000e+00 0.000000000000000000e+00 0.000000000000000000e+00 0.000000000000000000e+00 0.000000000000000000e+00 0.000000000000000000e+00 0.000000000000000000e+00 0.000000000000000000e+00 0.000000000000000000e+00 0.000000000000000000e+00 0.000000000000000000e+00 0.000000000000000000e+00 0.000000000000000000e+00 0.000000000000000000e+00 0.000000000000000000e+00 0.000000000000000000e+00 0.000000000000000000e+00 0.000000000000000000e+00 0.000000000000000000e+00 0.000000000000000000e+00 0.000000000000000000e+00 0.000000000000000000e+00 0.000000000000000000e+00 0.000000000000000000e+00 0.000000000000000000e+00 0.000000000000000000e+00 0.000000000000000000e+00 0.000000000000000000e+00 0.000000000000000000e+00 0.000000000000000000e+00 0.000000000000000000e+00 0.000000000000000000e+00 -0.000000000000000000e+00 -0.000000000000000000e+00 0.000000000000000000e+00 0.000000000000000000e+00 0.000000000000000000e+00 0.000000000000000000e+00 0.000000000000000000e+00 0.000000000000000000e+00 0.000000000000000000e+00 0.000000000000000000e+00 0.000000000000000000e+00 0.000000000000000000e+00 0.000000000000000000e+00 0.000000000000000000e+00 0.000000000000000000e+00 0.000000000000000000e+00 0.000000000000000000e+00 0.000000000000000000e+00 0.000000000000000000e+00 0.000000000000000000e+00 0.000000000000000000e+00 -0.000000000000000000e+00 0.000000000000000000e+00 0.000000000000000000e+00 0.000000000000000000e+00 0.000000000000000000e+00 0.000000000000000000e+00 0.000000000000000000e+00 0.000000000000000000e+00 0.000000000000000000e+00 0.000000000000000000e+00 -0.000000000000000000e+00 -0.000000000000000000e+00 -0.000000000000000000e+00 -0.000000000000000000e+00 -0.000000000000000000e+00 -0.000000000000000000e+00 -0.000000000000000000e+00 -0.000000000000000000e+00 -0.000000000000000000e+00 -0.000000000000000000e+00 -0.000000000000000000e+00 -0.000000000000000000e+00 -0.000000000000000000e+00 -0.000000000000000000e+00 0.000000000000000000e+00 0.000000000000000000e+00 0.000000000000000000e+00 0.000000000000000000e+00 0.000000000000000000e+00 0.000000000000000000e+00 -0.000000000000000000e+00 -0.000000000000000000e+00 -0.000000000000000000e+00 -0.000000000000000000e+00 -0.000000000000000000e+00 -0.000000000000000000e+00 -0.000000000000000000e+00 -0.000000000000000000e+00 -0.000000000000000000e+00 -0.000000000000000000e+00 -0.000000000000000000e+00 -0.000000000000000000e+00 -0.000000000000000000e+00 -0.000000000000000000e+00
0.000000000000000000e+00 0.000000000000000000e+00 0.000000000000000000e+00 0.000000000000000000e+00 0.000000000000000000e+00 0.000000000000000000e+00 0.000000000000000000e+00 0.000000000000000000e+00 0.000000000000000000e+00 0.000000000000000000e+00 0.000000000000000000e+00 0.000000000000000000e+00 0.000000000000000000e+00 0.000000000000000000e+00 0.000000000000000000e+00 0.000000000000000000e+00 0.000000000000000000e+00 0.000000000000000000e+00 0.000000000000000000e+00 0.000000000000000000e+00 0.000000000000000000e+00 0.000000000000000000e+00 0.000000000000000000e+00 0.000000000000000000e+00 0.000000000000000000e+00 0.000000000000000000e+00 0.000000000000000000e+00 0.000000000000000000e+00 0.000000000000000000e+00 0.000000000000000000e+00 0.000000000000000000e+00 0.000000000000000000e+00 0.000000000000000000e+00 0.000000000000000000e+00 0.000000000000000000e+00 -0.000000000000000000e+00 -0.000000000000000000e+00 0.000000000000000000e+00 0.000000000000000000e+00 0.000000000000000000e+00 0.000000000000000000e+00 0.000000000000000000e+00 0.000000000000000000e+00 0.000000000000000000e+00 0.000000000000000000e+00 0.000000000000000000e+00 0.000000000000000000e+00 0.000000000000000000e+00 0.000000000000000000e+00 0.000000000000000000e+00 0.000000000000000000e+00 0.000000000000000000e+00 0.000000000000000000e+00 0.000000000000000000e+00 0.000000000000000000e+00 0.000000000000000000e+00 -0.000000000000000000e+00 0.000000000000000000e+00 0.000000000000000000e+00 0.000000000000000000e+00 0.000000000000000000e+00 0.000000000000000000e+00 0.000000000000000000e+00 0.000000000000000000e+00 0.000000000000000000e+00 0.000000000000000000e+00 -0.000000000000000000e+00 -0.000000000000000000e+00 -0.000000000000000000e+00 -0.000000000000000000e+00 -0.000000000000000000e+00 -0.000000000000000000e+00 -0.000000000000000000e+00 -0.000000000000000000e+00 -0.000000000000000000e+00 -0.000000000000000000e+00 -0.000000000000000000e+00 -0.000000000000000000e+00 -0.000000000000000000e+00 -0.000000000000000000e+00 0.000000000000000000e+00 0.000000000000000000e+00 0.000000000000000000e+00 0.000000000000000000e+00 0.000000000000000000e+00 0.000000000000000000e+00 -0.000000000000000000e+00 -0.000000000000000000e+00 -0.000000000000000000e+00 -0.000000000000000000e+00 -0.000000000000000000e+00 -0.000000000000000000e+00 -0.000000000000000000e+00 -0.000000000000000000e+00 -0.000000000000000000e+00 -0.000000000000000000e+00 -0.000000000000000000e+00 -0.000000000000000000e+00 -0.000000000000000000e+00 -0.000000000000000000e+00
0.000000000000000000e+00 0.000000000000000000e+00 0.000000000000000000e+00 0.000000000000000000e+00 0.000000000000000000e+00 0.000000000000000000e+00 0.000000000000000000e+00 0.000000000000000000e+00 0.000000000000000000e+00 0.000000000000000000e+00 0.000000000000000000e+00 0.000000000000000000e+00 0.000000000000000000e+00 0.000000000000000000e+00 0.000000000000000000e+00 0.000000000000000000e+00 0.000000000000000000e+00 0.000000000000000000e+00 0.000000000000000000e+00 0.000000000000000000e+00 0.000000000000000000e+00 0.000000000000000000e+00 0.000000000000000000e+00 0.000000000000000000e+00 0.000000000000000000e+00 0.000000000000000000e+00 0.000000000000000000e+00 0.000000000000000000e+00 0.000000000000000000e+00 0.000000000000000000e+00 0.000000000000000000e+00 0.000000000000000000e+00 0.000000000000000000e+00 0.000000000000000000e+00 0.000000000000000000e+00 -0.000000000000000000e+00 -0.000000000000000000e+00 0.000000000000000000e+00 0.000000000000000000e+00 0.000000000000000000e+00 0.000000000000000000e+00 0.000000000000000000e+00 0.000000000000000000e+00 0.000000000000000000e+00 0.000000000000000000e+00 0.000000000000000000e+00 0.000000000000000000e+00 0.000000000000000000e+00 0.000000000000000000e+00 0.000000000000000000e+00 0.000000000000000000e+00 0.000000000000000000e+00 0.000000000000000000e+00 0.000000000000000000e+00 0.000000000000000000e+00 0.000000000000000000e+00 -0.000000000000000000e+00 0.000000000000000000e+00 0.000000000000000000e+00 0.000000000000000000e+00 0.000000000000000000e+00 0.000000000000000000e+00 0.000000000000000000e+00 0.000000000000000000e+00 0.000000000000000000e+00 0.000000000000000000e+00 -0.000000000000000000e+00 -0.000000000000000000e+00 -0.000000000000000000e+00 -0.000000000000000000e+00 -0.000000000000000000e+00 -0.000000000000000000e+00 -0.000000000000000000e+00 -0.000000000000000000e+00 -0.000000000000000000e+00 -0.000000000000000000e+00 -0.000000000000000000e+00 -0.000000000000000000e+00 -0.000000000000000000e+00 -0.000000000000000000e+00 0.000000000000000000e+00 0.000000000000000000e+00 0.000000000000000000e+00 0.000000000000000000e+00 0.000000000000000000e+00 0.000000000000000000e+00 -0.000000000000000000e+00 -0.000000000000000000e+00 -0.000000000000000000e+00 -0.000000000000000000e+00 -0.000000000000000000e+00 -0.000000000000000000e+00 -0.000000000000000000e+00 -0.000000000000000000e+00 -0.000000000000000000e+00 -0.000000000000000000e+00 -0.000000000000000000e+00 -0.000000000000000000e+00 -0.000000000000000000e+00 -0.000000000000000000e+00
0.000000000000000000e+00 0.000000000000000000e+00 0.000000000000000000e+00 0.000000000000000000e+00 0.000000000000000000e+00 0.000000000000000000e+00 0.000000000000000000e+00 0.000000000000000000e+00 0.000000000000000000e+00 0.000000000000000000e+00 0.000000000000000000e+00 0.000000000000000000e+00 0.000000000000000000e+00 0.000000000000000000e+00 0.000000000000000000e+00 0.000000000000000000e+00 0.000000000000000000e+00 0.000000000000000000e+00 0.000000000000000000e+00 0.000000000000000000e+00 0.000000000000000000e+00 0.000000000000000000e+00 0.000000000000000000e+00 0.000000000000000000e+00 0.000000000000000000e+00 0.000000000000000000e+00 0.000000000000000000e+00 0.000000000000000000e+00 0.000000000000000000e+00 0.000000000000000000e+00 0.000000000000000000e+00 0.000000000000000000e+00 0.000000000000000000e+00 0.000000000000000000e+00 0.000000000000000000e+00 -0.000000000000000000e+00 -0.000000000000000000e+00 0.000000000000000000e+00 0.000000000000000000e+00 0.000000000000000000e+00 0.000000000000000000e+00 0.000000000000000000e+00 0.000000000000000000e+00 0.000000000000000000e+00 0.000000000000000000e+00 0.000000000000000000e+00 0.000000000000000000e+00 0.000000000000000000e+00 0.000000000000000000e+00 0.000000000000000000e+00 0.000000000000000000e+00 0.000000000000000000e+00 0.000000000000000000e+00 0.000000000000000000e+00 0.000000000000000000e+00 0.000000000000000000e+00 -0.000000000000000000e+00 0.000000000000000000e+00 0.000000000000000000e+00 0.000000000000000000e+00 0.000000000000000000e+00 0.000000000000000000e+00 0.000000000000000000e+00 0.000000000000000000e+00 0.000000000000000000e+00 0.000000000000000000e+00 -0.000000000000000000e+00 -0.000000000000000000e+00 -0.000000000000000000e+00 -0.000000000000000000e+00 -0.000000000000000000e+00 -0.000000000000000000e+00 -0.000000000000000000e+00 -0.000000000000000000e+00 -0.000000000000000000e+00 -0.000000000000000000e+00 -0.000000000000000000e+00 -0.000000000000000000e+00 -0.000000000000000000e+00 -0.000000000000000000e+00 0.000000000000000000e+00 0.000000000000000000e+00 0.000000000000000000e+00 0.000000000000000000e+00 0.000000000000000000e+00 0.000000000000000000e+00 -0.000000000000000000e+00 -0.000000000000000000e+00 -0.000000000000000000e+00 -0.000000000000000000e+00 -0.000000000000000000e+00 -0.000000000000000000e+00 -0.000000000000000000e+00 -0.000000000000000000e+00 -0.000000000000000000e+00 -0.000000000000000000e+00 -0.000000000000000000e+00 -0.000000000000000000e+00 -0.000000000000000000e+00 -0.000000000000000000e+00
0.000000000000000000e+00 0.000000000000000000e+00 0.000000000000000000e+00 0.000000000000000000e+00 0.000000000000000000e+00 0.000000000000000000e+00 0.000000000000000000e+00 0.000000000000000000e+00 0.000000000000000000e+00 0.000000000000000000e+00 0.000000000000000000e+00 0.000000000000000000e+00 0.000000000000000000e+00 0.000000000000000000e+00 0.000000000000000000e+00 0.000000000000000000e+00 0.000000000000000000e+00 0.000000000000000000e+00 0.000000000000000000e+00 0.000000000000000000e+00 0.000000000000000000e+00 0.000000000000000000e+00 0.000000000000000000e+00 0.000000000000000000e+00 0.000000000000000000e+00 0.000000000000000000e+00 0.000000000000000000e+00 0.000000000000000000e+00 0.000000000000000000e+00 0.000000000000000000e+00 0.000000000000000000e+00 0.000000000000000000e+00 0.000000000000000000e+00 0.000000000000000000e+00 0.000000000000000000e+00 -0.000000000000000000e+00 -0.000000000000000000e+00 0.000000000000000000e+00 0.000000000000000000e+00 0.000000000000000000e+00 0.000000000000000000e+00 0.000000000000000000e+00 0.000000000000000000e+00 0.000000000000000000e+00 0.000000000000000000e+00 0.000000000000000000e+00 0.000000000000000000e+00 0.000000000000000000e+00 0.000000000000000000e+00 0.000000000000000000e+00 0.000000000000000000e+00 0.000000000000000000e+00 0.000000000000000000e+00 0.000000000000000000e+00 0.000000000000000000e+00 0.000000000000000000e+00 -0.000000000000000000e+00 0.000000000000000000e+00 0.000000000000000000e+00 0.000000000000000000e+00 0.000000000000000000e+00 0.000000000000000000e+00 0.000000000000000000e+00 0.000000000000000000e+00 0.000000000000000000e+00 0.000000000000000000e+00 -0.000000000000000000e+00 -0.000000000000000000e+00 -0.000000000000000000e+00 -0.000000000000000000e+00 -0.000000000000000000e+00 -0.000000000000000000e+00 -0.000000000000000000e+00 -0.000000000000000000e+00 -0.000000000000000000e+00 -0.000000000000000000e+00 -0.000000000000000000e+00 -0.000000000000000000e+00 -0.000000000000000000e+00 -0.000000000000000000e+00 0.000000000000000000e+00 0.000000000000000000e+00 0.000000000000000000e+00 0.000000000000000000e+00 0.000000000000000000e+00 0.000000000000000000e+00 -0.000000000000000000e+00 -0.000000000000000000e+00 -0.000000000000000000e+00 -0.000000000000000000e+00 -0.000000000000000000e+00 -0.000000000000000000e+00 -0.000000000000000000e+00 -0.000000000000000000e+00 -0.000000000000000000e+00 -0.000000000000000000e+00 -0.000000000000000000e+00 -0.000000000000000000e+00 -0.000000000000000000e+00 -0.000000000000000000e+00
0.000000000000000000e+00 0.000000000000000000e+00 0.000000000000000000e+00 0.000000000000000000e+00 0.000000000000000000e+00 0.000000000000000000e+00 1.449267340305810597e-05 1.361108464531149901e-05 1.256517001729594438e-05 1.041244542105753043e-05 8.635395401167924375e-06 7.269266861663232698e-06 6.245840414728423608e-06 4.894521965067344470e-06 3.109858676172814723e-06 1.706453986068242100e-06 7.433609142302734646e-07 5.624982623902995037e-07 4.129709905706202250e-07 3.160766216660102342e-07 0.000000000000000000e+00 0.000000000000000000e+00 0.000000000000000000e+00 0.000000000000000000e+00 0.000000000000000000e+00 0.000000000000000000e+00 6.057278912160013164e-06 3.973209994610341414e-06 6.006915642133661612e-06 3.192175293890876391e-06 2.987254895961836974e-06 1.833948056919158408e-06 1.476753176817104486e-06 7.101216597426854677e-07 9.688879461817479152e-08 -4.256582497302790927e-08 -9.011542529276430196e-08 4.504565818747509460e-07 1.568258346914879834e-07 2.493454521104191742e-07 0.000000000000000000e+00 0.000000000000000000e+00 0.000000000000000000e+00 0.000000000000000000e+00 0.000000000000000000e+00 0.000000000000000000e+00 3.626593248872417043e-06 4.079998598880204560e-06 3.265358774767934322e-06 3.028857246151307660e-06 2.129788352791606095e-06 1.690680171546198324e-06 1.242389060133891214e-06 7.658561966379185867e-07 5.009735583481343079e-07 1.781413776037868409e-07 -1.080106979891020111e-07 6.983610642713034450e-08 2.009519589492609218e-07 1.605303955069396094e-07 0.000000000000000000e+00 0.000000000000000000e+00 0.000000000000000000e+00 0.000000000000000000e+00 0.000000000000000000e+00 0.000000000000000000e+00 -7.072401321103413685e-07 -1.009033108282248558e-06 -1.819904465131516617e-06 -9.643588179625087746e-07 -1.173277823065040033e-06 -8.747661818823395115e-07 -1.031108982717610905e-06 -9.775757369653833951e-07 -8.044054833156257189e-07 -7.818870520535727383e-07 -8.246975727015110987e-07 -5.176279536444531557e-07 -1.967284355866863623e-07 -3.184447436768614717e-07 0.000000000000000000e+00 0.000000000000000000e+00 0.000000000000000000e+00 0.000000000000000000e+00 0.000000000000000000e+00 0.000000000000000000e+00 -1.069500827145262151e-06 -2.348685676365892274e-07 -8.384229263915246074e-07 -3.395181451992616485e-07 -5.212323683830534747e-07 -1.201215813008232430e-06 -9.928033589811046585e-07 -7.028419603706094476e-07 -4.251643555654682887e-07 -4.947308099121545940e-07 -3.261124182473069752e-07 -1.351805566389969193e-07 -6.036218140331413193e-08 -4.840845340114140472e-08
0.000000000000000000e+00 0.000000000000000000e+00 0.000000000000000000e+00 0.000000000000000000e+00 0.000000000000000000e+00 0.000000000000000000e+00 1.361108464531149901e-05 1.278312289730770505e-05 1.180083121531304643e-05 9.779056772285697009e-06 8.110104635782980793e-06 6.827077642043475906e-06 5.865906185951688017e-06 4.596788384868352744e-06 2.920686094217287246e-06 1.602650456664743179e-06 6.981422988162694001e-07 5.282815150322412035e-07 3.878499813242712174e-07 2.968496931002644143e-07 0.000000000000000000e+00 0.000000000000000000e+00 0.000000000000000000e+00 0.000000000000000000e+00 0.000000000000000000e+00 0.000000000000000000e+00 5.688814872228700817e-06 3.731519785633727035e-06 5.641515197953373774e-06 2.997995395290743480e-06 2.805540297173751054e-06 1.722389068159361587e-06 1.386922338679688398e-06 6.669249868824930554e-07 9.099505302119798771e-08 -3.997654750041799182e-08 -8.463370748762204260e-08 4.230553255716903424e-07 1.472861252850046859e-07 2.341777779855467688e-07 0.000000000000000000e+00 0.000000000000000000e+00 0.000000000000000000e+00 0.000000000000000000e+00 0.000000000000000000e+00 0.000000000000000000e+00 3.405987723017468062e-06 3.831812443271694102e-06 3.066727127880948616e-06 2.844611978024110245e-06 2.000233410374663630e-06 1.587836162664736591e-06 1.166814582071734746e-06 7.192691940726019425e-07 4.704993563368728159e-07 1.673050445534710236e-07 -1.014404114439388705e-07 6.558797879748524315e-08 1.887280591255442025e-07 1.507653378105678797e-07 0.000000000000000000e+00 0.000000000000000000e+00 0.000000000000000000e+00 0.000000000000000000e+00 0.000000000000000000e+00 0.000000000000000000e+00 -6.642187424636155864e-07 -9.476536636679759975e-07 -1.709199747512319316e-06 -9.056969086856351312e-07 -1.101907378857742054e-06 -8.215541891632000050e-07 -9.683866635226186101e-07 -9.181098430211589557e-07 -7.554735291455177369e-07 -7.343248931786879414e-07 -7.745312515256572381e-07 -4.861406654170070397e-07 -1.847614525243547610e-07 -2.990737623415763910e-07 0.000000000000000000e+00 0.000000000000000000e+00 0.000000000000000000e+00 0.000000000000000000e+00 0.000000000000000000e+00 0.000000000000000000e+00 -1.004443133551407592e-06 -2.205815218295144189e-07 -7.874216924861353855e-07 -3.188652696714455980e-07 -4.895258237476670940e-07 -1.128145901962555120e-06 -9.324111693836955768e-07 -6.600881113392381844e-07 -3.993016244021477352e-07 -4.646363540447231470e-07 -3.062750125670188617e-07 -1.269575286520610236e-07 -5.669035226328851165e-08 -4.546376906917118389e-08
0.000000000000000000e+00 0.000000000000000000e+00 0.000000000000000000e+00 0.000000000000000000e+00 0.000000000000000000e+00 0.000000000000000000e+00 1.256517001729594438e-05 1.180083121531304643e-05 1.089402163235375814e-05 9.027606113292744981e-06 7.486901026787421696e-06 6.302465492572283391e-06 5.415153197021657571e-06 4.243558033363490671e-06 2.696252230980992541e-06 1.479498217155391342e-06 6.444950501365054717e-07 4.876868542332748501e-07 3.580464807573749296e-07 2.740389146482736109e-07 0.000000000000000000e+00 0.000000000000000000e+00 0.000000000000000000e+00 0.000000000000000000e+00 0.000000000000000000e+00 0.000000000000000000e+00 5.251670085756008940e-06 3.444779145175792459e-06 5.208005053576745112e-06 2.767620864504324966e-06 2.589954565928452735e-06 1.590035771675933008e-06 1.280347264044008631e-06 6.156765656327023756e-07 8.400273319423214455e-08 -3.690463538629794324e-08 -7.813021162441873575e-08 3.905465457789108786e-07 1.359682386540974568e-07 2.161828885308234662e-07 0.000000000000000000e+00 0.000000000000000000e+00 0.000000000000000000e+00 0.000000000000000000e+00 0.000000000000000000e+00 0.000000000000000000e+00 3.144261896224342991e-06 3.537365028486833444e-06 2.831071054410883100e-06 2.626023867203087376e-06 1.846529760895344723e-06 1.465822295827519101e-06 1.077153216253173013e-06 6.639984944064567599e-07 4.343448416829544017e-07 1.544488469763333532e-07 -9.364544043568210055e-08 6.054801113628246026e-08 1.742256559078560608e-07 1.391800985498527523e-07 0.000000000000000000e+00 0.000000000000000000e+00 0.000000000000000000e+00 0.000000000000000000e+00 0.000000000000000000e+00 0.000000000000000000e+00 -6.131782767661155542e-07 -8.748332489140139658e-07 -1.577859956106392600e-06 -8.361005708457205546e-07 -1.017233667959721600e-06 -7.584236182685993684e-07 -8.939730658302134718e-07 -8.475596598458842988e-07 -6.974207849445614781e-07 -6.778972705824160945e-07 -7.150140574932973716e-07 -4.487842278895974712e-07 -1.705638546896230882e-07 -2.760920800554073969e-07 0.000000000000000000e+00 0.000000000000000000e+00 0.000000000000000000e+00 0.000000000000000000e+00 0.000000000000000000e+00 0.000000000000000000e+00 -9.272588536965999235e-07 -2.036314075393287469e-07 -7.269139601452227472e-07 -2.943627514220737882e-07 -4.519092609834781400e-07 -1.041455947991481789e-06 -8.607620314349854009e-07 -6.093650551376382136e-07 -3.686181468663263718e-07 -4.289323692362392699e-07 -2.827399656411416657e-07 -1.172017494607506347e-07 -5.233410364353193210e-08 -4.197020317392514607e-08
0.000000000000000000e+00 0.000000000000000000e+00 0.000000000000000000e+00 0.000000000000000000e+00 0.000000000000000000e+00 0.000000000000000000e+00 1.041244542105753043e-05 9.779056772285697009e-06 9.027606113292744981e-06 7.480953764101547840e-06 6.204209589442557547e-06 5.222697175539677312e-06 4.487403436088753579e-06 3.516531519483289691e-06 2.234317494936364086e-06 1.226023556822327006e-06 5.340770976000111735e-07 4.041340264621437164e-07 2.967042574001076994e-07 2.270892664479086550e-07 0.000000000000000000e+00 0.000000000000000000e+00 0.000000000000000000e+00 0.000000000000000000e+00 0.000000000000000000e+00 0.000000000000000000e+00 4.351929027785874783e-06 2.854603223622688327e-06 4.315744896273967986e-06 2.293458915252543594e-06 2.146231250641866695e-06 1.317623292586984826e-06 1.060992090716457721e-06 5.101959327132332567e-07 6.961098603525556526e-08 -3.058195800095914768e-08 -6.474457274793067240e-08 3.236362569474078628e-07 1.126735143284427999e-07 1.791454094688153276e-07 0.000000000000000000e+00 0.000000000000000000e+00 0.000000000000000000e+00 0.000000000000000000e+00 0.000000000000000000e+00 0.000000000000000000e+00 2.605572016843464621e-06 2.931326853737490514e-06 2.346038517315098721e-06 2.176120987937967242e-06 1.530173513547002794e-06 1.214690659279903402e-06 8.926102121112732608e-07 5.502391191806158689e-07 3.599308208099288056e-07 1.279879370730889418e-07 -7.760165888127576209e-08 5.017463834093027295e-08 1.443764891833037752e-07 1.153351031345314602e-07 0.000000000000000000e+00 0.000000000000000000e+00 0.000000000000000000e+00 0.000000000000000000e+00 0.000000000000000000e+00 0.000000000000000000e+00 -5.081256625590241409e-07 -7.249526623439926378e-07 -1.307533495560745799e-06 -6.928558506142386528e-07 -8.429563653745260153e-07 -6.284868824212077302e-07 -7.408133549358664984e-07 -7.023517140705234434e-07 -5.779353441895660766e-07 -5.617566910202697992e-07 -5.925144537391656934e-07 -3.718963828025867923e-07 -1.413420451387640348e-07 -2.287906738075191303e-07 0.000000000000000000e+00 0.000000000000000000e+00 0.000000000000000000e+00 0.000000000000000000e+00 0.000000000000000000e+00 0.000000000000000000e+00 -7.683964635590345513e-07 -1.687443078046529448e-07 -6.023756085590776127e-07 -2.439311269927624738e-07 -3.744860203868168940e-07 -8.630287693656461247e-07 -7.132921926641922703e-07 -5.049657401679810925e-07 -3.054647354690538194e-07 -3.554456388452738475e-07 -2.342996120655459463e-07 -9.712218918110178356e-08 -4.336797648564676441e-08 -3.477966866008528928e-08
0.000000000000000000e+00 0.000000000000000000e+00 0.000000000000000000e+00 0.000000000000000000e+00 0.000000000000000000e+00 0.000000000000000000e+00 8.635395401167924375e-06 8.110104635782980793e-06 7.486901026787421696e-06 6.204209589442557547e-06 5.145362188233474845e-06 4.331360535166914867e-06 3.721556409488512518e-06 2.916379283006498079e-06 1.852995549105400899e-06 1.016783066434722860e-06 4.429283156824306611e-07 3.351621038520870309e-07 2.460669397294772078e-07 1.883328582134071030e-07 0.000000000000000000e+00 0.000000000000000000e+00 0.000000000000000000e+00 0.000000000000000000e+00 0.000000000000000000e+00 0.000000000000000000e+00 3.609202871474402862e-06 2.367419616872947486e-06 3.579194139594640412e-06 1.902043541998986248e-06 1.779942628477501000e-06 1.092749845129250248e-06 8.799168543365965766e-07 4.231228527869650919e-07 5.773076010213155896e-08 -2.536265870322050423e-08 -5.369487792246969745e-08 2.684025636516616491e-07 9.344398055595697667e-08 1.485713857321937367e-07 0.000000000000000000e+00 0.000000000000000000e+00 0.000000000000000000e+00 0.000000000000000000e+00 0.000000000000000000e+00 0.000000000000000000e+00 2.160889560694252517e-06 2.431049134806783883e-06 1.945649595667031744e-06 1.804731204988728180e-06 1.269024978046964823e-06 1.007384308759428057e-06 7.402720311131632903e-07 4.563320302938399274e-07 2.985028808386281547e-07 1.061447526025707309e-07 -6.435769707576632852e-08 4.161153539477834276e-08 1.197363366927158615e-07 9.565132674664305766e-08 0.000000000000000000e+00 0.000000000000000000e+00 0.000000000000000000e+00 0.000000000000000000e+00 0.000000000000000000e+00 0.000000000000000000e+00 -4.214059072812841720e-07 -6.012279184493377527e-07 -1.084382033024046090e-06 -5.746089399870122332e-07 -6.990924059221718479e-07 -5.212255637065564119e-07 -6.143817306739107438e-07 -5.824841827666465973e-07 -4.793014524036856159e-07 -4.658839446496769175e-07 -4.913924041894333536e-07 -3.084263286768108078e-07 -1.172197689617266402e-07 -1.897438932483644503e-07 0.000000000000000000e+00 0.000000000000000000e+00 0.000000000000000000e+00 0.000000000000000000e+00 0.000000000000000000e+00 0.000000000000000000e+00 -6.372573415148296623e-07 -1.399453980947319411e-07 -4.995705955305240587e-07 -2.023003864178786775e-07 -3.105740032701707636e-07 -7.157391337662155819e-07 -5.915574940507838071e-07 -4.187852760865720839e-07 -2.533323023767203834e-07 -2.947831667710130041e-07 -1.943126432561653449e-07 -8.054673728322571407e-08 -3.596653903652126384e-08 -2.884396303235953538e-08
0.000000000000000000e+00 0.000000000000000000e+00 0.000000000000000000e+00 0.000000000000000000e+00 0.000000000000000000e+00 0.000000000000000000e+00 7.269266861663232698e-06 6.827077642043475906e-06 6.302465492572283391e-06 5.222697175539677312e-06 4.331360535166914867e-06 3.646134790764342955e-06 3.132802312404406368e-06 2.455005045296831880e-06 1.559849724784990152e-06 8.559269271369551544e-07 3.728565951765377083e-07 2.821391102123465125e-07 2.071388937771685532e-07 1.585384040420291095e-07 0.000000000000000000e+00 0.000000000000000000e+00 0.000000000000000000e+00 0.000000000000000000e+00 0.000000000000000000e+00 0.000000000000000000e+00 3.038223221032849038e-06 1.992891369659626421e-06 3.012961901767191160e-06 1.601138274157519476e-06 1.498353852228154482e-06 9.198756823817637404e-07 7.407130922323345858e-07 3.561843771231018917e-07 4.859769377234265487e-08 -2.135025970091188821e-08 -4.520029235373185260e-08 2.259409987497038496e-07 7.866104558286368311e-08 1.250672378879550184e-07 0.000000000000000000e+00 0.000000000000000000e+00 0.000000000000000000e+00 0.000000000000000000e+00 0.000000000000000000e+00 0.000000000000000000e+00 1.819034583308629642e-06 2.046454631635735154e-06 1.637845804753531248e-06 1.519220850137305980e-06 1.068263905818610375e-06 8.480150627073794226e-07 6.231602253741904084e-07 3.841398281868907346e-07 2.512794144316510630e-07 8.935254227373915710e-08 -5.417624241995394494e-08 3.502854718931320711e-08 1.007939236157722477e-07 8.051918730895103032e-08 0.000000000000000000e+00 0.000000000000000000e+00 0.000000000000000000e+00 0.000000000000000000e+00 0.000000000000000000e+00 0.000000000000000000e+00 -3.547390541832814871e-07 -5.061130360399517635e-07 -9.128316668601630800e-07 -4.837052076733040139e-07 -5.884952597449269534e-07 -4.387671370776330526e-07 -5.171859014811447783e-07 -4.903345788492673747e-07 -4.034754638141920672e-07 -3.921806197507536013e-07 -4.136536144441233911e-07 -2.596329624942896770e-07 -9.867547951887117357e-08 -1.597262118659619976e-07 0.000000000000000000e+00 0.000000000000000000e+00 0.000000000000000000e+00 0.000000000000000000e+00 0.000000000000000000e+00 0.000000000000000000e+00 -5.364425668798948563e-07 -1.178058904719887422e-07 -4.205380074038356125e-07 -1.702962547482491856e-07 -2.614408727318494140e-07 -6.025084579194386217e-07 -4.979724828454656802e-07 -3.525330095709195332e-07 -2.132548684924002208e-07 -2.481481630007182991e-07 -1.635721808677333158e-07 -6.780415961831428909e-08 -3.027659512980034826e-08 -2.428081806211356036e-08
0.000000000000000000e+00 0.000000000000000000e+00 0.000000000000000000e+00 0.000000000000000000e+00 0.000000000000000000e+00 0.000000000000000000e+00 6.245840414728423608e-06 5.865906185951688017e-06 5.415153197021657571e-06 4.487403436088753579e-06 3.721556409488512518e-06 3.132802312404406368e-06 2.691740950846466381e-06 2.109369489672134878e-06 1.340241407747130981e-06 7.354225804750723438e-07 3.203628144859186432e-07 2.424172740766039466e-07 1.779761974400209949e-07 1.362180794977290316e-07 0.000000000000000000e+00 0.000000000000000000e+00 0.000000000000000000e+00 0.000000000000000000e+00 0.000000000000000000e+00 0.000000000000000000e+00 2.610477472352900027e-06 1.712315931669565548e-06 2.588772646845544898e-06 1.375717019695905778e-06 1.287403423743529521e-06 7.903681104137289309e-07 6.364294852871376839e-07 3.060378467411674618e-07 4.175571561785312071e-08 -1.834439668299535474e-08 -3.883662797267070644e-08 1.941311893194301042e-07 6.758650451495911554e-08 1.074592560466700977e-07 0.000000000000000000e+00 0.000000000000000000e+00 0.000000000000000000e+00 0.000000000000000000e+00 0.000000000000000000e+00 0.000000000000000000e+00 1.562936116176396554e-06 1.758338122457388657e-06 1.407256565909372610e-06 1.305332596156001760e-06 9.178650341956068386e-07 7.286246125987368028e-07 5.354266660672369990e-07 3.300575022840133467e-07 2.159022569832307883e-07 7.677276544011193009e-08 -4.654887086470934071e-08 3.009694373143097568e-08 8.660333616289860955e-08 6.918304195263328065e-08 0.000000000000000000e+00 0.000000000000000000e+00 0.000000000000000000e+00 0.000000000000000000e+00 0.000000000000000000e+00 0.000000000000000000e+00 -3.047960081071406161e-07 -4.348583309811194751e-07 -7.843158086253858243e-07 -4.156052587412204312e-07 -5.056421159299638943e-07 -3.769939348171265097e-07 -4.443722684655426185e-07 -4.213012931836254925e-07 -3.466709100380147185e-07 -3.369662458852203324e-07 -3.554160979312919390e-07 -2.230797246823691478e-07 -8.478314383696436073e-08 -1.372386580860288011e-07 0.000000000000000000e+00 0.000000000000000000e+00 0.000000000000000000e+00 0.000000000000000000e+00 0.000000000000000000e+00 0.000000000000000000e+00 -4.609178240613509357e-07 -1.012202201137329863e-07 -3.613312501188406829e-07 -1.463205644565010057e-07 -2.246331026285693560e-07 -5.176824222171839181e-07 -4.278638710021479507e-07 -3.029005483780103384e-07 -1.832311155464544667e-07 -2.132118485681624320e-07 -1.405431603256893179e-07 -5.825813916176238768e-08 -2.601401008943141320e-08 -2.086236722919232189e-08
0.000000000000000000e+00 0.000000000000000000e+00 0.000000000000000000e+00 0.000000000000000000e+00 0.000000000000000000e+00 0.000000000000000000e+00 4.894521965067344470e-06 4.596788384868352744e-06 4.243558033363490671e-06 3.516531519483289691e-06 2.916379283006498079e-06 2.455005045296831880e-06 2.109369489672134878e-06 1.652996973040989218e-06 1.050273553778645855e-06 5.763102696722136849e-07 2.510507358776798508e-07 1.899690984549882839e-07 1.394701673092975097e-07 1.067466246125525442e-07 0.000000000000000000e+00 0.000000000000000000e+00 0.000000000000000000e+00 0.000000000000000000e+00 0.000000000000000000e+00 0.000000000000000000e+00 2.045687766471746151e-06 1.341847915122541178e-06 2.028678887259399940e-06 1.078073841710759721e-06 1.008867328815603845e-06 6.193680625887356806e-07 4.987348199945714528e-07 2.398250457191178130e-07 3.272166012707420309e-08 -1.437549577621306382e-08 -3.043413152426035402e-08 1.521299468343705085e-07 5.296383015334764786e-08 8.420991478263572231e-08 0.000000000000000000e+00 0.000000000000000000e+00 0.000000000000000000e+00 0.000000000000000000e+00 0.000000000000000000e+00 0.000000000000000000e+00 1.224787161161408503e-06 1.377912977425500365e-06 1.102789651187102691e-06 1.022917436144857583e-06 7.192803966370676408e-07 5.709830757512666932e-07 4.195844600142283880e-07 2.586479300455536025e-07 1.691907363851507959e-07 6.016259811561799060e-08 -3.647779254159982539e-08 2.358532117271364316e-08 6.786627626569758837e-08 5.421494882399468610e-08 0.000000000000000000e+00 0.000000000000000000e+00 0.000000000000000000e+00 0.000000000000000000e+00 0.000000000000000000e+00 0.000000000000000000e+00 -2.388518850125169302e-07 -3.407745813774784806e-07 -6.146252062114886346e-07 -3.256870064930805287e-07 -3.962439445372777826e-07 -2.954294333727103790e-07 -3.482301314555717349e-07 -3.301506757258692137e-07 -2.716669449045996642e-07 -2.640619328156830574e-07 -2.785200681658585971e-07 -1.748153234662028060e-07 -6.643989154748995587e-08 -1.075463959781050945e-07 0.000000000000000000e+00 0.000000000000000000e+00 0.000000000000000000e+00 0.000000000000000000e+00 0.000000000000000000e+00 0.000000000000000000e+00 -3.611959743062728586e-07 -7.932072511608658776e-08 -2.831554479364338373e-07 -1.146633870094704108e-07 -1.760326204147126217e-07 -4.056792710387313421e-07 -3.352934073916475513e-07 -2.373665173658745635e-07 -1.435881579060340484e-07 -1.670824111305538719e-07 -1.101359528226079703e-07 -4.565370275852534038e-08 -2.038575040789636659e-08 -1.634869094730511134e-08
0.000000000000000000e+00 0.000000000000000000e+00 0.000000000000000000e+00 0.000000000000000000e+00 0.000000000000000000e+00 0.000000000000000000e+00 3.109858676172814723e-06 2.920686094217287246e-06 2.696252230980992541e-06 2.234317494936364086e-06 1.852995549105400899e-06 1.559849724784990152e-06 1.340241407747130981e-06 1.050273553778645855e-06 6.673179417488703169e-07 3.661733474890981261e-07 1.595114527426643300e-07 1.207016851188743905e-07 8.861590835012731694e-08 6.782417549104643863e-08 0.000000000000000000e+00 0.000000000000000000e+00 0.000000000000000000e+00 0.000000000000000000e+00 0.000000000000000000e+00 0.000000000000000000e+00 1.299779609675367606e-06 8.525771077811110889e-07 1.288972586851073868e-06 6.849815598187909900e-07 6.410094464825491074e-07 3.935312083453739705e-07 3.168838178966604406e-07 1.523789257696953816e-07 2.079053672069068580e-08 -9.133835864464597063e-09 -1.933709740154437365e-08 9.665962037664829235e-08 3.365191287347001112e-08 5.350490527484020939e-08 0.000000000000000000e+00 0.000000000000000000e+00 0.000000000000000000e+00 0.000000000000000000e+00 0.000000000000000000e+00 0.000000000000000000e+00 7.781995885987346698e-07 8.754919598769944868e-07 7.006853762664880180e-07 6.499365385440182362e-07 4.570130439800837325e-07 3.627885797113762417e-07 2.665936290970511184e-07 1.643385227540268634e-07 1.074996257511307712e-07 3.822583268933773347e-08 -2.317709072157884309e-08 1.498553203004712965e-08 4.312055999967647129e-08 3.444684285449829193e-08 0.000000000000000000e+00 0.000000000000000000e+00 0.000000000000000000e+00 0.000000000000000000e+00 0.000000000000000000e+00 0.000000000000000000e+00 -1.517606034313070797e-07 -2.165197737551329493e-07 -3.905177142473001609e-07 -2.069335003679613343e-07 -2.517636405751093197e-07 -1.877085838265925066e-07 -2.212568466013634597e-07 -2.097696058324431239e-07 -1.726104840617069232e-07 -1.677784467359144389e-07 -1.769647897497833466e-07 -1.110733498162670299e-07 -4.221427028984629361e-08 -6.833233051371654764e-08 0.000000000000000000e+00 0.000000000000000000e+00 0.000000000000000000e+00 0.000000000000000000e+00 0.000000000000000000e+00 0.000000000000000000e+00 -2.294950237248757171e-07 -5.039843460978047300e-08 -1.799099958597493828e-07 -7.285429128232678359e-08 -1.118467903082742677e-07 -2.577586145873803986e-07 -2.130371708376048469e-07 -1.508168374218407091e-07 -9.123237812532895430e-08 -1.061600478246248800e-07 -6.997767113692675774e-08 -2.900723801758673270e-08 -1.295260359004594305e-08 -1.038755546494829337e-08
0.000000000000000000e+00 0.000000000000000000e+00 0.000000000000000000e+00 0.000000000000000000e+00 0.000000000000000000e+00 0.000000000000000000e+00 1.706453986068242100e-06 1.602650456664743179e-06 1.479498217155391342e-06 1.226023556822327006e-06 1.016783066434722860e-06 8.559269271369551544e-07 7.354225804750723438e-07 5.763102696722136849e-07 3.661733474890981261e-07 2.009280914281648550e-07 8.752775694979185070e-08 6.623190734497903667e-08 4.862567266858320522e-08 3.721675055694928402e-08 0.000000000000000000e+00 0.000000000000000000e+00 0.000000000000000000e+00 0.000000000000000000e+00 0.000000000000000000e+00 0.000000000000000000e+00 7.132202221711183252e-07 4.678294917870932241e-07 7.072901497477816900e-07 3.758657980479440705e-07 3.517372456306300685e-07 2.159400053347947272e-07 1.738817452745977546e-07 8.361396846254751349e-08 1.140826576183272915e-08 -5.011954639106095108e-09 -1.061072877448710071e-08 5.303945023204924907e-08 1.846561109086326884e-08 2.935942381562455617e-08 0.000000000000000000e+00 0.000000000000000000e+00 0.000000000000000000e+00 0.000000000000000000e+00 0.000000000000000000e+00 0.000000000000000000e+00 4.270167644901629671e-07 4.804034203063489525e-07 3.844828584883354617e-07 3.566357549902385832e-07 2.507740099446426408e-07 1.990707882296423001e-07 1.462863134323924402e-07 9.017648594993318185e-08 5.898762097112975565e-08 2.097543051177326907e-08 -1.271782513795030597e-08 8.222920566119704255e-09 2.366128469332851606e-08 1.890180822263784674e-08 0.000000000000000000e+00 0.000000000000000000e+00 0.000000000000000000e+00 0.000000000000000000e+00 0.000000000000000000e+00 0.000000000000000000e+00 -8.327468017684435942e-08 -1.188095889430406155e-07 -2.142864289021898349e-07 -1.135493709921687327e-07 -1.381487433169048000e-07 -1.030001985441712607e-07 -1.214089343418141348e-07 -1.151056100302496773e-07 -9.471550936416260347e-08 -9.206405467954756788e-08 -9.710482124991105666e-08 -6.094860901305737994e-08 -2.316398180952814689e-08 -3.749558739626288854e-08 0.000000000000000000e+00 0.000000000000000000e+00 0.000000000000000000e+00 0.000000000000000000e+00 0.000000000000000000e+00 0.000000000000000000e+00 -1.259294195645235043e-07 -2.765482891245067480e-08 -9.872092642686051729e-08 -3.997689564269920322e-08 -6.137301434719192381e-08 -1.414383292321739027e-07 -1.168986012586026680e-07 -8.275681314928168329e-08 -5.006139234019692629e-08 -5.825256245871265622e-08 -3.839842522822906109e-08 -1.591696668379101919e-08 -7.107404010203149726e-09 -5.699900630365796480e-09
0.000000000000000000e+00 0.000000000000000000e+00 0.000000000000000000e+00 0.000000000000000000e+00 0.000000000000000000e+00 0.000000000000000000e+00 7.433609142302734646e-07 6.981422988162694001e-07 6.444950501365054717e-07 5.340770976000111735e-07 4.429283156824306611e-07 3.728565951765377083e-07 3.203628144859186432e-07 2.510507358776798508e-07 1.595114527426643300e-07 8.752775694979185070e-08 3.812860701660927777e-08 2.885176605823198060e-08 2.118218527137860636e-08 1.621226118287346404e-08 0.000000000000000000e+00 0.000000000000000000e+00 0.000000000000000000e+00 0.000000000000000000e+00 0.000000000000000000e+00 0.000000000000000000e+00 3.106910826363407466e-07 2.037946300093382345e-07 3.081078403725279726e-07 1.637336520913594224e-07 1.532228367219315103e-07 9.406720667248262848e-08 7.574590008904667123e-08 3.642369295989616023e-08 4.969638171162949902e-09 -2.183294254063510620e-09 -4.622217245145671282e-09 2.310490323012465366e-08 8.043940038460468824e-09 1.278947355571060429e-08 0.000000000000000000e+00 0.000000000000000000e+00 0.000000000000000000e+00 0.000000000000000000e+00 0.000000000000000000e+00 0.000000000000000000e+00 1.860158990717531077e-07 2.092720510683589693e-07 1.674873928773653977e-07 1.553567122472329497e-07 1.092415024486844825e-07 8.671868350572108604e-08 6.372485199148571978e-08 3.928243924834139619e-08 2.569602943376072824e-08 9.137260851393272215e-09 -5.540104918591942064e-09 3.582046629781914796e-09 1.030726545520347427e-08 8.233955064536657889e-09 0.000000000000000000e+00 0.000000000000000000e+00 0.000000000000000000e+00 0.000000000000000000e+00 0.000000000000000000e+00 0.000000000000000000e+00 -3.627589310575005410e-08 -5.175551487298630240e-08 -9.334688013644579469e-08 -4.946407282008922149e-08 -6.017998549637476572e-08 -4.486867057699433420e-08 -5.288783475257738852e-08 -5.014199750106706709e-08 -4.125971646909340640e-08 -4.010469688199230300e-08 -4.230054211236990771e-08 -2.655026979156880228e-08 -1.009063170511745797e-08 -1.633372733987827143e-08 0.000000000000000000e+00 0.000000000000000000e+00 0.000000000000000000e+00 0.000000000000000000e+00 0.000000000000000000e+00 0.000000000000000000e+00 -5.485703641599880247e-08 -1.204692249019073351e-08 -4.300454552039464026e-08 -1.741462819136144320e-08 -2.673514810634443567e-08 -6.161298610077295173e-08 -5.092305553696892001e-08 -3.605030125844470949e-08 -2.180760962877846758e-08 -2.537582521362696903e-08 -1.672701913775345552e-08 -6.933706389058488430e-09 -3.096108295894736378e-09 -2.482975443933819939e-09
0.000000000000000000e+00 0.000000000000000000e+00 0.000000000000000000e+00 0.000000000000000000e+00 0.000000000000000000e+00 0.000000000000000000e+00 5.624982623902995037e-07 5.282815150322412035e-07 4.876868542332748501e-07 4.041340264621437164e-07 3.351621038520870309e-07 2.821391102123465125e-07 2.424172740766039466e-07 1.899690984549882839e-07 1.207016851188743905e-07 6.623190734497903667e-08 2.885176605823198060e-08 2.183201721259664591e-08 1.602847577897931813e-08 1.226775388671980589e-08 0.000000000000000000e+00 0.000000000000000000e+00 0.000000000000000000e+00 0.000000000000000000e+00 0.000000000000000000e+00 0.000000000000000000e+00 2.350987128561424629e-07 1.542105901322868515e-07 2.331439836567568996e-07 1.238966066591946175e-07 1.159431142594355224e-07 7.118028307416461701e-08 5.731662287812927534e-08 2.756166433769835550e-08 3.760505539738023069e-09 -1.652090122964169410e-09 -3.497613499731988271e-09 1.748338885035213822e-08 6.086817598004810519e-09 9.677744032887599510e-09 0.000000000000000000e+00 0.000000000000000000e+00 0.000000000000000000e+00 0.000000000000000000e+00 0.000000000000000000e+00 0.000000000000000000e+00 1.407574947805471207e-07 1.583553329740187279e-07 1.267370474587735487e-07 1.175578094258905960e-07 8.266261264478543378e-08 6.561968467127659498e-08 4.822034334883777858e-08 2.972486634238034578e-08 1.944408379580600787e-08 6.914129130985603111e-09 -4.192175470235407099e-09 2.710520510941465396e-09 7.799466985092927396e-09 6.230601216365451548e-09 0.000000000000000000e+00 0.000000000000000000e+00 0.000000000000000000e+00 0.000000000000000000e+00 0.000000000000000000e+00 0.000000000000000000e+00 -2.744982477289582716e-08 -3.916319331278675819e-08 -7.063521483460846178e-08 -3.742926817837567897e-08 -4.553795689868360660e-08 -3.395194548459113335e-08 -4.002001528519231256e-08 -3.794225110198876274e-08 -3.122106419142731460e-08 -3.034706544016949663e-08 -3.200865283724752687e-08 -2.009048409441231922e-08 -7.635541083601783581e-09 -1.235966684709542312e-08 0.000000000000000000e+00 0.000000000000000000e+00 0.000000000000000000e+00 0.000000000000000000e+00 0.000000000000000000e+00 0.000000000000000000e+00 -4.151010239196142441e-08 -9.115858579811968897e-09 -3.254136943042596807e-08 -1.317758024439187590e-08 -2.023038078365730541e-08 -4.662230278578593623e-08 -3.853327462718404992e-08 -2.727912031468514843e-08 -1.650173191547967604e-08 -1.920178652944814126e-08 -1.265726919432970195e-08 -5.246708188590259628e-09 -2.342812896500357019e-09 -1.878857693529344042e-09
0.000000000000000000e+00 0.000000000000000000e+00 0.000000000000000000e+00 0.000000000000000000e+00 0.000000000000000000e+00 0.000000000000000000e+00 4.129709905706202250e-07 3.878499813242712174e-07 3.580464807573749296e-07 2.967042574001076994e-07 2.460669397294772078e-07 2.071388937771685532e-07 1.779761974400209949e-07 1.394701673092975097e-07 8.861590835012731694e-08 4.862567266858320522e-08 2.118218527137860636e-08 1.602847577897931813e-08 1.176767283094177093e-08 9.006652666172970953e-09 0.000000000000000000e+00 0.000000000000000000e+00 0.000000000000000000e+00 0.000000000000000000e+00 0.000000000000000000e+00 0.000000000000000000e+00 1.726031079945133393e-07 1.132172389169475798e-07 1.711679987546425710e-07 9.096153321960639829e-08 8.512229449757570806e-08 5.225863611617415676e-08 4.208031225831555874e-08 2.023502752692328571e-08 2.760861324606819058e-09 -1.212919826086589345e-09 -2.567853108522602050e-09 1.283583060573339449e-08 4.468776636196199483e-09 7.105137574589287646e-09 0.000000000000000000e+00 0.000000000000000000e+00 0.000000000000000000e+00 0.000000000000000000e+00 0.000000000000000000e+00 0.000000000000000000e+00 1.033403406487818950e-07 1.162601968626964722e-07 9.304690792934265206e-08 8.630775995933008089e-08 6.068865152046597179e-08 4.817619536187242007e-08 3.540207017494312513e-08 2.182319185454571353e-08 1.427531973480213678e-08 5.076166358315043200e-09 -3.077781697017430542e-09 1.989990752342605999e-09 5.726157433926007152e-09 4.574338674823478144e-09 0.000000000000000000e+00 0.000000000000000000e+00 0.000000000000000000e+00 0.000000000000000000e+00 0.000000000000000000e+00 0.000000000000000000e+00 -2.015291794730392856e-08 -2.875255590579607622e-08 -5.185846177632544089e-08 -2.747955503057526127e-08 -3.343273468809900061e-08 -2.492659888226011418e-08 -2.938161139333369837e-08 -2.785617320039871467e-08 -2.292165979502412725e-08 -2.227999358163770174e-08 -2.349988604917184950e-08 -1.474988932811293171e-08 -5.605807476521148050e-09 -9.074132672477879575e-09 0.000000000000000000e+00 0.000000000000000000e+00 0.000000000000000000e+00 0.000000000000000000e+00 0.000000000000000000e+00 0.000000000000000000e+00 -3.047559299232390323e-08 -6.692616492021288073e-09 -2.389099214475949844e-08 -9.674622537899234605e-09 -1.485259768864998998e-08 -3.422883207196453564e-08 -2.829008666639460314e-08 -2.002759135713364564e-08 -1.211512466955485953e-08 -1.409743164377914177e-08 -9.292624256098459605e-09 -3.851991059794019433e-09 -1.720029780141880042e-09 -1.379406435036527093e-09
0.000000000000000000e+00 0.000000000000000000e+00 0.000000000000000000e+00 0.000000000000000000e+00 0.000000000000000000e+00 0.000000000000000000e+00 3.160766216660102342e-07 2.968496931002644143e-07 2.740389146482736109e-07 2.270892664479086550e-07 1.883328582134071030e-07 1.585384040420291095e-07 1.362180794977290316e-07 1.067466246125525442e-07 6.782417549104643863e-08 3.721675055694928402e-08 1.621226118287346404e-08 1.226775388671980589e-08 9.006652666172970953e-09 6.893443879216740657e-09 0.000000000000000000e+00 0.000000000000000000e+00 0.000000000000000000e+00 0.000000000000000000e+00 0.000000000000000000e+00 0.000000000000000000e+00 1.321056648278784128e-07 8.665335630906222802e-08 1.310072717430923499e-07 6.961945216027760722e-08 6.515025967338985393e-08 3.999732071652393072e-08 3.220711197869164985e-08 1.548733273296327329e-08 2.113087215071206490e-09 -9.283354272692299183e-10 -1.965364042532165012e-09 9.824191206582104991e-09 3.420278553215594790e-09 5.438076601810057352e-09 0.000000000000000000e+00 0.000000000000000000e+00 0.000000000000000000e+00 0.000000000000000000e+00 0.000000000000000000e+00 0.000000000000000000e+00 7.909385041537445400e-08 8.898235250812957459e-08 7.121554052534754831e-08 6.605758228637853148e-08 4.644942231789618011e-08 3.687273300640806857e-08 2.709576942781779864e-08 1.670286996629716022e-08 1.092593653792442880e-08 3.885157917106775429e-09 -2.355649339132920935e-09 1.523084111254280210e-09 4.382643183585891830e-09 3.501072830071178251e-09 0.000000000000000000e+00 0.000000000000000000e+00 0.000000000000000000e+00 0.000000000000000000e+00 0.000000000000000000e+00 0.000000000000000000e+00 -1.542448832227804994e-08 -2.200641435469791692e-08 -3.969103829886055390e-08 -2.103209454724194379e-08 -2.558849428786523491e-08 -1.907813222774354142e-08 -2.248787609869747622e-08 -2.132034772117880979e-08 -1.754360707268590751e-08 -1.705249342646062888e-08 -1.798616552144539973e-08 -1.128915903350898944e-08 -4.290530641003628605e-09 -6.945091217431431429e-09 0.000000000000000000e+00 0.000000000000000000e+00 0.000000000000000000e+00 0.000000000000000000e+00 0.000000000000000000e+00 0.000000000000000000e+00 -2.332517948287906339e-08 -5.122344327337375473e-09 -1.828550735471925073e-08 -7.404689621050055288e-09 -1.136776918375356611e-08 -2.619780529845627240e-08 -2.165245313671383719e-08 -1.532856680204921294e-08 -9.272582733533692630e-09 -1.078978589265156459e-08 -7.112318657590911666e-09 -2.948207861247253613e-09 -1.316463418703999427e-09 -1.055759692195963880e-09
0.000000000000000000e+00 0.000000000000000000e+00 0.000000000000000000e+00 0.000000000000000000e+00 0.000000000000000000e+00 0.000000000000000000e+00 0.000000000000000000e+00 0.000000000000000000e+00 0.000000000000000000e+00 0.000000000000000000e+00 0.000000000000000000e+00 0.000000000000000000e+00 0.000000000000000000e+00 0.000000000000000000e+00 0.000000000000000000e+00 0.000000000000000000e+00 0.000000000000000000e+00 0.000000000000000000e+00 0.000000000000000000e+00 0.000000000000000000e+00 0.000000000000000000e+00 0.000000000000000000e+00 0.000000000000000000e+00 0.000000000000000000e+00 0.000000000000000000e+00 0.000000000000000000e+00 0.000000000000000000e+00 0.000000000000000000e+00 0.000000000000000000e+00 0.000000000000000000e+00 0.000000000000000000e+00 0.000000000000000000e+00 0.000000000000000000e+00 0.000000000000000000e+00 0.000000000000000000e+00 -0.000000000000000000e+00 -0.000000000000000000e+00 0.000000000000000000e+00 0.000000000000000000e+00 0.000000000000000000e+00 0.000000000000000000e+00 0.000000000000000000e+00 0.000000000000000000e+00 0.000000000000000000e+00 0.000000000000000000e+00 0.000000000000000000e+00 0.000000000000000000e+00 0.000000000000000000e+00 0.000000000000000000e+00 0.000000000000000000e+00 0.000000000000000000e+00 0.000000000000000000e+00 0.000000000000000000e+00 0.000000000000000000e+00 0.000000000000000000e+00 0.000000000000000000e+00 -0.000000000000000000e+00 0.000000000000000000e+00 0.000000000000000000e+00 0.000000000000000000e+00 0.000000000000000000e+00 0.000000000000000000e+00 0.000000000000000000e+00 0.000000000000000000e+00 0.000000000000000000e+00 0.000000000000000000e+00 -0.000000000000000000e+00 -0.000000000000000000e+00 -0.000000000000000000e+00 -0.000000000000000000e+00 -0.000000000000000000e+00 -0.000000000000000000e+00 -0.000000000000000000e+00 -0.000000000000000000e+00 -0.000000000000000000e+00 -0.000000000000000000e+00 -0.000000000000000000e+00 -0.000000000000000000e+00 -0.000000000000000000e+00 -0.000000000000000000e+00 0.000000000000000000e+00 0.000000000000000000e+00 0.000000000000000000e+00 0.000000000000000000e+00 0.000000000000000000e+00 0.000000000000000000e+00 -0.000000000000000000e+00 -0.000000000000000000e+00 -0.000000000000000000e+00 -0.000000000000000000e+00 -0.000000000000000000e+00 -0.000000000000000000e+00 -0.000000000000000000e+00 -0.000000000000000000e+00 -0.000000000000000000e+00 -0.000000000000000000e+00 -0.000000000000000000e+00 -0.000000000000000000e+00 -0.000000000000000000e+00 -0.000000000000000000e+00
0.000000000000000000e+00 0.000000000000000000e+00 0.000000000000000000e+00 0.000000000000000000e+00 0.000000000000000000e+00 0.000000000000000000e+00 0.000000000000000000e+00 0.000000000000000000e+00 0.000000000000000000e+00 0.000000000000000000e+00 0.000000000000000000e+00 0.000000000000000000e+00 0.000000000000000000e+00 0.000000000000000000e+00 0.000000000000000000e+00 0.000000000000000000e+00 0.000000000000000000e+00 0.000000000000000000e+00 0.000000000000000000e+00 0.000000000000000000e+00 0.000000000000000000e+00 0.000000000000000000e+00 0.000000000000000000e+00 0.000000000000000000e+00 0.000000000000000000e+00 0.000000000000000000e+00 0.000000000000000000e+00 0.000000000000000000e+00 0.000000000000000000e+00 0.000000000000000000e+00 0.000000000000000000e+00 0.000000000000000000e+00 0.000000000000000000e+00 0.000000000000000000e+00 0.000000000000000000e+00 -0.000000000000000000e+00 -0.000000000000000000e+00 0.000000000000000000e+00 0.000000000000000000e+00 0.000000000000000000e+00 0.000000000000000000e+00 0.000000000000000000e+00 0.000000000000000000e+00 0.000000000000000000e+00 0.000000000000000000e+00 0.000000000000000000e+00 0.000000000000000000e+00 0.000000000000000000e+00 0.000000000000000000e+00 0.000000000000000000e+00 0.000000000000000000e+00 0.000000000000000000e+00 0.000000000000000000e+00 0.000000000000000000e+00 0.000000000000000000e+00 0.000000000000000000e+00 -0.000000000000000000e+00 0.000000000000000000e+00 0.000000000000000000e+00 0.000000000000000000e+00 0.000000000000000000e+00 0.000000000000000000e+00 0.000000000000000000e+00 0.000000000000000000e+00 0.000000000000000000e+00 0.000000000000000000e+00 -0.000000000000000000e+00 -0.000000000000000000e+00 -0.000000000000000000e+00 -0.000000000000000000e+00 -0.000000000000000000e+00 -0.000000000000000000e+00 -0.000000000000000000e+00 -0.000000000000000000e+00 -0.000000000000000000e+00 -0.000000000000000000e+00 -0.000000000000000000e+00 -0.000000000000000000e+00 -0.000000000000000000e+00 -0.000000000000000000e+00 0.000000000000000000e+00 0.000000000000000000e+00 0.000000000000000000e+00 0.000000000000000000e+00 0.000000000000000000e+00 0.000000000000000000e+00 -0.000000000000000000e+00 -0.000000000000000000e+00 -0.000000000000000000e+00 -0.000000000000000000e+00 -0.000000000000000000e+00 -0.000000000000000000e+00 -0.000000000000000000e+00 -0.000000000000000000e+00 -0.000000000000000000e+00 -0.000000000000000000e+00 -0.000000000000000000e+00 -0.000000000000000000e+00 -0.000000000000000000e+00 -0.000000000000000000e+00
0.000000000000000000e+00 0.000000000000000000e+00 0.000000000000000000e+00 0.000000000000000000e+00 0.000000000000000000e+00 0.000000000000000000e+00 0.000000000000000000e+00 0.000000000000000000e+00 0.000000000000000000e+00 0.000000000000000000e+00 0.000000000000000000e+00 0.000000000000000000e+00 0.000000000000000000e+00 0.000000000000000000e+00 0.000000000000000000e+00 0.000000000000000000e+00 0.000000000000000000e+00 0.000000000000000000e+00 0.000000000000000000e+00 0.000000000000000000e+00 0.000000000000000000e+00 0.000000000000000000e+00 0.000000000000000000e+00 0.000000000000000000e+00 0.000000000000000000e+00 0.000000000000000000e+00 0.000000000000000000e+00 0.000000000000000000e+00 0.000000000000000000e+00 0.000000000000000000e+00 0.000000000000000000e+00 0.000000000000000000e+00 0.000000000000000000e+00 0.000000000000000000e+00 0.000000000000000000e+00 -0.000000000000000000e+00 -0.000000000000000000e+00 0.000000000000000000e+00 0.000000000000000000e+00 0.000000000000000000e+00 0.000000000000000000e+00 0.000000000000000000e+00 0.000000000000000000e+00 0.000000000000000000e+00 0.000000000000000000e+00 0.000000000000000000e+00 0.000000000000000000e+00 0.000000000000000000e+00 0.000000000000000000e+00 0.000000000000000000e+00 0.000000000000000000e+00 0.000000000000000000e+00 0.000000000000000000e+00 0.000000000000000000e+00 0.000000000000000000e+00 0.000000000000000000e+00 -0.000000000000000000e+00 0.000000000000000000e+00 0.000000000000000000e+00 0.000000000000000000e+00 0.000000000000000000e+00 0.000000000000000000e+00 0.000000000000000000e+00 0.000000000000000000e+00 0.000000000000000000e+00 0.000000000000000000e+00 -0.000000000000000000e+00 -0.000000000000000000e+00 -0.000000000000000000e+00 -0.000000000000000000e+00 -0.000000000000000000e+00 -0.000000000000000000e+00 -0.000000000000000000e+00 -0.000000000000000000e+00 -0.000000000000000000e+00 -0.000000000000000000e+00 -0.000000000000000000e+00 -0.000000000000000000e+00 -0.000000000000000000e+00 -0.000000000000000000e+00 0.000000000000000000e+00 0.000000000000000000e+00 0.000000000000000000e+00 0.000000000000000000e+00 0.000000000000000000e+00 0.000000000000000000e+00 -0.000000000000000000e+00 -0.000000000000000000e+00 -0.000000000000000000e+00 -0.000000000000000000e+00 -0.000000000000000000e+00 -0.000000000000000000e+00 -0.000000000000000000e+00 -0.000000000000000000e+00 -0.000000000000000000e+00 -0.000000000000000000e+00 -0.000000000000000000e+00 -0.000000000000000000e+00 -0.000000000000000000e+00 -0.000000000000000000e+00
0.000000000000000000e+00 0.000000000000000000e+00 0.000000000000000000e+00 0.000000000000000000e+00 0.000000000000000000e+00 0.000000000000000000e+00 0.000000000000000000e+00 0.000000000000000000e+00 0.000000000000000000e+00 0.000000000000000000e+00 0.000000000000000000e+00 0.000000000000000000e+00 0.000000000000000000e+00 0.000000000000000000e+00 0.000000000000000000e+00 0.000000000000000000e+00 0.000000000000000000e+00 0.000000000000000000e+00 0.000000000000000000e+00 0.000000000000000000e+00 0.000000000000000000e+00 0.000000000000000000e+00 0.000000000000000000e+00 0.000000000000000000e+00 0.000000000000000000e+00 0.000000000000000000e+00 0.000000000000000000e+00 0.000000000000000000e+00 0.000000000000000000e+00 0.000000000000000000e+00 0.000000000000000000e+00 0.000000000000000000e+00 0.000000000000000000e+00 0.000000000000000000e+00 0.000000000000000000e+00 -0.000000000000000000e+00 -0.000000000000000000e+00 0.000000000000000000e+00 0.000000000000000000e+00 0.000000000000000000e+00 0.000000000000000000e+00 0.000000000000000000e+00 0.000000000000000000e+00 0.000000000000000000e+00 0.000000000000000000e+00 0.000000000000000000e+00 0.000000000000000000e+00 0.000000000000000000e+00 0.000000000000000000e+00 0.000000000000000000e+00 0.000000000000000000e+00 0.000000000000000000e+00 0.000000000000000000e+00 0.000000000000000000e+00 0.000000000000000000e+00 0.000000000000000000e+00 -0.000000000000000000e+00 0.000000000000000000e+00 0.000000000000000000e+00 0.000000000000000000e+00 0.000000000000000000e+00 0.000000000000000000e+00 0.000000000000000000e+00 0.000000000000000000e+00 0.000000000000000000e+00 0.000000000000000000e+00 -0.000000000000000000e+00 -0.000000000000000000e+00 -0.000000000000000000e+00 -0.000000000000000000e+00 -0.000000000000000000e+00 -0.000000000000000000e+00 -0.000000000000000000e+00 -0.000000000000000000e+00 -0.000000000000000000e+00 -0.000000000000000000e+00 -0.000000000000000000e+00 -0.000000000000000000e+00 -0.000000000000000000e+00 -0.000000000000000000e+00 0.000000000000000000e+00 0.000000000000000000e+00 0.000000000000000000e+00 0.000000000000000000e+00 0.000000000000000000e+00 0.000000000000000000e+00 -0.000000000000000000e+00 -0.000000000000000000e+00 -0.000000000000000000e+00 -0.000000000000000000e+00 -0.000000000000000000e+00 -0.000000000000000000e+00 -0.000000000000000000e+00 -0.000000000000000000e+00 -0.000000000000000000e+00 -0.000000000000000000e+00 -0.000000000000000000e+00 -0.000000000000000000e+00 -0.000000000000000000e+00 -0.000000000000000000e+00
0.000000000000000000e+00 0.000000000000000000e+00 0.000000000000000000e+00 0.000000000000000000e+00 0.000000000000000000e+00 0.000000000000000000e+00 0.000000000000000000e+00 0.000000000000000000e+00 0.000000000000000000e+00 0.000000000000000000e+00 0.000000000000000000e+00 0.000000000000000000e+00 0.000000000000000000e+00 0.000000000000000000e+00 0.000000000000000000e+00 0.000000000000000000e+00 0.000000000000000000e+00 0.000000000000000000e+00 0.000000000000000000e+00 0.000000000000000000e+00 0.000000000000000000e+00 0.000000000000000000e+00 0.000000000000000000e+00 0.000000000000000000e+00 0.000000000000000000e+00 0.000000000000000000e+00 0.000000000000000000e+00 0.000000000000000000e+00 0.000000000000000000e+00 0.000000000000000000e+00 0.000000000000000000e+00 0.000000000000000000e+00 0.000000000000000000e+00 0.000000000000000000e+00 0.000000000000000000e+00 -0.000000000000000000e+00 -0.000000000000000000e+00 0.000000000000000000e+00 0.000000000000000000e+00 0.000000000000000000e+00 0.000000000000000000e+00 0.000000000000000000e+00 0.000000000000000000e+00 0.000000000000000000e+00 0.000000000000000000e+00 0.000000000000000000e+00 0.000000000000000000e+00 0.000000000000000000e+00 0.000000000000000000e+00 0.000000000000000000e+00 0.000000000000000000e+00 0.000000000000000000e+00 0.000000000000000000e+00 0.000000000000000000e+00 0.000000000000000000e+00 0.000000000000000000e+00 -0.000000000000000000e+00 0.000000000000000000e+00 0.000000000000000000e+00 0.000000000000000000e+00 0.000000000000000000e+00 0.000000000000000000e+00 0.000000000000000000e+00 0.000000000000000000e+00 0.000000000000000000e+00 0.000000000000000000e+00 -0.000000000000000000e+00 -0.000000000000000000e+00 -0.000000000000000000e+00 -0.000000000000000000e+00 -0.000000000000000000e+00 -0.000000000000000000e+00 -0.000000000000000000e+00 -0.000000000000000000e+00 -0.000000000000000000e+00 -0.000000000000000000e+00 -0.000000000000000000e+00 -0.000000000000000000e+00 -0.000000000000000000e+00 -0.000000000000000000e+00 0.000000000000000000e+00 0.000000000000000000e+00 0.000000000000000000e+00 0.000000000000000000e+00 0.000000000000000000e+00 0.000000000000000000e+00 -0.000000000000000000e+00 -0.000000000000000000e+00 -0.000000000000000000e+00 -0.000000000000000000e+00 -0.000000000000000000e+00 -0.000000000000000000e+00 -0.000000000000000000e+00 -0.000000000000000000e+00 -0.000000000000000000e+00 -0.000000000000000000e+00 -0.000000000000000000e+00 -0.000000000000000000e+00 -0.000000000000000000e+00 -0.000000000000000000e+00
0.000000000000000000e+00 0.000000000000000000e+00 0.000000000000000000e+00 0.000000000000000000e+00 0.000000000000000000e+00 0.000000000000000000e+00 0.000000000000000000e+00 0.000000000000000000e+00 0.000000000000000000e+00 0.000000000000000000e+00 0.000000000000000000e+00 0.000000000000000000e+00 0.000000000000000000e+00 0.000000000000000000e+00 0.000000000000000000e+00 0.000000000000000000e+00 0.000000000000000000e+00 0.000000000000000000e+00 0.000000000000000000e+00 0.000000000000000000e+00 0.000000000000000000e+00 0.000000000000000000e+00 0.000000000000000000e+00 0.000000000000000000e+00 0.000000000000000000e+00 0.000000000000000000e+00 0.000000000000000000e+00 0.000000000000000000e+00 0.000000000000000000e+00 0.000000000000000000e+00 0.000000000000000000e+00 0.000000000000000000e+00 0.000000000000000000e+00 0.000000000000000000e+00 0.000000000000000000e+00 -0.000000000000000000e+00 -0.000000000000000000e+00 0.000000000000000000e+00 0.000000000000000000e+00 0.000000000000000000e+00 0.000000000000000000e+00 0.000000000000000000e+00 0.000000000000000000e+00 0.000000000000000000e+00 0.000000000000000000e+00 0.000000000000000000e+00 0.000000000000000000e+00 0.000000000000000000e+00 0.000000000000000000e+00 0.000000000000000000e+00 0.000000000000000000e+00 0.000000000000000000e+00 0.000000000000000000e+00 0.000000000000000000e+00 0.000000000000000000e+00 0.000000000000000000e+00 -0.000000000000000000e+00 0.000000000000000000e+00 0.000000000000000000e+00 0.000000000000000000e+00 0.000000000000000000e+00 0.000000000000000000e+00 0.000000000000000000e+00 0.000000000000000000e+00 0.000000000000000000e+00 0.000000000000000000e+00 -0.000000000000000000e+00 -0.000000000000000000e+00 -0.000000000000000000e+00 -0.000000000000000000e+00 -0.000000000000000000e+00 -0.000000000000000000e+00 -0.000000000000000000e+00 -0.000000000000000000e+00 -0.000000000000000000e+00 -0.000000000000000000e+00 -0.000000000000000000e+00 -0.000000000000000000e+00 -0.000000000000000000e+00 -0.000000000000000000e+00 0.000000000000000000e+00 0.000000000000000000e+00 0.000000000000000000e+00 0.000000000000000000e+00 0.000000000000000000e+00 0.000000000000000000e+00 -0.000000000000000000e+00 -0.000000000000000000e+00 -0.000000000000000000e+00 -0.000000000000000000e+00 -0.000000000000000000e+00 -0.000000000000000000e+00 -0.000000000000000000e+00 -0.000000000000000000e+00 -0.000000000000000000e+00 -0.000000000000000000e+00 -0.000000000000000000e+00 -0.000000000000000000e+00 -0.000000000000000000e+00 -0.000000000000000000e+00
0.000000000000000000e+00 0.000000000000000000e+00 0.000000000000000000e+00 0.000000000000000000e+00 0.000000000000000000e+00 0.000000000000000000e+00 6.057278912160013164e-06 5.688814872228700817e-06 5.251670085756008940e-06 4.351929027785874783e-06 3.609202871474402862e-06 3.038223221032849038e-06 2.610477472352900027e-06 2.045687766471746151e-06 1.299779609675367606e-06 7.132202221711183252e-07 3.106910826363407466e-07 2.350987128561424629e-07 1.726031079945133393e-07 1.321056648278784128e-07 0.000000000000000000e+00 0.000000000000000000e+00 0.000000000000000000e+00 0.000000000000000000e+00 0.000000000000000000e+00 0.000000000000000000e+00 2.531667332816337659e-06 1.660621228713969747e-06 2.510617774533069640e-06 1.334184215282414433e-06 1.248536800859545392e-06 7.665069502517864727e-07 6.172157218772378839e-07 2.967985847055516670e-07 4.049511336820950955e-08 -1.779058057938506328e-08 -3.766415278295109425e-08 1.882703817542633943e-07 6.554607248364512559e-08 1.042150683249886539e-07 0.000000000000000000e+00 0.000000000000000000e+00 0.000000000000000000e+00 0.000000000000000000e+00 0.000000000000000000e+00 0.000000000000000000e+00 1.515751179816239692e-06 1.705254012653360182e-06 1.364771584714304671e-06 1.265924692761242720e-06 8.901547504690486624e-07 7.066274844883291060e-07 5.192621709849170360e-07 3.200930884610328677e-07 2.093841823477232666e-07 7.445500080853687541e-08 -4.514356358013407006e-08 2.918831902188301561e-08 8.398878726155218710e-08 6.709441056332022454e-08 0.000000000000000000e+00 0.000000000000000000e+00 0.000000000000000000e+00 0.000000000000000000e+00 0.000000000000000000e+00 0.000000000000000000e+00 -2.955942370964679265e-07 -4.217299871795662311e-07 -7.606373670478818112e-07 -4.030581638973018289e-07 -4.903768144155688276e-07 -3.656125132488353702e-07 -4.309566995304149224e-07 -4.085822354425107946e-07 -3.362049385509144892e-07 -3.267932575570009112e-07 -3.446861098091346999e-07 -2.163449627791571437e-07 -8.222354641966999426e-08 -1.330954322171528246e-07 0.000000000000000000e+00 0.000000000000000000e+00 0.000000000000000000e+00 0.000000000000000000e+00 0.000000000000000000e+00 0.000000000000000000e+00 -4.470027459142014661e-07 -9.816438846777175741e-08 -3.504226839494802344e-07 -1.419031564443599497e-07 -2.178514443495067372e-07 -5.020536246647618757e-07 -4.149466894775204885e-07 -2.937560011692362337e-07 -1.776993804763025451e-07 -2.067749971819828708e-07 -1.363001717561715455e-07 -5.649932985384651754e-08 -2.522864887227225674e-08 -2.023253376393214617e-08
0.000000000000000000e+00 0.000000000000000000e+00 0.000000000000000000e+00 0.000000000000000000e+00 0.000000000000000000e+00 0.000000000000000000e+00 3.973209994610341414e-06 3.731519785633727035e-06 3.444779145175792459e-06 2.854603223622688327e-06 2.367419616872947486e-06 1.992891369659626421e-06 1.712315931669565548e-06 1.341847915122541178e-06 8.525771077811110889e-07 4.678294917870932241e-07 2.037946300093382345e-07 1.542105901322868515e-07 1.132172389169475798e-07 8.665335630906222802e-08 0.000000000000000000e+00 0.000000000000000000e+00 0.000000000000000000e+00 0.000000000000000000e+00 0.000000000000000000e+00 0.000000000000000000e+00 1.660621228713969747e-06 1.089267467929030748e-06 1.646813986788009118e-06 8.751444560642035136e-07 8.189649127523818859e-07 5.027823747004368380e-07 4.048563241937266455e-07 1.946819884372447125e-07 2.656235440049661644e-08 -1.166954891676384883e-08 -2.470541483162250443e-08 1.234940264965271624e-07 4.299427417427679303e-08 6.835880550697452826e-08 0.000000000000000000e+00 0.000000000000000000e+00 0.000000000000000000e+00 0.000000000000000000e+00 0.000000000000000000e+00 0.000000000000000000e+00 9.942414447679322840e-07 1.118543884915421663e-06 8.952079274179252932e-07 8.303703221599522660e-07 5.838878814401982702e-07 4.635050531021719735e-07 3.406046968447463891e-07 2.099617793273362564e-07 1.373434075071548710e-07 4.883799436201114986e-08 -2.961145765449901622e-08 1.914577858232808734e-08 5.509158383195571845e-08 4.400989066187999516e-08 0.000000000000000000e+00 0.000000000000000000e+00 0.000000000000000000e+00 0.000000000000000000e+00 0.000000000000000000e+00 0.000000000000000000e+00 -1.938920089717473811e-07 -2.766294609160106082e-07 -4.989322817811337814e-07 -2.643818698840440974e-07 -3.216576433767574056e-07 -2.398197792871427713e-07 -2.826816282771985897e-07 -2.680053279735016549e-07 -2.205301821922380468e-07 -2.143566865461928021e-07 -2.260933195180618188e-07 -1.419092600593528895e-07 -5.393369220147775773e-08 -8.730258407955662729e-08 0.000000000000000000e+00 0.000000000000000000e+00 0.000000000000000000e+00 0.000000000000000000e+00 0.000000000000000000e+00 0.000000000000000000e+00 -2.932068678758002841e-07 -6.438992409479124384e-08 -2.298561665059209577e-07 -9.307992047710281990e-08 -1.428974211988363828e-07 -3.293169273324830998e-07 -2.721800263403498896e-07 -1.926862369634836372e-07 -1.165600865971581621e-07 -1.356319392507571923e-07 -8.940470012063743255e-08 -3.706015610630665738e-08 -1.654847354784958014e-08 -1.327132306979738486e-08
0.000000000000000000e+00 0.000000000000000000e+00 0.000000000000000000e+00 0.000000000000000000e+00 0.000000000000000000e+00 0.000000000000000000e+00 6.006915642133661612e-06 5.641515197953373774e-06 5.208005053576745112e-06 4.315744896273967986e-06 3.579194139594640412e-06 3.012961901767191160e-06 2.588772646845544898e-06 2.028678887259399940e-06 1.288972586851073868e-06 7.072901497477816900e-07 3.081078403725279726e-07 2.331439836567568996e-07 1.711679987546425710e-07 1.310072717430923499e-07 0.000000000000000000e+00 0.000000000000000000e+00 0.000000000000000000e+00 0.000000000000000000e+00 0.000000000000000000e+00 0.000000000000000000e+00 2.510617774533069640e-06 1.646813986788009118e-06 2.489743232887326493e-06 1.323091135225580344e-06 1.238155836576508359e-06 7.601338251121947247e-07 6.120838792600834795e-07 2.943308516720014030e-07 4.015841658424325997e-08 -1.764266072516695418e-08 -3.735099403222665837e-08 1.867050069033184704e-07 6.500108939874314825e-08 1.033485717176870723e-07 0.000000000000000000e+00 0.000000000000000000e+00 0.000000000000000000e+00 0.000000000000000000e+00 0.000000000000000000e+00 0.000000000000000000e+00 1.503148460498065837e-06 1.691075671264725688e-06 1.353424185850555326e-06 1.255399156780627669e-06 8.827535551942010620e-07 7.007522274091340163e-07 5.149447635630327496e-07 3.174316731817448269e-07 2.076432567163055920e-07 7.383594440302699369e-08 -4.476821723807049536e-08 2.894563262526302096e-08 8.329046214999959066e-08 6.653655381518932787e-08 0.000000000000000000e+00 0.000000000000000000e+00 0.000000000000000000e+00 0.000000000000000000e+00 0.000000000000000000e+00 0.000000000000000000e+00 -2.931365176159868781e-07 -4.182235114946022046e-07 -7.543130445815906228e-07 -3.997069351625750797e-07 -4.862995744077668987e-07 -3.625726265279516590e-07 -4.273735083082732616e-07 -4.051850767925677983e-07 -3.334095612288564056e-07 -3.240761336946517489e-07 -3.418202157543305499e-07 -2.145461617106750118e-07 -8.153989841024038509e-08 -1.319888097074034572e-07 0.000000000000000000e+00 0.000000000000000000e+00 0.000000000000000000e+00 0.000000000000000000e+00 0.000000000000000000e+00 0.000000000000000000e+00 -4.432861397744704051e-07 -9.734820026262749213e-08 -3.475090931257727046e-07 -1.407233020758824185e-07 -2.160401176339118561e-07 -4.978792977708920965e-07 -4.114966135487492306e-07 -2.913135657088107170e-07 -1.762218982582595269e-07 -2.050557656311839660e-07 -1.351669034265567933e-07 -5.602956594714827422e-08 -2.501888516913427858e-08 -2.006431028007958653e-08
0.000000000000000000e+00 0.000000000000000000e+00 0.000000000000000000e+00 0.000000000000000000e+00 0.000000000000000000e+00 0.000000000000000000e+00 3.192175293890876391e-06 2.997995395290743480e-06 2.767620864504324966e-06 2.293458915252543594e-06 1.902043541998986248e-06 1.601138274157519476e-06 1.375717019695905778e-06 1.078073841710759721e-06 6.849815598187909900e-07 3.758657980479440705e-07 1.637336520913594224e-07 1.238966066591946175e-07 9.096153321960639829e-08 6.961945216027760722e-08 0.000000000000000000e+00 0.000000000000000000e+00 0.000000000000000000e+00 0.000000000000000000e+00 0.000000000000000000e+00 0.000000000000000000e+00 1.334184215282414433e-06 8.751444560642035136e-07 1.323091135225580344e-06 7.031127262398054991e-07 6.579766900309624722e-07 4.039478096802485671e-07 3.252715958682758081e-07 1.564123302060376581e-07 2.134085325967135207e-08 -9.375604559908966513e-09 -1.984894202868954786e-08 9.921815883380722876e-08 3.454266449144900481e-08 5.492115703807801509e-08 0.000000000000000000e+00 0.000000000000000000e+00 0.000000000000000000e+00 0.000000000000000000e+00 0.000000000000000000e+00 0.000000000000000000e+00 7.987981960318768145e-07 8.986658544107236108e-07 7.192322159350182864e-07 6.671400783685898235e-07 4.691099821212643444e-07 3.723914369271683877e-07 2.736502474638573322e-07 1.686884925637618556e-07 1.103450944747065623e-07 3.923765399187847531e-08 -2.379057831552088349e-08 1.538219259886025783e-08 4.426194262277701485e-08 3.535863592618137208e-08 0.000000000000000000e+00 0.000000000000000000e+00 0.000000000000000000e+00 0.000000000000000000e+00 0.000000000000000000e+00 0.000000000000000000e+00 -1.557776411420660882e-07 -2.222509587704394397e-07 -4.008545496932720393e-07 -2.124109408617567119e-07 -2.584277155426681101e-07 -1.926771490722222476e-07 -2.271134198915691867e-07 -2.153221168145267853e-07 -1.771794091191385482e-07 -1.722194698496358223e-07 -1.816489714005448225e-07 -1.140134134743179952e-07 -4.333166381525648203e-08 -7.014105782720470090e-08 0.000000000000000000e+00 0.000000000000000000e+00 0.000000000000000000e+00 0.000000000000000000e+00 0.000000000000000000e+00 0.000000000000000000e+00 -2.355696580099960091e-07 -5.173245943449295556e-08 -1.846721358458244571e-07 -7.478271294680833585e-08 -1.148073266025244412e-07 -2.645813739311067990e-07 -2.186761728559081393e-07 -1.548088940534234328e-07 -9.364725982114112659e-08 -1.089700584983141558e-07 -7.182994990699217515e-08 -2.977504709561501670e-08 -1.329545341995768595e-08 -1.066250957742443132e-08
0.000000000000000000e+00 0.000000000000000000e+00 0.000000000000000000e+00 0.000000000000000000e+00 0.000000000000000000e+00 0.000000000000000000e+00 2.987254895961836974e-06 2.805540297173751054e-06 2.589954565928452735e-06 2.146231250641866695e-06 1.779942628477501000e-06 1.498353852228154482e-06 1.287403423743529521e-06 1.008867328815603845e-06 6.410094464825491074e-07 3.517372456306300685e-07 1.532228367219315103e-07 1.159431142594355224e-07 8.512229449757570806e-08 6.515025967338985393e-08 0.000000000000000000e+00 0.000000000000000000e+00 0.000000000000000000e+00 0.000000000000000000e+00 0.000000000000000000e+00 0.000000000000000000e+00 1.248536800859545392e-06 8.189649127523818859e-07 1.238155836576508359e-06 6.579766900309624722e-07 6.157381433549019016e-07 3.780165439190424997e-07 3.043909177338690600e-07 1.463715041247851149e-07 1.997088584262931596e-08 -8.773741428858888939e-09 -1.857474724785351154e-08 9.284888938017757709e-08 3.232521215834445962e-08 5.139551564347641138e-08 0.000000000000000000e+00 0.000000000000000000e+00 0.000000000000000000e+00 0.000000000000000000e+00 0.000000000000000000e+00 0.000000000000000000e+00 7.475196699092299709e-07 8.409763644746546017e-07 6.730613956248517560e-07 6.243132916957725929e-07 4.389956571364346364e-07 3.484859197124578202e-07 2.560833808475433702e-07 1.578596032203818540e-07 1.032615359017958995e-07 3.671880871254634103e-08 -2.226335179236956181e-08 1.439473898551639210e-08 4.142056517313315831e-08 3.308880263786296100e-08 0.000000000000000000e+00 0.000000000000000000e+00 0.000000000000000000e+00 0.000000000000000000e+00 0.000000000000000000e+00 0.000000000000000000e+00 -1.457775586677824931e-07 -2.079836486391600887e-07 -3.751218545019974531e-07 -1.987753066880399428e-07 -2.418380531872691694e-07 -1.803083176564552597e-07 -2.125339660413144538e-07 -2.014996008815830797e-07 -1.658054488322423808e-07 -1.611639108519030335e-07 -1.699880893762906861e-07 -1.066943686514605842e-07 -4.055000523624823646e-08 -6.563838107614345857e-08 0.000000000000000000e+00 0.000000000000000000e+00 0.000000000000000000e+00 0.000000000000000000e+00 0.000000000000000000e+00 0.000000000000000000e+00 -2.204473593844161032e-07 -4.841151518890210283e-08 -1.728171830065003496e-07 -6.998206702845891978e-08 -1.074373168484915704e-07 -2.475966799719949673e-07 -2.046383446561250745e-07 -1.448709999054755178e-07 -8.763561196952147826e-08 -1.019747698020573051e-07 -6.721885541405077922e-08 -2.786365002701847646e-08 -1.244195718161549673e-08 -9.978034100871012281e-09
0.000000000000000000e+00 0.000000000000000000e+00 0.000000000000000000e+00 0.000000000000000000e+00 0.000000000000000000e+00 0.000000000000000000e+00 1.833948056919158408e-06 1.722389068159361587e-06 1.590035771675933008e-06 1.317623292586984826e-06 1.092749845129250248e-06 9.198756823817637404e-07 7.903681104137289309e-07 6.193680625887356806e-07 3.935312083453739705e-07 2.159400053347947272e-07 9.406720667248262848e-08 7.118028307416461701e-08 5.225863611617415676e-08 3.999732071652393072e-08 0.000000000000000000e+00 0.000000000000000000e+00 0.000000000000000000e+00 0.000000000000000000e+00 0.000000000000000000e+00 0.000000000000000000e+00 7.665069502517864727e-07 5.027823747004368380e-07 7.601338251121947247e-07 4.039478096802485671e-07 3.780165439190424997e-07 2.320735023786467933e-07 1.868729491000222120e-07 8.986100782389129115e-08 1.226061001207319188e-08 -5.386412142839932969e-09 -1.140348674932780830e-08 5.700217965867681196e-08 1.984522984879316467e-08 3.155295056211230115e-08 0.000000000000000000e+00 0.000000000000000000e+00 0.000000000000000000e+00 0.000000000000000000e+00 0.000000000000000000e+00 0.000000000000000000e+00 4.589204115096031233e-07 5.162957374772795923e-07 4.132086754170518554e-07 3.832810349602296035e-07 2.695100553654256011e-07 2.139439376881726158e-07 1.572157834102151745e-07 9.691382981191274298e-08 6.339475529108173830e-08 2.254256507598034998e-08 -1.366801032456837461e-08 8.837278542260526229e-09 2.542908712559069364e-08 2.031401651915329041e-08 0.000000000000000000e+00 0.000000000000000000e+00 0.000000000000000000e+00 0.000000000000000000e+00 0.000000000000000000e+00 0.000000000000000000e+00 -8.949637033739544590e-08 -1.276861940400071776e-07 -2.302963825088457479e-07 -1.220329701214414846e-07 -1.484702320955105880e-07 -1.106956387482787370e-07 -1.304797439875952675e-07 -1.237054802408418831e-07 -1.017919766818534441e-07 -9.894242421424621378e-08 -1.043598009103509681e-07 -6.550225437309393378e-08 -2.489462931723962339e-08 -4.029699025571549162e-08 0.000000000000000000e+00 0.000000000000000000e+00 0.000000000000000000e+00 0.000000000000000000e+00 0.000000000000000000e+00 0.000000000000000000e+00 -1.353379676245659674e-07 -2.972100048550178082e-08 -1.060966499395312589e-07 -4.296368415682334456e-08 -6.595836824679731533e-08 -1.520055924079656571e-07 -1.256324309855773827e-07 -8.893981197913035950e-08 -5.380162252162845829e-08 -6.260477844929461027e-08 -4.126728169115139124e-08 -1.710616890939018445e-08 -7.638418545514909805e-09 -6.125756551910684526e-09
0.000000000000000000e+00 0.000000000000000000e+00 0.000000000000000000e+00 0.000000000000000000e+00 0.000000000000000000e+00 0.000000000000000000e+00 1.476753176817104486e-06 1.386922338679688398e-06 1.280347264044008631e-06 1.060992090716457721e-06 8.799168543365965766e-07 7.407130922323345858e-07 6.364294852871376839e-07 4.987348199945714528e-07 3.168838178966604406e-07 1.738817452745977546e-07 7.574590008904667123e-08 5.731662287812927534e-08 4.208031225831555874e-08 3.220711197869164985e-08 0.000000000000000000e+00 0.000000000000000000e+00 0.000000000000000000e+00 0.000000000000000000e+00 0.000000000000000000e+00 0.000000000000000000e+00 6.172157218772378839e-07 4.048563241937266455e-07 6.120838792600834795e-07 3.252715958682758081e-07 3.043909177338690600e-07 1.868729491000222120e-07 1.504760291347791443e-07 7.235893529004554358e-08 9.872632279161002988e-09 -4.337309998270978060e-09 -9.182449426703648462e-09 4.589996405779389428e-08 1.598000887391696970e-08 2.540743714346450556e-08 0.000000000000000000e+00 0.000000000000000000e+00 0.000000000000000000e+00 0.000000000000000000e+00 0.000000000000000000e+00 0.000000000000000000e+00 3.695372794480914291e-07 4.157377127559023675e-07 3.327287388583969169e-07 3.086300529918535665e-07 2.170180496353011113e-07 1.722744482591943402e-07 1.265951381343071594e-07 7.803809138012194303e-08 5.104746882903383203e-08 1.815198880031733205e-08 -1.100591567543238576e-08 7.116057138294476837e-09 2.047630796008434967e-08 1.635749077810284151e-08 0.000000000000000000e+00 0.000000000000000000e+00 0.000000000000000000e+00 0.000000000000000000e+00 0.000000000000000000e+00 0.000000000000000000e+00 -7.206531761394085116e-08 -1.028169756350834948e-07 -1.854419557829474893e-07 -9.826482032757451645e-08 -1.195529426706565339e-07 -8.913564130923750777e-08 -1.050664307077795998e-07 -9.961157855377665127e-08 -8.196613005056662549e-08 -7.967157997147924802e-08 -8.403382361071677992e-08 -5.274449397255338394e-08 -2.004594557147721321e-08 -3.244841540183214271e-08 0.000000000000000000e+00 0.000000000000000000e+00 0.000000000000000000e+00 0.000000000000000000e+00 0.000000000000000000e+00 0.000000000000000000e+00 -1.089784265587617032e-07 -2.393229280379895884e-08 -8.543238956890561778e-08 -3.459572196005350099e-08 -5.311177133869283655e-08 -1.223997269909178214e-07 -1.011632204463167291e-07 -7.161715916116939891e-08 -4.332277387953948500e-08 -5.041135440566197292e-08 -3.322972485839630300e-08 -1.377443007985121328e-08 -6.150697022410303213e-09 -4.932653579970535976e-09
0.000000000000000000e+00 0.000000000000000000e+00 0.000000000000000000e+00 0.000000000000000000e+00 0.000000000000000000e+00 0.000000000000000000e+00 7.101216597426854677e-07 6.669249868824930554e-07 6.156765656327023756e-07 5.101959327132332567e-07 4.231228527869650919e-07 3.561843771231018917e-07 3.060378467411674618e-07 2.398250457191178130e-07 1.523789257696953816e-07 8.361396846254751349e-08 3.642369295989616023e-08 2.756166433769835550e-08 2.023502752692328571e-08 1.548733273296327329e-08 0.000000000000000000e+00 0.000000000000000000e+00 0.000000000000000000e+00 0.000000000000000000e+00 0.000000000000000000e+00 0.000000000000000000e+00 2.967985847055516670e-07 1.946819884372447125e-07 2.943308516720014030e-07 1.564123302060376581e-07 1.463715041247851149e-07 8.986100782389129115e-08 7.235893529004554358e-08 3.479501383984127595e-08 4.747421661362239582e-09 -2.085668629763300399e-09 -4.415535601858839113e-09 2.207177148526766745e-08 7.684256653306781328e-09 1.221759446152829498e-08 0.000000000000000000e+00 0.000000000000000000e+00 0.000000000000000000e+00 0.000000000000000000e+00 0.000000000000000000e+00 0.000000000000000000e+00 1.776982303732504362e-07 1.999144875626109492e-07 1.599982231231579447e-07 1.484099637756808124e-07 1.043567875935078542e-07 8.284107259735101076e-08 6.087540627544055396e-08 3.752593178329548069e-08 2.454703592963798845e-08 8.728689815514389789e-09 -5.292380087017099099e-09 3.421876035344601368e-09 9.846377866176292574e-09 7.865775190413337583e-09 0.000000000000000000e+00 0.000000000000000000e+00 0.000000000000000000e+00 0.000000000000000000e+00 0.000000000000000000e+00 0.000000000000000000e+00 -3.465382283056600802e-08 -4.944127599242763244e-08 -8.917289056411197705e-08 -4.725229537391827736e-08 -5.748904787148681283e-08 -4.286237574593940025e-08 -5.052296438478475088e-08 -4.789990677024116054e-08 -3.941479539569798272e-08 -3.831142230931928680e-08 -4.040908070066533013e-08 -2.536307907784949677e-08 -9.639430856692134696e-09 -1.560336755180242790e-08 0.000000000000000000e+00 0.000000000000000000e+00 0.000000000000000000e+00 0.000000000000000000e+00 0.000000000000000000e+00 0.000000000000000000e+00 -5.240411353700354624e-08 -1.150824643825123896e-08 -4.108160471827350657e-08 -1.663593610898478488e-08 -2.553969059081133335e-08 -5.885797210213620657e-08 -4.864603993139115563e-08 -3.443831828362763494e-08 -2.083248614254093802e-08 -2.424114958573000271e-08 -1.597907337507603957e-08 -6.623666909182450899e-09 -2.957666349865142116e-09 -2.371949627150316539e-09
0.000000000000000000e+00 0.000000000000000000e+00 0.000000000000000000e+00 0.000000000000000000e+00 0.000000000000000000e+00 0.000000000000000000e+00 9.688879461817479152e-08 9.099505302119798771e-08 8.400273319423214455e-08 6.961098603525556526e-08 5.773076010213155896e-08 4.859769377234265487e-08 4.175571561785312071e-08 3.272166012707420309e-08 2.079053672069068580e-08 1.140826576183272915e-08 4.969638171162949902e-09 3.760505539738023069e-09 2.760861324606819058e-09 2.113087215071206490e-09 0.000000000000000000e+00 0.000000000000000000e+00 0.000000000000000000e+00 0.000000000000000000e+00 0.000000000000000000e+00 0.000000000000000000e+00 4.049511336820950955e-08 2.656235440049661644e-08 4.015841658424325997e-08 2.134085325967135207e-08 1.997088584262931596e-08 1.226061001207319188e-08 9.872632279161002988e-09 4.747421661362239582e-09 6.477368434026815491e-10 -2.845680268137855765e-10 -6.024544050842783317e-10 3.011466140985306437e-09 1.048437763390236653e-09 1.666965067563351367e-09 0.000000000000000000e+00 0.000000000000000000e+00 0.000000000000000000e+00 0.000000000000000000e+00 0.000000000000000000e+00 0.000000000000000000e+00 2.424509534448729071e-08 2.727627507330230124e-08 2.183011145592962194e-08 2.024901268997070700e-08 1.423841002656308707e-08 1.130281207271219835e-08 8.305822889638823184e-09 5.120027318593283212e-09 3.349190508473502791e-09 1.190939923065540532e-09 -7.220908139573186202e-10 4.668797801738539228e-10 1.343436958611546496e-09 1.073204100284511294e-09 0.000000000000000000e+00 0.000000000000000000e+00 0.000000000000000000e+00 0.000000000000000000e+00 0.000000000000000000e+00 0.000000000000000000e+00 -4.728157600744005117e-09 -6.745753448819737818e-09 -1.216672349144496912e-08 -6.447089564033054754e-09 -7.843789124856753815e-09 -5.848130195043153896e-09 -6.893338701360729994e-09 -6.535449476323933224e-09 -5.377743325552039565e-09 -5.227199419607663069e-09 -5.513403326036685849e-09 -3.460531200454765508e-09 -1.315201168273843849e-09 -2.128918972315645274e-09 0.000000000000000000e+00 0.000000000000000000e+00 0.000000000000000000e+00 0.000000000000000000e+00 0.000000000000000000e+00 0.000000000000000000e+00 -7.150002149595112651e-09 -1.570181827681606649e-09 -5.605162309196613093e-09 -2.269802328700349536e-09 -3.484628024388801190e-09 -8.030564752401042577e-09 -6.637251669816617990e-09 -4.698754222462091837e-09 -2.842378405950899628e-09 -3.307455463858549933e-09 -2.180180166575231084e-09 -9.037312043340887244e-10 -4.035431444592296756e-10 -3.236281235991273638e-10
-0.000000000000000000e+00 -0.000000000000000000e+00 -0.000000000000000000e+00 -0.000000000000000000e+00 -0.000000000000000000e+00 -0.000000000000000000e+00 -4.256582497302790927e-08 -3.997654750041799182e-08 -3.690463538629794324e-08 -3.058195800095914768e-08 -2.536265870322050423e-08 -2.135025970091188821e-08 -1.834439668299535474e-08 -1.437549577621306382e-08 -9.133835864464597063e-09 -5.011954639106095108e-09 -2.183294254063510620e-09 -1.652090122964169410e-09 -1.212919826086589345e-09 -9.283354272692299183e-10 -0.000000000000000000e+00 -0.000000000000000000e+00 -0.000000000000000000e+00 -0.000000000000000000e+00 -0.000000000000000000e+00 -0.000000000000000000e+00 -1.779058057938506328e-08 -1.166954891676384883e-08 -1.764266072516695418e-08 -9.375604559908966513e-09 -8.773741428858888939e-09 -5.386412142839932969e-09 -4.337309998270978060e-09 -2.085668629763300399e-09 -2.845680268137855765e-10 1.250183044387191502e-10 2.646742470283209110e-10 -1.323017188670182614e-09 -4.606066006647401520e-10 -7.323420998442588722e-10 -0.000000000000000000e+00 -0.000000000000000000e+00 -0.000000000000000000e+00 -0.000000000000000000e+00 -0.000000000000000000e+00 -0.000000000000000000e+00 -1.065151536826148793e-08 -1.198319326049864753e-08 -9.590548701082565734e-09 -8.895929951803037731e-09 -6.255312303897741108e-09 -4.965626028129417734e-09 -3.648968952195177845e-09 -2.249364207277291704e-09 -1.471388487665912947e-09 -5.232115903430782729e-10 3.172337040899962347e-10 -2.051127076628748794e-10 -5.902075948814531382e-10 -4.714871113122219957e-10 -0.000000000000000000e+00 -0.000000000000000000e+00 -0.000000000000000000e+00 -0.000000000000000000e+00 -0.000000000000000000e+00 -0.000000000000000000e+00 2.077205415458931852e-09 2.963588944885043664e-09 5.345165296699090902e-09 2.832377955051862347e-09 3.445985228010693552e-09 2.569239170356971795e-09 3.028427072482943941e-09 2.871196815127763576e-09 2.362585705059206696e-09 2.296447762313221972e-09 2.422184752185623628e-09 1.520303415609099847e-09 5.778028610396687660e-10 9.352907393931753101e-10 -0.000000000000000000e+00 -0.000000000000000000e+00 -0.000000000000000000e+00 -0.000000000000000000e+00 -0.000000000000000000e+00 -0.000000000000000000e+00 3.141186153216405371e-09 6.898226478749789198e-10 2.462496914518540077e-09 9.971845457215196060e-10 1.530889791402339527e-09 3.528040729914794084e-09 2.915921226935721308e-09 2.064287729172339347e-09 1.248732448490226269e-09 1.453053172304395029e-09 9.578111457142651413e-10 3.970331596955644342e-10 1.772872386720221165e-10 1.421784440580276769e-10
-0.000000000000000000e+00 -0.000000000000000000e+00 -0.000000000000000000e+00 -0.000000000000000000e+00 -0.000000000000000000e+00 -0.000000000000000000e+00 -9.011542529276430196e-08 -8.463370748762204260e-08 -7.813021162441873575e-08 -6.474457274793067240e-08 -5.369487792246969745e-08 -4.520029235373185260e-08 -3.883662797267070644e-08 -3.043413152426035402e-08 -1.933709740154437365e-08 -1.061072877448710071e-08 -4.622217245145671282e-09 -3.497613499731988271e-09 -2.567853108522602050e-09 -1.965364042532165012e-09 -0.000000000000000000e+00 -0.000000000000000000e+00 -0.000000000000000000e+00 -0.000000000000000000e+00 -0.000000000000000000e+00 -0.000000000000000000e+00 -3.766415278295109425e-08 -2.470541483162250443e-08 -3.735099403222665837e-08 -1.984894202868954786e-08 -1.857474724785351154e-08 -1.140348674932780830e-08 -9.182449426703648462e-09 -4.415535601858839113e-09 -6.024544050842783317e-10 2.646742470283209110e-10 5.603376029975403201e-10 -2.800938468881974470e-09 -9.751428461179633035e-10 -1.550429712782021132e-09 -0.000000000000000000e+00 -0.000000000000000000e+00 -0.000000000000000000e+00 -0.000000000000000000e+00 -0.000000000000000000e+00 -0.000000000000000000e+00 -2.255015233538933498e-08 -2.536942624087490557e-08 -2.030399682225505946e-08 -1.883343060986949116e-08 -1.324302134310795683e-08 -1.051264721530125606e-08 -7.725173639076067166e-09 -4.762092883329722964e-09 -3.115052966103923177e-09 -1.107682865579290390e-09 6.716103864868985914e-10 -4.342408233765653479e-10 -1.249519032168737144e-09 -9.981778006858961808e-10 -0.000000000000000000e+00 -0.000000000000000000e+00 -0.000000000000000000e+00 -0.000000000000000000e+00 -0.000000000000000000e+00 -0.000000000000000000e+00 4.397618266605375986e-09 6.274166619124092137e-09 1.131616371296418944e-08 5.996381937178090593e-09 7.295440052472618836e-09 5.439295036857774795e-09 6.411434379055297833e-09 6.078564723188623355e-09 5.001792300206201094e-09 4.861772722474076504e-09 5.127968486906302033e-09 3.218609975454930628e-09 1.223257169124751074e-09 1.980089022266269026e-09 -0.000000000000000000e+00 -0.000000000000000000e+00 -0.000000000000000000e+00 -0.000000000000000000e+00 -0.000000000000000000e+00 -0.000000000000000000e+00 6.650154820215684244e-09 1.460412463031666704e-09 5.213312719172530061e-09 2.111123406864735398e-09 3.241022221840883429e-09 7.469158439380068623e-09 6.173250058045794298e-09 4.370270440168265846e-09 2.643671436977363378e-09 3.076235564051287645e-09 2.027766613260378204e-09 8.405525339628036886e-10 3.753319692977305595e-10 3.010037033669936387e-10
0.000000000000000000e+00 0.000000000000000000e+00 0.000000000000000000e+00 0.000000000000000000e+00 0.000000000000000000e+00 0.000000000000000000e+00 4.504565818747509460e-07 4.230553255716903424e-07 3.905465457789108786e-07 3.236362569474078628e-07 2.684025636516616491e-07 2.259409987497038496e-07 1.941311893194301042e-07 1.521299468343705085e-07 9.665962037664829235e-08 5.303945023204924907e-08 2.310490323012465366e-08 1.748338885035213822e-08 1.283583060573339449e-08 9.824191206582104991e-09 0.000000000000000000e+00 0.000000000000000000e+00 0.000000000000000000e+00 0.000000000000000000e+00 0.000000000000000000e+00 0.000000000000000000e+00 1.882703817542633943e-07 1.234940264965271624e-07 1.867050069033184704e-07 9.921815883380722876e-08 9.284888938017757709e-08 5.700217965867681196e-08 4.589996405779389428e-08 2.207177148526766745e-08 3.011466140985306437e-09 -1.323017188670182614e-09 -2.800938468881974470e-09 1.400094561652564586e-08 4.874409812469517222e-09 7.750074602521109728e-09 0.000000000000000000e+00 0.000000000000000000e+00 0.000000000000000000e+00 0.000000000000000000e+00 0.000000000000000000e+00 0.000000000000000000e+00 1.127205970426688360e-07 1.268131953154717348e-07 1.014928240890540442e-07 9.414196015760577674e-08 6.619739193962133389e-08 5.254917363675752943e-08 3.861553447194957619e-08 2.380409431377364036e-08 1.557109792148587153e-08 5.536932615132871669e-09 -3.357153540202623872e-09 2.170623246499742533e-09 6.245923718271236674e-09 4.989553772170102592e-09 0.000000000000000000e+00 0.000000000000000000e+00 0.000000000000000000e+00 0.000000000000000000e+00 0.000000000000000000e+00 0.000000000000000000e+00 -2.198220877645995677e-08 -3.136244033894860606e-08 -5.656568128615635596e-08 -2.997388851310922465e-08 -3.646744138012559280e-08 -2.718919920924995724e-08 -3.204859551981063131e-08 -3.038469250981655601e-08 -2.500227075973465247e-08 -2.430236017088873542e-08 -2.563298291129214510e-08 -1.608874444326477924e-08 -6.114649532725039769e-09 -9.897796408107266640e-09 0.000000000000000000e+00 0.000000000000000000e+00 0.000000000000000000e+00 0.000000000000000000e+00 0.000000000000000000e+00 0.000000000000000000e+00 -3.324187839673641689e-08 -7.300108767032052422e-09 -2.605958991031006821e-08 -1.055279305049703427e-08 -1.620077569503274428e-08 -3.733580093700390684e-08 -3.085799252648808679e-08 -2.184550622660743962e-08 -1.321482082819790747e-08 -1.537706283604870595e-08 -1.013612058625386060e-08 -4.201638288949481462e-09 -1.876157776639267222e-09 -1.504615873584789769e-09
0.000000000000000000e+00 0.000000000000000000e+00 0.000000000000000000e+00 0.000000000000000000e+00 0.000000000000000000e+00 0.000000000000000000e+00 1.568258346914879834e-07 1.472861252850046859e-07 1.359682386540974568e-07 1.126735143284427999e-07 9.344398055595697667e-08 7.866104558286368311e-08 6.758650451495911554e-08 5.296383015334764786e-08 3.365191287347001112e-08 1.846561109086326884e-08 8.043940038460468824e-09 6.086817598004810519e-09 4.468776636196199483e-09 3.420278553215594790e-09 0.000000000000000000e+00 0.000000000000000000e+00 0.000000000000000000e+00 0.000000000000000000e+00 0.000000000000000000e+00 0.000000000000000000e+00 6.554607248364512559e-08 4.299427417427679303e-08 6.500108939874314825e-08 3.454266449144900481e-08 3.232521215834445962e-08 1.984522984879316467e-08 1.598000887391696970e-08 7.684256653306781328e-09 1.048437763390236653e-09 -4.606066006647401520e-10 -9.751428461179633035e-10 4.874409812469517222e-09 1.697019020762053143e-09 2.698177732031939709e-09 0.000000000000000000e+00 0.000000000000000000e+00 0.000000000000000000e+00 0.000000000000000000e+00 0.000000000000000000e+00 0.000000000000000000e+00 3.924351964082218010e-08 4.414983819855312180e-08 3.533458604760243651e-08 3.277539295743806037e-08 2.304653026075052346e-08 1.829492197368725997e-08 1.344394480910318063e-08 8.287362445223274084e-09 5.421056161365842850e-09 1.927675416318315847e-09 -1.168788352339249551e-09 7.556994750000573074e-10 2.174509686284491461e-09 1.737106230753688478e-09 0.000000000000000000e+00 0.000000000000000000e+00 0.000000000000000000e+00 0.000000000000000000e+00 0.000000000000000000e+00 0.000000000000000000e+00 -7.653075520360420484e-09 -1.091879013876897192e-08 -1.969326354534367810e-08 -1.043536774499828970e-08 -1.269608917622892723e-08 -9.465882023163251462e-09 -1.115767411404296591e-08 -1.057838858711829841e-08 -8.704505914330720993e-09 -8.460833012830769220e-09 -8.924087475790889267e-09 -5.601274080516360892e-09 -2.128806760519602037e-09 -3.445904102117060340e-09 0.000000000000000000e+00 0.000000000000000000e+00 0.000000000000000000e+00 0.000000000000000000e+00 0.000000000000000000e+00 0.000000000000000000e+00 -1.157311389387280061e-08 -2.541522750014504794e-09 -9.072610111263932841e-09 -3.673940275404586773e-09 -5.640277605555159237e-09 -1.299840735249577263e-08 -1.074316733197554608e-08 -7.605482717085461167e-09 -4.600721556904308540e-09 -5.353503115284302484e-09 -3.528876334445091499e-09 -1.462794547243249046e-09 -6.531817297681084620e-10 -5.238299311399700048e-10
